SVM-light Version V6.02
0 # kernel type
3 # kernel parameter -d 
1 # kernel parameter -g 
1 # kernel parameter -s 
1 # kernel parameter -r 
empty# kernel parameter -u 
57 # highest feature index 
12756 # number of training documents 
4297 # number of support vectors plus 1 
0.41847632 # threshold b, each following line is a SV (starting with alpha*y)
-0.00037647985461484339587967529183743 1:0.036144577 2:0.036144577 3:0.048192769 4:0.10843374 5:0.024096385 6:0.096385539 7:0.060240965 8:0.084337346 9:0.096385539 10:0.096385539 11:0.048192769 12:0.012048192 13:0.060240965 14:0.036144577 15:0.10843374 16:0.036144577 17:5 18:0.30120483 19:-0.90399998 20:0.15060242 21:0.12 22:1 23:6 24:33 25:0.048192769 26:0.048192769 27:0.024096385 28:0.012048192 29:0.024096385 30:0 31:0.024096385 32:0.036144577 33:0.084337346 34:0.024096385 35:0.024096385 36:0.024096385 37:0.024096385 38:0 39:0.024096385 40:0.060240965 41:0.072289154 42:0.012048192 43:0.024096385 44:0.084337346 45:0.012048192 46:0 47:0 48:0.048192769 49:0.060240965 50:0.084337346 51:0.024096385 52:0.048192769 53:0 54:0 55:0.012048192 56:0.012048192 57:-22.6 #
-0.00037647985461484339587967529183743 1:0.060240965 2:0.012048192 3:0.024096385 4:0.14457831 5:0 6:0 7:0.084337346 8:0.060240965 9:0.072289154 10:0.060240965 11:0.096385539 12:0.060240965 13:0.10843374 14:0.060240965 15:0.084337346 16:0.060240965 17:5 18:0.30120483 19:-0.93199998 20:0.15060242 21:0.079999998 22:1 23:6 24:33 25:0.072289154 26:0 27:0 28:0.012048192 29:0.048192769 30:0 31:0.048192769 32:0.060240965 33:0.084337346 34:0.012048192 35:0 36:0 37:0.024096385 38:0 39:0 40:0.012048192 41:0.060240965 42:0.048192769 43:0.012048192 44:0.096385539 45:0.012048192 46:0 47:0.036144577 48:0.024096385 49:0.12048193 50:0.072289154 51:0.012048192 52:0.024096385 53:0.012048192 54:0 55:0.024096385 56:0.048192769 57:-23.299999 #
-0.00037647985461484339587967529183743 1:0.047619049 2:0.011904762 3:0.023809524 4:0.05952381 5:0 6:0.011904762 7:0 8:0.083333336 9:0.071428575 10:0.05952381 11:0.16666667 12:0.047619049 13:0.035714287 14:0.011904762 15:0.14285715 16:0.21428572 17:6 18:0.36904761 19:-1.8903226 20:0.12301587 21:0.12903225 22:0 23:80 24:22 25:0.023809524 26:0.011904762 27:0.047619049 28:0 29:0.023809524 30:0 31:0.011904762 32:0.023809524 33:0.023809524 34:0.011904762 35:0 36:0.011904762 37:0.023809524 38:0 39:0.023809524 40:0 41:0.21428572 42:0.035714287 43:0 44:0.05952381 45:0 46:0.011904762 47:0.011904762 48:0 49:0.23809524 50:0.047619049 51:0.023809524 52:0.023809524 53:0 54:0.011904762 55:0 56:0.05952381 57:-58.599998 #
0.00037647985461484339587967529183743 1:0.024096385 2:0.084337346 3:0 4:0.060240965 5:0 6:0.048192769 7:0.18072289 8:0.036144577 9:0.12048193 10:0.10843374 11:0.21686748 12:0 13:0.024096385 14:0.036144577 15:0.048192769 16:0 17:39 18:0.12048193 19:-0.50199997 20:0.12048193 21:0.1 22:1 23:10 24:63 25:0.048192769 26:0.012048192 27:0 28:0 29:0.012048192 30:0 31:0 32:0.096385539 33:0.048192769 34:0 35:0 36:0.012048192 37:0.024096385 38:0 39:0.024096385 40:0.15662651 41:0.024096385 42:0.036144577 43:0.012048192 44:0 45:0 46:0 47:0 48:0.37349397 49:0.024096385 50:0 51:0 52:0.036144577 53:0 54:0 55:0 56:0.036144577 57:-5.02 #
-0.00037647985461484339587967529183743 1:0.072289154 2:0.012048192 3:0.084337346 4:0.084337346 5:0.012048192 6:0.024096385 7:0.072289154 8:0.060240965 9:0.096385539 10:0.096385539 11:0.072289154 12:0.024096385 13:0.072289154 14:0.048192769 15:0.060240965 16:0.096385539 17:11 18:0.26506025 19:-1.0409091 20:0.13253012 21:0.27272728 22:1 23:4 24:39 25:0.048192769 26:0 27:0.012048192 28:0.012048192 29:0.048192769 30:0 31:0.024096385 32:0.10843374 33:0.084337346 34:0.012048192 35:0 36:0 37:0 38:0 39:0.024096385 40:0.048192769 41:0.096385539 42:0.024096385 43:0 44:0.048192769 45:0.024096385 46:0 47:0.024096385 48:0.072289154 49:0.10843374 50:0.048192769 51:0 52:0.036144577 53:0 54:0 55:0.012048192 56:0.060240965 57:-22.9 #
-0.00037647985461484339587967529183743 1:0.024096385 2:0.060240965 3:0.060240965 4:0.096385539 5:0.024096385 6:0.012048192 7:0.036144577 8:0.084337346 9:0.084337346 10:0.060240965 11:0.084337346 12:0.048192769 13:0.10843374 14:0.024096385 15:0.096385539 16:0.084337346 17:5 18:0.31325302 19:-0.77692306 20:0.31325302 21:0.15384616 22:1 23:4 24:31 25:0.036144577 26:0.024096385 27:0.060240965 28:0.036144577 29:0.036144577 30:0 31:0.024096385 32:0.012048192 33:0.060240965 34:0.036144577 35:0 36:0.024096385 37:0.024096385 38:0 39:0 40:0.012048192 41:0.060240965 42:0.060240965 43:0.012048192 44:0.060240965 45:0.012048192 46:0.012048192 47:0.048192769 48:0.012048192 49:0.072289154 50:0.048192769 51:0.024096385 52:0.060240965 53:0.036144577 54:0.024096385 55:0.048192769 56:0 57:-20.200001 #
0.00037647985461484339587967529183743 1:0.35365853 2:0.048780486 3:0.15853658 4:0.024390243 5:0.024390243 6:0.012195121 7:0.036585364 8:0.036585364 9:0.17073171 10:0.024390243 11:0.012195121 12:0 13:0.036585364 14:0.012195121 15:0.012195121 16:0.024390243 17:7 18:0.097560972 19:-0.51249999 20:0.097560972 21:0.375 22:1 23:1 24:66 25:0.012195121 26:0.012195121 27:0 28:0.012195121 29:0.012195121 30:0 31:0.012195121 32:0.52439022 33:0.048780486 34:0 35:0 36:0.012195121 37:0 38:0 39:0 40:0.036585364 41:0.024390243 42:0.012195121 43:0.012195121 44:0 45:0 46:0 47:0.012195121 48:0.14634146 49:0.036585364 50:0.012195121 51:0 52:0.012195121 53:0 54:0 55:0 56:0.024390243 57:-4.0999999 #
-0.00037647985461484339587967529183743 1:0.035714287 2:0.035714287 3:0.047619049 4:0.095238097 5:0.035714287 6:0.023809524 7:0.071428575 8:0.095238097 9:0.071428575 10:0.11904762 11:0.095238097 12:0 13:0.071428575 14:0.05952381 15:0.071428575 16:0.05952381 17:14 18:0.2857143 19:-1.0458333 20:0.14285715 21:0.125 22:1 23:6 24:36 25:0.071428575 26:0.011904762 27:0.023809524 28:0.023809524 29:0.011904762 30:0 31:0.035714287 32:0.035714287 33:0.11904762 34:0.023809524 35:0.011904762 36:0 37:0 38:0 39:0 40:0.071428575 41:0.095238097 42:0.023809524 43:0 44:0.023809524 45:0.023809524 46:0 47:0.011904762 48:0.10714286 49:0.095238097 50:0.035714287 51:0 52:0.047619049 53:0.011904762 54:0 55:0.011904762 56:0.047619049 57:-25.1 #
0.00037647985461484339587967529183743 1:0.125 2:0.0625 3:0.075000003 4:0.037500001 5:0.0125 6:0.037500001 7:0.0625 8:0.1375 9:0.1 10:0.0625 11:0.0125 12:0.0125 13:0.050000001 14:0.087499999 15:0.050000001 16:0.0625 17:4 18:0.34999999 19:-1.15 20:0.34999999 21:0.32142857 22:1 23:9 24:24 25:0.1 26:0.025 27:0.0125 28:0.025 29:0.037500001 30:0 31:0.025 32:0.0625 33:0.15000001 34:0.025 35:0 36:0.025 37:0.0125 38:0 39:0 40:0.037500001 41:0.1 42:0.037500001 43:0 44:0 45:0.0125 46:0 47:0.025 48:0.0125 49:0.15000001 50:0.0125 51:0 52:0.037500001 53:0.0125 54:0 55:0.025 56:0.0125 57:-32.200001 #
-0.00037647985461484339587967529183743 1:0 2:0 3:0 4:0.072289154 5:0 6:0 7:0.036144577 8:0.048192769 9:0.060240965 10:0.060240965 11:0.14457831 12:0.15662651 13:0.012048192 14:0.024096385 15:0.25301206 16:0.12048193 17:4 18:0.37349397 19:-1.7 20:0.18674698 21:0.032258064 22:1 23:4 24:21 25:0.024096385 26:0.012048192 27:0.012048192 28:0 29:0.012048192 30:0 31:0.012048192 32:0 33:0.060240965 34:0 35:0 36:0.012048192 37:0.012048192 38:0 39:0 40:0 41:0.18072289 42:0.060240965 43:0.048192769 44:0.048192769 45:0.012048192 46:0.012048192 47:0.024096385 48:0.036144577 49:0.20481928 50:0.060240965 51:0.024096385 52:0.072289154 53:0.012048192 54:0 55:0.012048192 56:0.012048192 57:-52.700001 #
0.00037647985461484339587967529183743 1:0.11111111 2:0.0092592593 3:0.055555556 4:0.083333336 5:0.0092592593 6:0.0092592593 7:0.14814815 8:0 9:0.12037037 10:0.074074075 11:0.24074075 12:0.0092592593 13:0.018518519 14:0.074074075 15:0 16:0.027777778 17:9 18:0.1388889 19:-0.66000003 20:0.046296295 21:0 22:0 23:80 24:78 25:0.018518519 26:0.027777778 27:0 28:0.0092592593 29:0.046296295 30:0 31:0.0092592593 32:0.14814815 33:0.027777778 34:0 35:0.027777778 36:0.027777778 37:0 38:0 39:0 40:0.083333336 41:0.037037037 42:0.018518519 43:0 44:0.018518519 45:0.0092592593 46:0.0092592593 47:0.046296295 48:0.2962963 49:0.046296295 50:0.018518519 51:0 52:0.0092592593 53:0 54:0.0092592593 55:0 56:0.037037037 57:-9.8999996 #
-0.00037647985461484339587967529183743 1:0.036144577 2:0.048192769 3:0.072289154 4:0.060240965 5:0.036144577 6:0.084337346 7:0.084337346 8:0.10843374 9:0.096385539 10:0.084337346 11:0.048192769 12:0 13:0.060240965 14:0.084337346 15:0.024096385 16:0.060240965 17:6 18:0.30120483 19:-0.89600003 20:0.15060242 21:0.2 22:1 23:2 24:33 25:0.10843374 26:0 27:0 28:0 29:0 30:0 31:0.012048192 32:0.096385539 33:0.096385539 34:0.048192769 35:0.036144577 36:0.024096385 37:0.024096385 38:0 39:0.024096385 40:0.048192769 41:0.084337346 42:0.012048192 43:0.024096385 44:0.036144577 45:0 46:0 47:0 48:0.072289154 49:0.12048193 50:0.036144577 51:0 52:0.036144577 53:0.012048192 54:0 55:0 56:0.024096385 57:-22.4 #
-0.00037647985461484339587967529183743 1:0.048192769 2:0 3:0.024096385 4:0.036144577 5:0 6:0.024096385 7:0.036144577 8:0.12048193 9:0.012048192 10:0.096385539 11:0.084337346 12:0.084337346 13:0.048192769 14:0.048192769 15:0.13253012 16:0.19277108 17:4 18:0.33734939 19:-1.2142857 20:0.16867469 21:0.071428575 22:1 23:2 24:27 25:0.012048192 26:0.012048192 27:0 28:0.012048192 29:0.012048192 30:0 31:0.012048192 32:0.048192769 33:0.048192769 34:0.012048192 35:0.048192769 36:0.048192769 37:0 38:0.012048192 39:0 40:0 41:0.13253012 42:0.024096385 43:0.048192769 44:0.060240965 45:0 46:0 47:0 48:0.012048192 49:0.16867469 50:0.096385539 51:0.024096385 52:0.024096385 53:0.036144577 54:0.012048192 55:0.024096385 56:0.036144577 57:-34 #
-0.00037647985461484339587967529183743 1:0 2:0.024096385 3:0 4:0.024096385 5:0 6:0 7:0.036144577 8:0.084337346 9:0 10:0.072289154 11:0.10843374 12:0.15662651 13:0.036144577 14:0.024096385 15:0.20481928 16:0.21686748 17:6 18:0.33734939 19:-2.0428572 20:0.16867469 21:0.10714286 22:1 23:3 24:27 25:0 26:0.012048192 27:0 28:0 29:0 30:0 31:0.012048192 32:0.012048192 33:0.036144577 34:0 35:0.024096385 36:0.012048192 37:0.012048192 38:0 39:0 40:0.036144577 41:0.19277108 42:0.024096385 43:0 44:0.072289154 45:0.012048192 46:0 47:0 48:0.036144577 49:0.20481928 50:0.084337346 51:0.048192769 52:0.036144577 53:0.024096385 54:0 55:0.024096385 56:0.060240965 57:-57.200001 #
0.00037647985461484339587967529183743 1:0.073529415 2:0.11764706 3:0.05882353 4:0.05882353 5:0.13235295 6:0.13235295 7:0.029411765 8:0.088235296 9:0.044117648 10:0.05882353 11:0.014705882 12:0 13:0.044117648 14:0.073529415 15:0.014705882 16:0.044117648 17:7 18:0.25 19:-0.47058824 20:0.083333336 21:0 22:0 23:80 24:34 25:0.05882353 26:0.044117648 27:0.029411765 28:0.044117648 29:0.014705882 30:0 31:0 32:0.10294118 33:0.10294118 34:0.044117648 35:0 36:0.029411765 37:0.029411765 38:0 39:0.05882353 40:0.11764706 41:0.05882353 42:0 43:0.014705882 44:0.014705882 45:0.014705882 46:0 47:0 48:0.014705882 49:0.073529415 50:0.014705882 51:0 52:0.014705882 53:0 54:0 55:0 56:0.073529415 57:-8 #
-0.00037647985461484339587967529183743 1:0.072289154 2:0.024096385 3:0.048192769 4:0.10843374 5:0 6:0.024096385 7:0.048192769 8:0.12048193 9:0.096385539 10:0.072289154 11:0.060240965 12:0.012048192 13:0.084337346 14:0.060240965 15:0.084337346 16:0.072289154 17:6 18:0.30120483 19:-1.1 20:0.30120483 21:0.039999999 22:1 23:11 24:33 25:0.072289154 26:0.012048192 27:0.024096385 28:0.012048192 29:0.012048192 30:0 31:0.024096385 32:0.096385539 33:0.072289154 34:0.024096385 35:0.024096385 36:0.012048192 37:0.024096385 38:0 39:0 40:0.024096385 41:0.10843374 42:0.060240965 43:0 44:0.024096385 45:0 46:0 47:0.012048192 48:0.036144577 49:0.060240965 50:0.048192769 51:0.024096385 52:0.096385539 53:0.024096385 54:0 55:0.036144577 56:0.012048192 57:-27.5 #
0.00037647985461484339587967529183743 1:0.098765433 2:0.037037037 3:0.024691358 4:0.11111111 5:0.074074075 6:0.14814815 7:0.061728396 8:0.074074075 9:0.061728396 10:0.074074075 11:0 12:0 13:0.037037037 14:0.098765433 15:0.037037037 16:0.049382716 17:12 18:0.32098764 19:-0.99230766 20:0.32098764 21:0.11538462 22:1 23:3 24:29 25:0.098765433 26:0.037037037 27:0.024691358 28:0.037037037 29:0 30:0 31:0 32:0.074074075 33:0.16049382 34:0.012345679 35:0.012345679 36:0.049382716 37:0.024691358 38:0 39:0.037037037 40:0.061728396 41:0.074074075 42:0.012345679 43:0 44:0.012345679 45:0.012345679 46:0 47:0 48:0.012345679 49:0.11111111 50:0.037037037 51:0.024691358 52:0 53:0 54:0 55:0 56:0.049382716 57:-25.799999 #
0.00037647985461484339587967529183743 1:0.23333333 2:0.1 3:0.077777781 4:0.06666667 5:0.06666667 6:0.06666667 7:0.033333335 8:0.044444446 9:0.13333334 10:0.033333335 11:0.011111111 12:0 13:0.055555556 14:0.011111111 15:0.044444446 16:0.011111111 17:5 18:0.16666667 19:-0.33333334 20:0.055555556 21:0.13333334 22:0 23:80 24:60 25:0.055555556 26:0.022222223 27:0 28:0.022222223 29:0.06666667 30:0 31:0.022222223 32:0.2888889 33:0.06666667 34:0.022222223 35:0 36:0.022222223 37:0.011111111 38:0 39:0.011111111 40:0.077777781 41:0.011111111 42:0.033333335 43:0 44:0.011111111 45:0.011111111 46:0 47:0.044444446 48:0.055555556 49:0.022222223 50:0.011111111 51:0 52:0.033333335 53:0 54:0 55:0.011111111 56:0.044444446 57:-5 #
-0.00037647985461484339587967529183743 1:0.012048192 2:0.024096385 3:0.036144577 4:0.084337346 5:0.012048192 6:0 7:0.036144577 8:0.048192769 9:0.072289154 10:0.036144577 11:0.15662651 12:0.084337346 13:0.060240965 14:0.036144577 15:0.13253012 16:0.15662651 17:6 18:0.37349397 19:-1.8129033 20:0.37349397 21:0.064516127 22:1 23:5 24:21 25:0.060240965 26:0 27:0.036144577 28:0.012048192 29:0.012048192 30:0 31:0.012048192 32:0.024096385 33:0.072289154 34:0.012048192 35:0 36:0.012048192 37:0 38:0 39:0 40:0 41:0.20481928 42:0.024096385 43:0.012048192 44:0.048192769 45:0.024096385 46:0 47:0.024096385 48:0.012048192 49:0.21686748 50:0.048192769 51:0 52:0.024096385 53:0 54:0 55:0.012048192 56:0.072289154 57:-56.200001 #
-0.00037647985461484339587967529183743 1:0.084337346 2:0.048192769 3:0.024096385 4:0.084337346 5:0.012048192 6:0 7:0.036144577 8:0.13253012 9:0.072289154 10:0.084337346 11:0.084337346 12:0.012048192 13:0.072289154 14:0.048192769 15:0.10843374 16:0.084337346 17:4 18:0.30120483 19:-1.04 20:0.30120483 21:0.16 22:1 23:12 24:33 25:0.036144577 26:0.012048192 27:0 28:0.024096385 29:0.024096385 30:0 31:0.024096385 32:0.12048193 33:0.060240965 34:0.036144577 35:0.012048192 36:0.024096385 37:0.012048192 38:0 39:0.012048192 40:0.024096385 41:0.12048193 42:0.024096385 43:0 44:0.036144577 45:0.012048192 46:0 47:0.036144577 48:0.024096385 49:0.16867469 50:0.024096385 51:0 52:0.024096385 53:0.036144577 54:0 55:0.024096385 56:0.024096385 57:-26 #
-0.00037647985461484339587967529183743 1:0.035714287 2:0.011904762 3:0.047619049 4:0.095238097 5:0.011904762 6:0.011904762 7:0.047619049 8:0.083333336 9:0.05952381 10:0.095238097 11:0.10714286 12:0.011904762 13:0.083333336 14:0.035714287 15:0.083333336 16:0.16666667 17:5 18:0.32142857 19:-1.2148148 20:0.10714286 21:0.14814815 22:0 23:80 24:30 25:0.023809524 26:0.011904762 27:0.023809524 28:0.023809524 29:0 30:0 31:0.047619049 32:0.05952381 33:0.05952381 34:0.023809524 35:0 36:0.023809524 37:0.023809524 38:0 39:0.023809524 40:0 41:0.11904762 42:0.035714287 43:0.011904762 44:0.035714287 45:0.011904762 46:0.011904762 47:0.011904762 48:0.035714287 49:0.16666667 50:0.047619049 51:0 52:0.035714287 53:0.05952381 54:0 55:0.011904762 56:0.035714287 57:-32.799999 #
0.00037647985461484339587967529183743 1:0.072164945 2:0.082474224 3:0.030927835 4:0.010309278 5:0.082474224 6:0.34020618 7:0.051546391 8:0.072164945 9:0.030927835 10:0.041237112 11:0.010309278 12:0.010309278 13:0.020618556 14:0.072164945 15:0 16:0.06185567 17:22 18:0.21649484 19:-0.36666667 20:0.072164945 21:0.095238097 22:0 23:80 24:55 25:0.06185567 26:0.030927835 27:0 28:0.020618556 29:0.010309278 30:0 31:0 32:0.072164945 33:0.092783503 34:0.020618556 35:0.010309278 36:0.020618556 37:0.041237112 38:0 39:0.051546391 40:0.29896906 41:0.030927835 42:0.020618556 43:0 44:0.020618556 45:0 46:0 47:0.010309278 48:0.010309278 49:0.06185567 50:0.010309278 51:0.010309278 52:0.020618556 53:0.010309278 54:0 55:0 56:0.041237112 57:-7.6999998 #
-0.00037647985461484339587967529183743 1:0 2:0.011904762 3:0.023809524 4:0.035714287 5:0 6:0 7:0.035714287 8:0.035714287 9:0 10:0.05952381 11:0.095238097 12:0.17857143 13:0.071428575 14:0 15:0.17857143 16:0.26190478 17:3 18:0.36904761 19:-1.6838709 20:0.36904761 21:0.032258064 22:1 23:4 24:22 25:0.011904762 26:0 27:0.023809524 28:0 29:0.011904762 30:0 31:0 32:0.023809524 33:0.047619049 34:0 35:0 36:0.011904762 37:0 38:0 39:0 40:0.011904762 41:0.21428572 42:0.071428575 43:0.011904762 44:0.023809524 45:0.011904762 46:0 47:0 48:0 49:0.22619048 50:0.035714287 51:0.047619049 52:0.071428575 53:0.023809524 54:0.023809524 55:0.035714287 56:0.035714287 57:-52.200001 #
-0.00037647985461484339587967529183743 1:0.072289154 2:0.024096385 3:0.048192769 4:0.060240965 5:0 6:0.048192769 7:0.060240965 8:0.13253012 9:0.048192769 10:0.096385539 11:0.036144577 12:0.036144577 13:0.084337346 14:0.060240965 15:0.084337346 16:0.096385539 17:5 18:0.30120483 19:-0.92400002 20:0.15060242 21:0.079999998 22:1 23:4 24:33 25:0.024096385 26:0.036144577 27:0.012048192 28:0.024096385 29:0.024096385 30:0 31:0.024096385 32:0.060240965 33:0.048192769 34:0.024096385 35:0.036144577 36:0.060240965 37:0.012048192 38:0 39:0.024096385 40:0.024096385 41:0.072289154 42:0.048192769 43:0 44:0.048192769 45:0.012048192 46:0 47:0.012048192 48:0.024096385 49:0.12048193 50:0.060240965 51:0.060240965 52:0.036144577 53:0 54:0 55:0 56:0.048192769 57:-23.1 #
-0.00037647985461484339587967529183743 1:0 2:0 3:0 4:0.060240965 5:0 6:0.012048192 7:0.024096385 8:0.024096385 9:0.024096385 10:0.036144577 11:0.12048193 12:0.14457831 13:0.036144577 14:0.024096385 15:0.16867469 16:0.31325302 17:6 18:0.33734939 19:-1.9464285 20:0.33734939 21:0.035714287 22:1 23:7 24:27 25:0.012048192 26:0 27:0 28:0 29:0.012048192 30:0 31:0.012048192 32:0.024096385 33:0.024096385 34:0 35:0 36:0.012048192 37:0 38:0 39:0 40:0.024096385 41:0.16867469 42:0.072289154 43:0 44:0.048192769 45:0.012048192 46:0 47:0 48:0.012048192 49:0.20481928 50:0.060240965 51:0.048192769 52:0.060240965 53:0.060240965 54:0 55:0.060240965 56:0.048192769 57:-54.5 #
0.00037647985461484339587967529183743 1:0.25555557 2:0.088888891 3:0.088888891 4:0.044444446 5:0.044444446 6:0.055555556 7:0.022222223 8:0.044444446 9:0.15555556 10:0.011111111 11:0.055555556 12:0.011111111 13:0.022222223 14:0.011111111 15:0.06666667 16:0.011111111 17:6 18:0.2 19:-0.2888889 20:0.06666667 21:0.11111111 22:0 23:80 24:54 25:0.055555556 26:0.033333335 27:0 28:0.022222223 29:0.055555556 30:0 31:0.022222223 32:0.27777779 33:0.06666667 34:0.022222223 35:0 36:0.033333335 37:0.022222223 38:0 39:0.011111111 40:0.011111111 41:0.044444446 42:0.022222223 43:0 44:0.011111111 45:0.022222223 46:0 47:0.06666667 48:0.06666667 49:0.033333335 50:0.022222223 51:0 52:0.033333335 53:0 54:0 55:0 56:0.022222223 57:-5.1999998 #
0.00037647985461484339587967529183743 1:0.055555556 2:0.069444448 3:0.027777778 4:0.097222224 5:0.027777778 6:0.055555556 7:0.069444448 8:0.097222224 9:0.097222224 10:0.069444448 11:0.041666668 12:0 13:0.083333336 14:0.055555556 15:0.055555556 16:0.083333336 17:8 18:0.31944445 19:-1.1652174 20:0.31944445 21:0.17391305 22:1 23:5 24:26 25:0.083333336 26:0.013888889 27:0.041666668 28:0.013888889 29:0.027777778 30:0 31:0.027777778 32:0.041666668 33:0.097222224 34:0.027777778 35:0 36:0.041666668 37:0 38:0 39:0.013888889 40:0.069444448 41:0.11111111 42:0.013888889 43:0 44:0.027777778 45:0.027777778 46:0 47:0 48:0.013888889 49:0.125 50:0.055555556 51:0 52:0.027777778 53:0.013888889 54:0 55:0.027777778 56:0.027777778 57:-26.799999 #
-0.00037647985461484339587967529183743 1:0.012048192 2:0.012048192 3:0.012048192 4:0.084337346 5:0 6:0 7:0.024096385 8:0.036144577 9:0.036144577 10:0.048192769 11:0.16867469 12:0.096385539 13:0.060240965 14:0 15:0.15662651 16:0.24096386 17:4 18:0.33734939 19:-1.8035715 20:0.1124498 21:0.071428575 22:0 23:80 24:27 25:0.012048192 26:0 27:0 28:0.012048192 29:0.036144577 30:0 31:0.048192769 32:0 33:0.024096385 34:0.012048192 35:0 36:0.012048192 37:0.012048192 38:0 39:0 40:0 41:0.22891566 42:0.012048192 43:0 44:0.048192769 45:0 46:0 47:0.012048192 48:0.048192769 49:0.19277108 50:0.084337346 51:0.048192769 52:0.036144577 53:0.012048192 54:0 55:0 56:0.084337346 57:-50.5 #
0.00037647985461484339587967529183743 1:0.18367347 2:0.18367347 3:0.020408163 4:0.020408163 5:0.18367347 6:0.14285715 7:0.06122449 8:0.040816326 9:0.040816326 10:0.06122449 11:0 12:0 13:0 14:0.040816326 15:0 16:0 17:12 18:0.32653061 19:-0.49375001 20:0.32653061 21:0.125 22:1 23:5 24:17 25:0.20408164 26:0.020408163 27:0 28:0.040816326 29:0.040816326 30:0 31:0.040816326 32:0.06122449 33:0.22448979 34:0.040816326 35:0 36:0.020408163 37:0 38:0 39:0.020408163 40:0.12244898 41:0.020408163 42:0 43:0 44:0 45:0.020408163 46:0 47:0 48:0.040816326 49:0.040816326 50:0 51:0 52:0 53:0 54:0 55:0 56:0 57:-7.9000001 #
-0.00037647985461484339587967529183743 1:0.023809524 2:0.023809524 3:0.047619049 4:0.095238097 5:0 6:0.071428575 7:0.11904762 8:0.083333336 9:0.10714286 10:0.095238097 11:0.011904762 12:0.023809524 13:0.05952381 14:0.083333336 15:0.047619049 16:0.095238097 17:7 18:0.2857143 19:-0.98750001 20:0.14285715 21:0.125 22:1 23:4 24:36 25:0.05952381 26:0.011904762 27:0.023809524 28:0.023809524 29:0.047619049 30:0 31:0.011904762 32:0.011904762 33:0.10714286 34:0.035714287 35:0.023809524 36:0 37:0.011904762 38:0 39:0.023809524 40:0.071428575 41:0.05952381 42:0.047619049 43:0.011904762 44:0.011904762 45:0.011904762 46:0.023809524 47:0.011904762 48:0.047619049 49:0.083333336 50:0.011904762 51:0 52:0.05952381 53:0.023809524 54:0.023809524 55:0.035714287 56:0.047619049 57:-23.700001 #
0.00028224934253460922523037979203764 1:0.08791209 2:0.0989011 3:0.021978023 4:0.08791209 5:0.043956045 6:0.14285715 7:0.08791209 8:0.054945055 9:0.08791209 10:0.065934069 11:0.021978023 12:0 13:0.065934069 14:0.032967035 15:0.043956045 16:0.043956045 17:13 18:0.31868133 19:-1.1482759 20:0.31868133 21:0.1724138 22:1 23:5 24:33 25:0.13186814 26:0.010989011 27:0.010989011 28:0.032967035 29:0.032967035 30:0 31:0.010989011 32:0.054945055 33:0.14285715 34:0.043956045 35:0.043956045 36:0.010989011 37:0.010989011 38:0 39:0 40:0.07692308 41:0.065934069 42:0.021978023 43:0 44:0.032967035 45:0 46:0 47:0.021978023 48:0.032967035 49:0.0989011 50:0.021978023 51:0 52:0.021978023 53:0 54:0 55:0.010989011 56:0.032967035 57:-33.299999 #
-0.00037647985461484339587967529183743 1:0.023809524 2:0 3:0.023809524 4:0.095238097 5:0 6:0 7:0.011904762 8:0.047619049 9:0.071428575 10:0.047619049 11:0.05952381 12:0.14285715 13:0.05952381 14:0 15:0.22619048 16:0.17857143 17:7 18:0.33333334 19:-1.7714286 20:0.11111111 21:0.035714287 22:0 23:80 24:28 25:0.035714287 26:0 27:0 28:0 29:0.023809524 30:0 31:0 32:0.083333336 33:0.035714287 34:0 35:0 36:0 37:0 38:0 39:0.011904762 40:0 41:0.15476191 42:0.083333336 43:0 44:0.035714287 45:0 46:0.011904762 47:0 48:0.035714287 49:0.19047619 50:0.023809524 51:0.083333336 52:0.083333336 53:0.011904762 54:0 55:0.035714287 56:0.035714287 57:-49.599998 #
-0.00037647985461484339587967529183743 1:0.047619049 2:0.10714286 3:0.071428575 4:0.011904762 5:0.011904762 6:0 7:0.047619049 8:0.10714286 9:0.071428575 10:0.071428575 11:0.095238097 12:0.071428575 13:0.095238097 14:0 15:0.095238097 16:0.083333336 17:7 18:0.29761904 19:-1.096 20:0.14880952 21:0.12 22:1 23:7 24:34 25:0.035714287 26:0.035714287 27:0.047619049 28:0 29:0.011904762 30:0.011904762 31:0.047619049 32:0.035714287 33:0.047619049 34:0.011904762 35:0 36:0.023809524 37:0.011904762 38:0.011904762 39:0.023809524 40:0.035714287 41:0.095238097 42:0.035714287 43:0 44:0.047619049 45:0.047619049 46:0.011904762 47:0 48:0.071428575 49:0.13095239 50:0.035714287 51:0.023809524 52:0.035714287 53:0.011904762 54:0.011904762 55:0.011904762 56:0.011904762 57:-27.4 #
-0.00037647985461484339587967529183743 1:0.036144577 2:0.084337346 3:0.012048192 4:0.10843374 5:0.024096385 6:0.036144577 7:0.048192769 8:0.12048193 9:0.072289154 10:0.012048192 11:0.072289154 12:0.024096385 13:0.10843374 14:0.10843374 15:0.048192769 16:0.072289154 17:16 18:0.24096386 19:-1.12 20:0.12048193 21:0.2 22:1 23:6 24:43 25:0.036144577 26:0 27:0 28:0.024096385 29:0.024096385 30:0 31:0.012048192 32:0.14457831 33:0.060240965 34:0.036144577 35:0 36:0.012048192 37:0.024096385 38:0 39:0.024096385 40:0.072289154 41:0.10843374 42:0.024096385 43:0 44:0 45:0.012048192 46:0 47:0 48:0.036144577 49:0.10843374 50:0.012048192 51:0 52:0.048192769 53:0.012048192 54:0 55:0.036144577 56:0.10843374 57:-22.4 #
0.00037647985461484339587967529183743 1:0.049382716 2:0.074074075 3:0.061728396 4:0.049382716 5:0.086419754 6:0.049382716 7:0.11111111 8:0.061728396 9:0.086419754 10:0.098765433 11:0.14814815 12:0 13:0 14:0.098765433 15:0.012345679 16:0 17:10 18:0.086419754 19:-0.72857141 20:0.086419754 21:0.2857143 22:1 23:4 24:67 25:0.024691358 26:0 27:0 28:0.012345679 29:0 30:0 31:0.012345679 32:0.17283951 33:0.024691358 34:0.012345679 35:0 36:0.012345679 37:0.024691358 38:0 39:0.024691358 40:0.20987654 41:0.012345679 42:0.012345679 43:0 44:0.012345679 45:0 46:0 47:0 48:0.2962963 49:0.012345679 50:0.012345679 51:0 52:0.012345679 53:0.012345679 54:0 55:0.012345679 56:0.049382716 57:-5.0999999 #
-0.00037647985461484339587967529183743 1:0 2:0.012048192 3:0.024096385 4:0.036144577 5:0.012048192 6:0 7:0 8:0.048192769 9:0.012048192 10:0.048192769 11:0.24096386 12:0.16867469 13:0.048192769 14:0 15:0.20481928 16:0.13253012 17:8 18:0.33734939 19:-1.7178571 20:0.1124498 21:0.071428575 22:0 23:80 24:27 25:0 26:0.012048192 27:0.012048192 28:0 29:0.012048192 30:0 31:0 32:0.036144577 33:0.012048192 34:0 35:0.012048192 36:0.012048192 37:0 38:0 39:0 40:0.024096385 41:0.20481928 42:0.036144577 43:0.012048192 44:0.060240965 45:0.036144577 46:0 47:0.036144577 48:0.072289154 49:0.21686748 50:0.072289154 51:0.012048192 52:0.036144577 53:0.012048192 54:0 55:0.024096385 56:0.012048192 57:-48.099998 #
0.00037647985461484339587967529183743 1:0.1594203 2:0.057971016 3:0.028985508 4:0.072463766 5:0.057971016 6:0.11594203 7:0.072463766 8:0.072463766 9:0.028985508 10:0.086956523 11:0.072463766 12:0 13:0.086956523 14:0.043478262 15:0.014492754 16:0.014492754 17:7 18:0.33333334 19:-0.37391305 20:0.16666667 21:0.17391305 22:1 23:2 24:23 25:0.086956523 26:0.043478262 27:0.057971016 28:0.057971016 29:0 30:0.014492754 31:0.014492754 32:0.043478262 33:0.13043478 34:0.057971016 35:0.028985508 36:0.028985508 37:0.014492754 38:0 39:0 40:0.043478262 41:0.057971016 42:0.028985508 43:0.028985508 44:0.014492754 45:0.014492754 46:0 47:0.028985508 48:0.014492754 49:0.057971016 50:0.014492754 51:0.028985508 52:0.043478262 53:0 54:0.014492754 55:0 56:0 57:-8.6000004 #
-0.00037647985461484339587967529183743 1:0.023809524 2:0.095238097 3:0.05952381 4:0.035714287 5:0.071428575 6:0.047619049 7:0.071428575 8:0.13095239 9:0.05952381 10:0.095238097 11:0.047619049 12:0.023809524 13:0.071428575 14:0.071428575 15:0.047619049 16:0.035714287 17:7 18:0.32142857 19:-0.69629627 20:0.16071428 21:0.14814815 22:1 23:7 24:30 25:0.047619049 26:0.035714287 27:0 28:0.035714287 29:0.023809524 30:0 31:0.023809524 32:0.047619049 33:0.071428575 34:0.047619049 35:0.011904762 36:0.05952381 37:0.023809524 38:0 39:0.035714287 40:0.05952381 41:0.11904762 42:0 43:0.023809524 44:0.011904762 45:0.023809524 46:0 47:0.023809524 48:0.023809524 49:0.11904762 50:0.047619049 51:0.011904762 52:0.023809524 53:0.011904762 54:0 55:0 56:0.011904762 57:-18.799999 #
0.00037647985461484339587967529183743 1:0.022727273 2:0.053030305 3:0.030303031 4:0.083333336 5:0.053030305 6:0.090909094 7:0.053030305 8:0.075757578 9:0.060606062 10:0.053030305 11:0.06818182 12:0.06818182 13:0.053030305 14:0.075757578 15:0.098484851 16:0.053030305 17:9 18:0.31060606 19:-1.3 20:0.10353535 21:0.12195122 22:0 23:80 24:50 25:0.10606061 26:0 27:0.0075757578 28:0.015151516 29:0.022727273 30:0 31:0.015151516 32:0.022727273 33:0.12121212 34:0.022727273 35:0.022727273 36:0.0075757578 37:0 38:0 39:0.0075757578 40:0.090909094 41:0.10606061 42:0 43:0.0075757578 44:0.045454547 45:0 46:0.0075757578 47:0.0075757578 48:0.06818182 49:0.098484851 50:0.06818182 51:0.022727273 52:0.022727273 53:0.015151516 54:0 55:0.0075757578 56:0.045454547 57:-53.299999 #
-0.00037647985461484339587967529183743 1:0 2:0 3:0.035714287 4:0.047619049 5:0 6:0.011904762 7:0.05952381 8:0.023809524 9:0.047619049 10:0.05952381 11:0.15476191 12:0.15476191 13:0.047619049 14:0.023809524 15:0.16666667 16:0.15476191 17:4 18:0.33333334 19:-1.6428572 20:0.11111111 21:0.071428575 22:0 23:80 24:28 25:0.011904762 26:0.011904762 27:0.035714287 28:0 29:0 30:0 31:0.011904762 32:0.011904762 33:0.047619049 34:0 35:0 36:0.011904762 37:0.011904762 38:0 39:0 40:0.023809524 41:0.15476191 42:0.035714287 43:0.023809524 44:0.071428575 45:0.047619049 46:0.011904762 47:0.035714287 48:0.035714287 49:0.16666667 50:0.083333336 51:0.023809524 52:0.047619049 53:0 54:0.011904762 55:0.023809524 56:0.023809524 57:-46 #
0.00037647985461484339587967529183743 1:0.088235296 2:0.044117648 3:0.044117648 4:0.088235296 5:0.05882353 6:0.10294118 7:0.029411765 8:0.05882353 9:0.05882353 10:0.044117648 11:0.088235296 12:0.044117648 13:0.05882353 14:0.05882353 15:0.073529415 16:0.044117648 17:22 18:0.25 19:-0.78823531 20:0.25 21:0.29411766 22:1 23:2 24:34 25:0.044117648 26:0 27:0.05882353 28:0 29:0 30:0 31:0 32:0.16176471 33:0.05882353 34:0.029411765 35:0.029411765 36:0.014705882 37:0.014705882 38:0 39:0 40:0.10294118 41:0.073529415 42:0.014705882 43:0.029411765 44:0.05882353 45:0 46:0 47:0.014705882 48:0.044117648 49:0.029411765 50:0.088235296 51:0 52:0.073529415 53:0 54:0 55:0.014705882 56:0.014705882 57:-13.4 #
-0.00037647985461484339587967529183743 1:0.05952381 2:0.047619049 3:0.047619049 4:0.095238097 5:0.05952381 6:0.14285715 7:0.047619049 8:0.05952381 9:0.047619049 10:0.035714287 11:0.083333336 12:0.023809524 13:0.083333336 14:0.071428575 15:0.023809524 16:0.05952381 17:9 18:0.2857143 19:-0.875 20:0.14285715 21:0.041666668 22:1 23:2 24:36 25:0.05952381 26:0.023809524 27:0.035714287 28:0.023809524 29:0.011904762 30:0 31:0.023809524 32:0.071428575 33:0.095238097 34:0.023809524 35:0.011904762 36:0.047619049 37:0.011904762 38:0 39:0.011904762 40:0.095238097 41:0.047619049 42:0.035714287 43:0.023809524 44:0.035714287 45:0.011904762 46:0 47:0 48:0.035714287 49:0.10714286 50:0.047619049 51:0.011904762 52:0.023809524 53:0.011904762 54:0 55:0.011904762 56:0.023809524 57:-21 #
-0.00037647985461484339587967529183743 1:0.060240965 2:0.072289154 3:0.012048192 4:0.072289154 5:0.036144577 6:0.048192769 7:0.14457831 8:0.060240965 9:0.060240965 10:0.12048193 11:0 12:0.024096385 13:0.060240965 14:0.060240965 15:0.036144577 16:0.12048193 17:4 18:0.30120483 19:-0.94 20:0.30120483 21:0.16 22:1 23:6 24:33 25:0.048192769 26:0.060240965 27:0.012048192 28:0 29:0.048192769 30:0 31:0.012048192 32:0.036144577 33:0.096385539 34:0.024096385 35:0.012048192 36:0.060240965 37:0 38:0 39:0.024096385 40:0.072289154 41:0.084337346 42:0 43:0 44:0.036144577 45:0.012048192 46:0 47:0.012048192 48:0.048192769 49:0.13253012 50:0.036144577 51:0.036144577 52:0.024096385 53:0 54:0 55:0.012048192 56:0.036144577 57:-23.5 #
-0.00037647985461484339587967529183743 1:0.011904762 2:0 3:0.011904762 4:0.035714287 5:0 6:0.035714287 7:0.05952381 8:0.047619049 9:0 10:0.023809524 11:0.14285715 12:0.17857143 13:0.047619049 14:0.083333336 15:0.11904762 16:0.19047619 17:7 18:0.36904761 19:-1.4612904 20:0.12301587 21:0.19354838 22:0 23:80 24:22 25:0.023809524 26:0 27:0 28:0 29:0.023809524 30:0 31:0.011904762 32:0 33:0.05952381 34:0.011904762 35:0 36:0.011904762 37:0.023809524 38:0 39:0.023809524 40:0.011904762 41:0.19047619 42:0.035714287 43:0.023809524 44:0.047619049 45:0 46:0 47:0 48:0.035714287 49:0.25 50:0.047619049 51:0.011904762 52:0.035714287 53:0.011904762 54:0 55:0.023809524 56:0.05952381 57:-45.299999 #
0.00037647985461484339587967529183743 1:0.011111111 2:0.088888891 3:0 4:0.044444446 5:0.077777781 6:0.30000001 7:0.033333335 8:0.12222222 9:0.044444446 10:0.033333335 11:0.022222223 12:0 13:0.011111111 14:0.11111111 15:0.033333335 16:0.055555556 17:13 18:0.12222222 19:-0.82727271 20:0.12222222 21:0.36363637 22:1 23:3 24:68 25:0.022222223 26:0 27:0 28:0.011111111 29:0.011111111 30:0 31:0 32:0.1 33:0.022222223 34:0.022222223 35:0.033333335 36:0.022222223 37:0.011111111 38:0 39:0.011111111 40:0.41111112 41:0.044444446 42:0 43:0 44:0 45:0 46:0.011111111 47:0 48:0.033333335 49:0.044444446 50:0.022222223 51:0 52:0.011111111 53:0.011111111 54:0.011111111 55:0.022222223 56:0.088888891 57:-9.1000004 #
-0.00037647985461484339587967529183743 1:0.035714287 2:0.047619049 3:0.011904762 4:0.071428575 5:0.035714287 6:0.071428575 7:0.095238097 8:0.11904762 9:0.047619049 10:0.10714286 11:0.023809524 12:0.011904762 13:0.047619049 14:0.083333336 15:0.05952381 16:0.11904762 17:5 18:0.32142857 19:-0.78888887 20:0.16071428 21:0.22222222 22:1 23:8 24:30 25:0.071428575 26:0.011904762 27:0 28:0.011904762 29:0.011904762 30:0 31:0.047619049 32:0.011904762 33:0.13095239 34:0.035714287 35:0 36:0.011904762 37:0.023809524 38:0 39:0.035714287 40:0.071428575 41:0.071428575 42:0.035714287 43:0 44:0.023809524 45:0.011904762 46:0.011904762 47:0.011904762 48:0.023809524 49:0.13095239 50:0.023809524 51:0.023809524 52:0.05952381 53:0.047619049 54:0.011904762 55:0 56:0.011904762 57:-21.299999 #
0.00037647985461484339587967529183743 1:0.010526316 2:0 3:0.031578947 4:0.073684208 5:0 6:0.042105265 7:0.042105265 8:0.11578947 9:0.073684208 10:0.073684208 11:0.08421053 12:0.063157894 13:0.031578947 14:0.08421053 15:0.14736842 16:0.11578947 17:7 18:0.35789475 19:-1.3205882 20:0.11929824 21:0.23529412 22:0 23:80 24:27 25:0.052631579 26:0.010526316 27:0.010526316 28:0.010526316 29:0 30:0 31:0 32:0.031578947 33:0.094736844 34:0.021052632 35:0 36:0.021052632 37:0.021052632 38:0 39:0.021052632 40:0.021052632 41:0.18947369 42:0.010526316 43:0 44:0.010526316 45:0 46:0 47:0.021052632 48:0.063157894 49:0.21052632 50:0.031578947 51:0.010526316 52:0.031578947 53:0.031578947 54:0 55:0.010526316 56:0.042105265 57:-44.900002 #
0.00037647985461484339587967529183743 1:0.10112359 2:0.078651689 3:0.078651689 4:0.011235955 5:0 6:0.044943821 7:0.078651689 8:0.13483146 9:0.11235955 10:0.089887641 11:0.011235955 12:0.02247191 13:0.067415729 14:0.044943821 15:0.056179777 16:0.056179777 17:7 18:0.33707866 19:-1.1633333 20:0.33707866 21:0.16666667 22:1 23:10 24:29 25:0.11235955 26:0 27:0.011235955 28:0.033707865 29:0.033707865 30:0 31:0.011235955 32:0.067415729 33:0.14606741 34:0.033707865 35:0.011235955 36:0.011235955 37:0.011235955 38:0 39:0 40:0.044943821 41:0.12359551 42:0.02247191 43:0 44:0 45:0.011235955 46:0 47:0.033707865 48:0.033707865 49:0.13483146 50:0.02247191 51:0 52:0.033707865 53:0 54:0 55:0.011235955 56:0.02247191 57:-34.900002 #
0.00037647985461484339587967529183743 1:0.038961038 2:0.038961038 3:0.064935066 4:0.090909094 5:0.051948052 6:0.038961038 7:0.064935066 8:0.1038961 9:0.1038961 10:0.077922076 11:0.012987013 12:0.012987013 13:0.051948052 14:0.090909094 15:0.064935066 16:0.077922076 17:3 18:0.36363637 19:-1.0928571 20:0.36363637 21:0.17857143 22:1 23:4 24:21 25:0.090909094 26:0.012987013 27:0.012987013 28:0.051948052 29:0.012987013 30:0.012987013 31:0.025974026 32:0.012987013 33:0.14285715 34:0.051948052 35:0.012987013 36:0 37:0.012987013 38:0.012987013 39:0.012987013 40:0 41:0.090909094 42:0.025974026 43:0.012987013 44:0.038961038 45:0.012987013 46:0 47:0.012987013 48:0.012987013 49:0.11688311 50:0.038961038 51:0.038961038 52:0.038961038 53:0.025974026 54:0 55:0.025974026 56:0 57:-30.6 #
-0.00037647985461484339587967529183743 1:0 2:0.22619048 3:0 4:0.023809524 5:0.23809524 6:0.035714287 7:0 8:0.21428572 9:0 10:0 11:0 12:0 13:0.011904762 14:0.23809524 15:0 16:0 17:4 18:0.41666666 19:-0.69142854 20:0.41666666 21:0.028571429 22:1 23:2 24:14 25:0.20238096 26:0 27:0 28:0.011904762 29:0 30:0 31:0 32:0.035714287 33:0.36904761 34:0.011904762 35:0.023809524 36:0.023809524 37:0.023809524 38:0 39:0 40:0.035714287 41:0 42:0 43:0 44:0 45:0 46:0 47:0 48:0 49:0.16666667 50:0.035714287 51:0 52:0 53:0 54:0 55:0.011904762 56:0.023809524 57:-24.200001 #
0.00037647985461484339587967529183743 1:0.070175439 2:0.02631579 3:0.070175439 4:0.078947365 5:0.078947365 6:0.052631579 7:0.052631579 8:0.078947365 9:0.070175439 10:0.10526316 11:0.070175439 12:0.0087719299 13:0.02631579 14:0.078947365 15:0.070175439 16:0.052631579 17:28 18:0.23684211 19:-1.0037037 20:0.078947365 21:0.18518518 22:0 23:80 24:60 25:0.03508772 26:0.0087719299 27:0.03508772 28:0.0087719299 29:0 30:0 31:0 32:0.15789473 33:0.070175439 34:0.01754386 35:0 36:0.0087719299 37:0.052631579 38:0 39:0.03508772 40:0.078947365 41:0.078947365 42:0.02631579 43:0 44:0.02631579 45:0 46:0 47:0.01754386 48:0.10526316 49:0.078947365 50:0.052631579 51:0 52:0.052631579 53:0.01754386 54:0 55:0.0087719299 56:0.0087719299 57:-27.1 #
-0.00037647985461484339587967529183743 1:0.012048192 2:0.036144577 3:0.084337346 4:0.060240965 5:0 6:0 7:0.012048192 8:0.14457831 9:0.096385539 10:0.048192769 11:0.084337346 12:0.024096385 13:0.096385539 14:0.072289154 15:0.060240965 16:0.15662651 17:6 18:0.26506025 19:-1.2727273 20:0.13253012 21:0.18181819 22:1 23:5 24:39 25:0.048192769 26:0 27:0.012048192 28:0.012048192 29:0.060240965 30:0 31:0.024096385 32:0.036144577 33:0.036144577 34:0.024096385 35:0.012048192 36:0.012048192 37:0.012048192 38:0 39:0 40:0.060240965 41:0.084337346 42:0.060240965 43:0 44:0.036144577 45:0 46:0.012048192 47:0 48:0.048192769 49:0.096385539 50:0.036144577 51:0.024096385 52:0.060240965 53:0.012048192 54:0.012048192 55:0.060240965 56:0.084337346 57:-28 #
0.00037647985461484339587967529183743 1:0.07272727 2:0.054545455 3:0.07272727 4:0.063636363 5:0.018181818 6:0.081818178 7:0.054545455 8:0.081818178 9:0.1 10:0.054545455 11:0.063636363 12:0.027272727 13:0.07272727 14:0.036363635 15:0.063636363 16:0.07272727 17:7 18:0.31818181 19:-1.0942857 20:0.15909091 21:0.14285715 22:1 23:11 24:40 25:0.1 26:0.018181818 27:0.0090909088 28:0.0090909088 29:0.018181818 30:0 31:0.018181818 32:0.090909094 33:0.1 34:0.027272727 35:0 36:0.036363635 37:0.0090909088 38:0 39:0.0090909088 40:0.045454547 41:0.11818182 42:0.018181818 43:0.018181818 44:0.018181818 45:0.0090909088 46:0 47:0.018181818 48:0.045454547 49:0.13636364 50:0.027272727 51:0.0090909088 52:0.027272727 53:0.018181818 54:0 55:0.0090909088 56:0.018181818 57:-38.299999 #
-0.00037647985461484339587967529183743 1:0.011904762 2:0 3:0.011904762 4:0.071428575 5:0.011904762 6:0.023809524 7:0.047619049 8:0.047619049 9:0.023809524 10:0.095238097 11:0.19047619 12:0.071428575 13:0.05952381 14:0.011904762 15:0.13095239 16:0.17857143 17:11 18:0.34523809 19:-1.7931035 20:0.17261904 21:0.13793103 22:1 23:2 24:26 25:0.035714287 26:0 27:0.023809524 28:0 29:0 30:0 31:0.011904762 32:0.023809524 33:0.047619049 34:0 35:0.011904762 36:0.011904762 37:0 38:0 39:0 40:0.05952381 41:0.16666667 42:0.071428575 43:0 44:0.047619049 45:0.023809524 46:0 47:0.011904762 48:0.05952381 49:0.21428572 50:0.023809524 51:0.035714287 52:0.047619049 53:0.011904762 54:0.011904762 55:0.011904762 56:0.011904762 57:-52 #
0.00037647985461484339587967529183743 1:0.08139535 2:0.10465116 3:0.08139535 4:0.034883723 5:0.093023255 6:0.034883723 7:0.023255814 8:0.08139535 9:0.058139537 10:0.034883723 11:0.023255814 12:0.046511628 13:0.08139535 14:0.058139537 15:0.034883723 16:0.11627907 17:6 18:0.25581396 19:-0.54090911 20:0.085271321 21:0.13636364 22:0 23:80 24:42 25:0.093023255 26:0.011627907 27:0.023255814 28:0.023255814 29:0.058139537 30:0 31:0.023255814 32:0.069767445 33:0.11627907 34:0.023255814 35:0 36:0.023255814 37:0 38:0.023255814 39:0 40:0.046511628 41:0.011627907 42:0.034883723 43:0 44:0.011627907 45:0.011627907 46:0.011627907 47:0.023255814 48:0.058139537 49:0.034883723 50:0.011627907 51:0.058139537 52:0.034883723 53:0 54:0.034883723 55:0.034883723 56:0.069767445 57:-11.9 #
-0.00037647985461484339587967529183743 1:0 2:0 3:0.012048192 4:0.072289154 5:0 6:0 7:0.036144577 8:0.024096385 9:0.036144577 10:0.024096385 11:0.26506025 12:0.14457831 13:0.036144577 14:0.036144577 15:0.15662651 16:0.14457831 17:3 18:0.33734939 19:-1.9035715 20:0.33734939 21:0.035714287 22:1 23:7 24:27 25:0.012048192 26:0 27:0 28:0.012048192 29:0 30:0 31:0.036144577 32:0.012048192 33:0.012048192 34:0.012048192 35:0.012048192 36:0 37:0 38:0 39:0.024096385 40:0 41:0.21686748 42:0.048192769 43:0 44:0.036144577 45:0.060240965 46:0.012048192 47:0.024096385 48:0.072289154 49:0.21686748 50:0.036144577 51:0 52:0.036144577 53:0.048192769 54:0.012048192 55:0.012048192 56:0.012048192 57:-53.299999 #
0.00037647985461484339587967529183743 1:0.060975611 2:0.048780486 3:0.073170729 4:0.048780486 5:0.036585364 6:0.097560972 7:0.073170729 8:0.024390243 9:0.097560972 10:0.073170729 11:0.23170732 12:0.012195121 13:0.036585364 14:0.012195121 15:0.036585364 16:0.024390243 17:6 18:0.13414635 19:-0.43636364 20:0.067073174 21:0.090909094 22:1 23:15 24:60 25:0.012195121 26:0 27:0 28:0.024390243 29:0.036585364 30:0 31:0.024390243 32:0.12195122 33:0.012195121 34:0.024390243 35:0 36:0 37:0.012195121 38:0 39:0 40:0.18292683 41:0.024390243 42:0.012195121 43:0 44:0.060975611 45:0.036585364 46:0 47:0.073170729 48:0.20731707 49:0.024390243 50:0.060975611 51:0 52:0.012195121 53:0 54:0 55:0 56:0.012195121 57:-4.8000002 #
-0.00037647985461484339587967529183743 1:0.024096385 2:0.024096385 3:0.036144577 4:0.10843374 5:0.036144577 6:0.072289154 7:0.060240965 8:0.084337346 9:0.060240965 10:0.12048193 11:0.048192769 12:0.012048192 13:0.084337346 14:0.036144577 15:0.084337346 16:0.096385539 17:4 18:0.31325302 19:-0.91153848 20:0.15662651 21:0.1923077 22:1 23:2 24:31 25:0.048192769 26:0.012048192 27:0.024096385 28:0.012048192 29:0.024096385 30:0 31:0.024096385 32:0.048192769 33:0.10843374 34:0.024096385 35:0.024096385 36:0 37:0.024096385 38:0 39:0.012048192 40:0.060240965 41:0.13253012 42:0.024096385 43:0.012048192 44:0.012048192 45:0 46:0.012048192 47:0.012048192 48:0.024096385 49:0.13253012 50:0.024096385 51:0 52:0.060240965 53:0 54:0.024096385 55:0.012048192 56:0.048192769 57:-23.700001 #
-0.00037647985461484339587967529183743 1:0 2:0.024096385 3:0.048192769 4:0.084337346 5:0.036144577 6:0.048192769 7:0.060240965 8:0.10843374 9:0.10843374 10:0.096385539 11:0.072289154 12:0.036144577 13:0.012048192 14:0.072289154 15:0.13253012 16:0.048192769 17:3 18:0.30120483 19:-1.0039999 20:0.30120483 21:0.2 22:1 23:7 24:33 25:0.060240965 26:0.012048192 27:0.024096385 28:0.024096385 29:0 30:0 31:0.024096385 32:0.012048192 33:0.048192769 34:0.024096385 35:0.048192769 36:0.036144577 37:0.012048192 38:0 39:0.012048192 40:0.060240965 41:0.096385539 42:0.048192769 43:0.024096385 44:0.048192769 45:0.024096385 46:0 47:0 48:0.072289154 49:0.096385539 50:0.060240965 51:0 52:0.024096385 53:0.024096385 54:0.012048192 55:0.012048192 56:0.036144577 57:-25.1 #
0.00037647985461484339587967529183743 1:0.02631579 2:0.013157895 3:0.052631579 4:0.039473683 5:0.013157895 6:0.078947365 7:0.065789476 8:0.13157895 9:0.039473683 10:0.11842106 11:0.078947365 12:0 13:0.052631579 14:0.092105262 15:0.039473683 16:0.14473684 17:6 18:0.36842105 19:-0.90357143 20:0.12280702 21:0.2857143 22:0 23:80 24:20 25:0.065789476 26:0.013157895 27:0.013157895 28:0.013157895 29:0.013157895 30:0 31:0 32:0.013157895 33:0.13157895 34:0 35:0.013157895 36:0.052631579 37:0.013157895 38:0 39:0.013157895 40:0.065789476 41:0.14473684 42:0.039473683 43:0.013157895 44:0 45:0.013157895 46:0 47:0.013157895 48:0.013157895 49:0.19736843 50:0.02631579 51:0 52:0.02631579 53:0.013157895 54:0.013157895 55:0.02631579 56:0.013157895 57:-25.299999 #
0.00037647985461484339587967529183743 1:0.018348623 2:0.04587156 3:0.064220183 4:0.064220183 5:0.027522936 6:0.027522936 7:0.082568809 8:0.12844037 9:0.064220183 10:0.073394492 11:0.04587156 12:0.0091743115 13:0.082568809 14:0.11926606 15:0.0091743115 16:0.12844037 17:5 18:0.34862384 19:-1.0236843 20:0.34862384 21:0.13157895 22:1 23:3 24:33 25:0.082568809 26:0.0091743115 27:0.036697246 28:0.018348623 29:0 30:0 31:0.0091743115 32:0.036697246 33:0.12844037 34:0.018348623 35:0.04587156 36:0.027522936 37:0.018348623 38:0 39:0 40:0.027522936 41:0.082568809 42:0.04587156 43:0.0091743115 44:0.0091743115 45:0.0091743115 46:0.027522936 47:0.0091743115 48:0 49:0.11926606 50:0.055045873 51:0.027522936 52:0.064220183 53:0.0091743115 54:0 55:0.0091743115 56:0.04587156 57:-38.900002 #
0.00037647985461484339587967529183743 1:0.03846154 2:0.064102568 3:0.064102568 4:0.064102568 5:0.064102568 6:0.15384616 7:0.07692308 8:0.089743592 9:0.089743592 10:0.089743592 11:0.012820513 12:0 13:0.025641026 14:0.089743592 15:0.03846154 16:0.025641026 17:8 18:0.21794872 19:-1.3352941 20:0.21794872 21:0.17647059 22:1 23:0 24:44 25:0.07692308 26:0.012820513 27:0 28:0 29:0.012820513 30:0 31:0.012820513 32:0.1025641 33:0.14102565 34:0 35:0 36:0.012820513 37:0 38:0 39:0 40:0.23076923 41:0.051282052 42:0 43:0 44:0.012820513 45:0 46:0 47:0.012820513 48:0.11538462 49:0.11538462 50:0.012820513 51:0 52:0 53:0.012820513 54:0 55:0 56:0.03846154 57:-22.700001 #
0.00037647985461484339587967529183743 1:0.064935066 2:0.051948052 3:0.077922076 4:0.064935066 5:0.012987013 6:0.064935066 7:0.038961038 8:0.11688311 9:0.090909094 10:0.051948052 11:0.064935066 12:0.012987013 13:0.1038961 14:0.064935066 15:0.038961038 16:0.064935066 17:7 18:0.32467532 19:-1.252 20:0.10822511 21:0.079999998 22:0 23:80 24:27 25:0.064935066 26:0.051948052 27:0.012987013 28:0.012987013 29:0.012987013 30:0 31:0.038961038 32:0.064935066 33:0.090909094 34:0.025974026 35:0 36:0.051948052 37:0.012987013 38:0 39:0 40:0.051948052 41:0.1038961 42:0.012987013 43:0.025974026 44:0.038961038 45:0 46:0 47:0 48:0.038961038 49:0.15584415 50:0.025974026 51:0.025974026 52:0.012987013 53:0.025974026 54:0 55:0.012987013 56:0 57:-31.299999 #
-0.00037647985461484339587967529183743 1:0.084337346 2:0.012048192 3:0.036144577 4:0.096385539 5:0.012048192 6:0.024096385 7:0.036144577 8:0.12048193 9:0.024096385 10:0.060240965 11:0.024096385 12:0.048192769 13:0.10843374 14:0.10843374 15:0.048192769 16:0.14457831 17:8 18:0.27710843 19:-1.1652174 20:0.13855422 21:0.2173913 22:1 23:2 24:37 25:0.048192769 26:0.036144577 27:0.012048192 28:0 29:0.024096385 30:0 31:0.024096385 32:0.084337346 33:0.084337346 34:0.012048192 35:0 36:0.036144577 37:0 38:0.012048192 39:0.012048192 40:0.036144577 41:0.096385539 42:0 43:0 44:0.024096385 45:0 46:0 47:0 48:0.024096385 49:0.14457831 50:0.024096385 51:0.036144577 52:0.024096385 53:0.012048192 54:0 55:0.012048192 56:0.15662651 57:-26.799999 #
0.00037647985461484339587967529183743 1:0.064102568 2:0.14102565 3:0.025641026 4:0.03846154 5:0.12820514 6:0.1025641 7:0.064102568 8:0.089743592 9:0.025641026 10:0.051282052 11:0.03846154 12:0.025641026 13:0.051282052 14:0.07692308 15:0.025641026 16:0.03846154 17:9 18:0.34615386 19:-0.86666667 20:0.34615386 21:0.14814815 22:1 23:4 24:24 25:0.089743592 26:0.03846154 27:0.025641026 28:0.051282052 29:0.012820513 30:0 31:0.012820513 32:0.03846154 33:0.11538462 34:0.03846154 35:0.03846154 36:0.064102568 37:0.025641026 38:0 39:0.03846154 40:0.051282052 41:0.07692308 42:0.025641026 43:0.012820513 44:0.012820513 45:0 46:0 47:0 48:0.012820513 49:0.1025641 50:0.03846154 51:0.025641026 52:0.025641026 53:0 54:0 55:0 56:0 57:-23.4 #
-0.00037647985461484339587967529183743 1:0 2:0.012048192 3:0 4:0.072289154 5:0 6:0 7:0.024096385 8:0.024096385 9:0 10:0.012048192 11:0.20481928 12:0.21686748 13:0.084337346 14:0.024096385 15:0.20481928 16:0.10843374 17:7 18:0.33734939 19:-1.5678571 20:0.1124498 21:0.071428575 22:0 23:80 24:27 25:0 26:0 27:0.048192769 28:0 29:0.012048192 30:0 31:0.024096385 32:0 33:0.012048192 34:0.012048192 35:0 36:0 37:0.012048192 38:0 39:0 40:0.012048192 41:0.21686748 42:0.036144577 43:0.012048192 44:0.048192769 45:0.024096385 46:0 47:0.024096385 48:0.060240965 49:0.18072289 50:0.072289154 51:0 52:0.084337346 53:0.012048192 54:0 55:0.012048192 56:0.060240965 57:-43.900002 #
0.00037647985461484339587967529183743 1:0.14814815 2:0.10185185 3:0.037037037 4:0.018518519 5:0.083333336 6:0.22222222 7:0.055555556 8:0.074074075 9:0.046296295 10:0.055555556 11:0 12:0.018518519 13:0.027777778 14:0.064814813 15:0.027777778 16:0.0092592593 17:21 18:0.25 19:-0.51851851 20:0.083333336 21:0.33333334 22:0 23:80 24:54 25:0.074074075 26:0.027777778 27:0 28:0.037037037 29:0.018518519 30:0 31:0.018518519 32:0.12962963 33:0.11111111 34:0.046296295 35:0 36:0.037037037 37:0.055555556 38:0 39:0.037037037 40:0.14814815 41:0.055555556 42:0 43:0 44:0 45:0 46:0 47:0.0092592593 48:0.055555556 49:0.09259259 50:0 51:0 52:0.0092592593 53:0 54:0 55:0.0092592593 56:0.0092592593 57:-14 #
-0.00037647985461484339587967529183743 1:0.024096385 2:0.024096385 3:0.036144577 4:0.072289154 5:0 6:0.096385539 7:0.060240965 8:0.10843374 9:0.060240965 10:0.10843374 11:0.084337346 12:0.012048192 13:0.072289154 14:0.048192769 15:0.084337346 16:0.096385539 17:10 18:0.28915662 19:-0.91250002 20:0.14457831 21:0.25 22:1 23:8 24:35 25:0.048192769 26:0 27:0.012048192 28:0.012048192 29:0.012048192 30:0 31:0.024096385 32:0.048192769 33:0.072289154 34:0.024096385 35:0.024096385 36:0.012048192 37:0.048192769 38:0 39:0.012048192 40:0.072289154 41:0.084337346 42:0.048192769 43:0 44:0.048192769 45:0.012048192 46:0 47:0.024096385 48:0.048192769 49:0.10843374 50:0.048192769 51:0.012048192 52:0.060240965 53:0 54:0 55:0.024096385 56:0.036144577 57:-21.9 #
0.00037647985461484339587967529183743 1:0.012987013 2:0.064935066 3:0 4:0.051948052 5:0.077922076 6:0.15584415 7:0.064935066 8:0.11688311 9:0.025974026 10:0.1038961 11:0.038961038 12:0.012987013 13:0.025974026 14:0.077922076 15:0.077922076 16:0.077922076 17:6 18:0.29870129 19:-0.60000002 20:0.0995671 21:0.13043478 22:0 23:80 24:31 25:0.038961038 26:0.038961038 27:0 28:0.025974026 29:0 30:0 31:0.012987013 32:0.012987013 33:0.1038961 34:0.025974026 35:0.025974026 36:0.038961038 37:0.051948052 38:0 39:0.064935066 40:0.090909094 41:0.090909094 42:0.025974026 43:0 44:0.012987013 45:0.012987013 46:0 47:0.012987013 48:0.025974026 49:0.1038961 50:0.038961038 51:0 52:0.051948052 53:0.038961038 54:0 55:0.012987013 56:0.012987013 57:-13.8 #
0.00037647985461484339587967529183743 1:0.16535433 2:0.086614177 3:0.11811024 4:0.023622047 5:0.062992126 6:0.047244094 7:0.039370079 8:0.078740157 9:0.11811024 10:0.039370079 11:0.0078740157 12:0.039370079 13:0.05511811 14:0.05511811 15:0.039370079 16:0.015748031 17:4 18:0.24409449 19:-0.99354839 20:0.12204725 21:0.096774191 22:1 23:2 24:65 25:0.078740157 26:0.047244094 27:0.031496063 28:0.023622047 29:0.0078740157 30:0 31:0.015748031 32:0.18897638 33:0.078740157 34:0.023622047 35:0.0078740157 36:0.05511811 37:0.0078740157 38:0 39:0.0078740157 40:0.047244094 41:0.05511811 42:0.023622047 43:0.031496063 44:0.0078740157 45:0 46:0 47:0 48:0.086614177 49:0.05511811 50:0.015748031 51:0.0078740157 52:0.023622047 53:0.015748031 54:0 55:0.0078740157 56:0.031496063 57:-30.799999 #
-0.00037647985461484339587967529183743 1:0 2:0 3:0.036144577 4:0.096385539 5:0.012048192 6:0.036144577 7:0 8:0.13253012 9:0.036144577 10:0.096385539 11:0.072289154 12:0.012048192 13:0.084337346 14:0.060240965 15:0.10843374 16:0.20481928 17:4 18:0.27710843 19:-1.2608696 20:0.27710843 21:0.17391305 22:1 23:9 24:37 25:0.024096385 26:0.036144577 27:0 28:0 29:0.012048192 30:0.012048192 31:0.012048192 32:0.036144577 33:0.036144577 34:0.012048192 35:0 36:0.048192769 37:0.012048192 38:0.024096385 39:0.024096385 40:0.024096385 41:0.084337346 42:0.048192769 43:0 44:0.024096385 45:0.012048192 46:0 47:0.012048192 48:0.036144577 49:0.10843374 50:0.024096385 51:0.096385539 52:0.048192769 53:0.036144577 54:0.024096385 55:0.036144577 56:0.072289154 57:-29 #
0.00037647985461484339587967529183743 1:0.06666667 2:0.039999999 3:0.053333335 4:0.079999998 5:0.06666667 6:0.18666667 7:0.026666667 8:0.079999998 9:0.06666667 10:0.06666667 11:0.026666667 12:0 13:0.039999999 14:0.079999998 15:0.039999999 16:0.06666667 17:10 18:0.29333332 19:-0.67727274 20:0.097777776 21:0.22727273 22:0 23:80 24:31 25:0.093333334 26:0.013333334 27:0.013333334 28:0.039999999 29:0.013333334 30:0 31:0 32:0.06666667 33:0.10666667 34:0.053333335 35:0 36:0.026666667 37:0.026666667 38:0 39:0.013333334 40:0.13333334 41:0.06666667 42:0.026666667 43:0 44:0.013333334 45:0.013333334 46:0 47:0.026666667 48:0 49:0.10666667 50:0.013333334 51:0.039999999 52:0.026666667 53:0 54:0 55:0 56:0.039999999 57:-14.9 #
-0.00037647985461484339587967529183743 1:0 2:0.012048192 3:0.024096385 4:0.048192769 5:0 6:0.012048192 7:0.072289154 8:0.036144577 9:0.060240965 10:0.060240965 11:0.12048193 12:0.18072289 13:0.024096385 14:0.036144577 15:0.20481928 16:0.096385539 17:4 18:0.37349397 19:-1.2677419 20:0.12449799 21:0.032258064 22:0 23:80 24:21 25:0.024096385 26:0 27:0.012048192 28:0.012048192 29:0.024096385 30:0 31:0.012048192 32:0 33:0.036144577 34:0.012048192 35:0.024096385 36:0.012048192 37:0.024096385 38:0 39:0 40:0.012048192 41:0.15662651 42:0.084337346 43:0.048192769 44:0.072289154 45:0.012048192 46:0 47:0.036144577 48:0.012048192 49:0.21686748 50:0.048192769 51:0 52:0.048192769 53:0 54:0 55:0.012048192 56:0.024096385 57:-39.299999 #
-0.00037647985461484339587967529183743 1:0.05952381 2:0 3:0.035714287 4:0.14285715 5:0.023809524 6:0.05952381 7:0.05952381 8:0.083333336 9:0.047619049 10:0.05952381 11:0.083333336 12:0.035714287 13:0.10714286 14:0.095238097 15:0.047619049 16:0.047619049 17:6 18:0.35714287 19:-0.97000003 20:0.11904762 21:0.2 22:0 23:80 24:24 25:0.095238097 26:0.023809524 27:0 28:0.023809524 29:0.023809524 30:0.011904762 31:0.035714287 32:0.023809524 33:0.13095239 34:0.023809524 35:0 36:0.023809524 37:0 38:0.011904762 39:0.011904762 40:0.011904762 41:0.13095239 42:0 43:0.011904762 44:0.035714287 45:0.023809524 46:0 47:0 48:0.023809524 49:0.14285715 50:0.047619049 51:0.035714287 52:0.011904762 53:0.011904762 54:0 55:0.011904762 56:0.035714287 57:-29.1 #
-0.00037647985461484339587967529183743 1:0.036144577 2:0.024096385 3:0.060240965 4:0.096385539 5:0.024096385 6:0.024096385 7:0.024096385 8:0.036144577 9:0.096385539 10:0.048192769 11:0.10843374 12:0.084337346 13:0.048192769 14:0.012048192 15:0.15662651 16:0.10843374 17:5 18:0.26506025 19:-1.3181819 20:0.26506025 21:0.090909094 22:1 23:7 24:39 25:0.024096385 26:0 27:0.012048192 28:0 29:0.036144577 30:0 31:0.060240965 32:0.072289154 33:0.036144577 34:0.012048192 35:0 36:0.012048192 37:0 38:0 39:0 40:0.048192769 41:0.10843374 42:0.024096385 43:0 44:0.072289154 45:0.024096385 46:0 47:0.036144577 48:0.072289154 49:0.12048193 50:0.084337346 51:0.012048192 52:0.036144577 53:0.036144577 54:0 55:0 56:0.036144577 57:-29 #
0.00037647985461484339587967529183743 1:0 2:0.024096385 3:0 4:0.12048193 5:0 6:0 7:0.048192769 8:0.072289154 9:0.084337346 10:0.048192769 11:0.12048193 12:0.036144577 13:0.060240965 14:0.048192769 15:0.12048193 16:0.20481928 17:8 18:0.31325302 19:-1.7692307 20:0.10441767 21:0.07692308 22:0 23:80 24:31 25:0.048192769 26:0 27:0.024096385 28:0 29:0.012048192 30:0 31:0.024096385 32:0.036144577 33:0.060240965 34:0 35:0.012048192 36:0 37:0.012048192 38:0 39:0 40:0.036144577 41:0.15662651 42:0.048192769 43:0.012048192 44:0.048192769 45:0 46:0 47:0.012048192 48:0.012048192 49:0.14457831 50:0.060240965 51:0 52:0.060240965 53:0.036144577 54:0 55:0.024096385 56:0.096385539 57:-46 #
-0.00037647985461484339587967529183743 1:0.024096385 2:0.036144577 3:0.024096385 4:0.036144577 5:0 6:0 7:0.036144577 8:0.060240965 9:0.024096385 10:0.048192769 11:0.096385539 12:0.15662651 13:0.072289154 14:0.012048192 15:0.15662651 16:0.20481928 17:9 18:0.3253012 19:-1.6222222 20:0.10843374 21:0.037037037 22:0 23:80 24:29 25:0.012048192 26:0 27:0 28:0.012048192 29:0.036144577 30:0 31:0.012048192 32:0.048192769 33:0.036144577 34:0.012048192 35:0 36:0 37:0.012048192 38:0 39:0.012048192 40:0.024096385 41:0.18072289 42:0.072289154 43:0.024096385 44:0.024096385 45:0 46:0 47:0 48:0.012048192 49:0.20481928 50:0.024096385 51:0.024096385 52:0.060240965 53:0.012048192 54:0 55:0.024096385 56:0.096385539 57:-43.799999 #
0.00037647985461484339587967529183743 1:0.053571429 2:0.089285716 3:0.053571429 4:0.053571429 5:0.125 6:0.10714286 7:0.017857144 8:0.071428575 9:0 10:0.035714287 11:0 12:0.089285716 13:0.071428575 14:0.089285716 15:0.035714287 16:0.089285716 17:5 18:0.2857143 19:-0.70625001 20:0.2857143 21:0.3125 22:1 23:2 24:24 25:0.10714286 26:0.017857144 27:0 28:0 29:0.017857144 30:0 31:0.017857144 32:0.089285716 33:0.19642857 34:0.017857144 35:0.017857144 36:0 37:0 38:0 39:0 40:0.089285716 41:0.035714287 42:0.017857144 43:0 44:0 45:0 46:0 47:0 48:0.053571429 49:0.089285716 50:0 51:0.017857144 52:0.071428575 53:0 54:0 55:0.017857144 56:0.089285716 57:-11.3 #
0.00037647985461484339587967529183743 1:0.050000001 2:0.06666667 3:0.10833333 4:0.041666668 5:0.083333336 6:0.058333334 7:0.016666668 8:0.125 9:0.083333336 10:0.033333335 11:0.033333335 12:0.025 13:0.041666668 14:0.13333334 15:0.016666668 16:0.075000003 17:5 18:0.32499999 19:-1.3615384 20:0.10833333 21:0.12820514 22:0 23:80 24:42 25:0.125 26:0 27:0 28:0.016666668 29:0.025 30:0 31:0 32:0.091666669 33:0.13333334 34:0.041666668 35:0 36:0.0083333338 37:0 38:0 39:0.025 40:0.075000003 41:0.11666667 42:0 43:0 44:0.025 45:0.0083333338 46:0 47:0.0083333338 48:0.016666668 49:0.14166667 50:0.025 51:0 52:0.016666668 53:0.033333335 54:0 55:0.033333335 56:0.016666668 57:-53.099998 #
-0.00037647985461484339587967529183743 1:0.024096385 2:0.024096385 3:0.024096385 4:0.060240965 5:0.012048192 6:0.024096385 7:0.048192769 8:0.036144577 9:0.024096385 10:0.024096385 11:0.084337346 12:0.16867469 13:0.072289154 14:0.060240965 15:0.14457831 16:0.15662651 17:7 18:0.3253012 19:-1.6 20:0.10843374 21:0.14814815 22:0 23:80 24:29 25:0.024096385 26:0.012048192 27:0.024096385 28:0.012048192 29:0.024096385 30:0 31:0.024096385 32:0.012048192 33:0.060240965 34:0.012048192 35:0.012048192 36:0 37:0 38:0 39:0 40:0.036144577 41:0.13253012 42:0.036144577 43:0.012048192 44:0.060240965 45:0 46:0.012048192 47:0.012048192 48:0.036144577 49:0.19277108 50:0.048192769 51:0 52:0.024096385 53:0.048192769 54:0 55:0.036144577 56:0.072289154 57:-43.200001 #
0.00037647985461484339587967529183743 1:0.011111111 2:0.022222223 3:0.011111111 4:0.055555556 5:0.011111111 6:0.30000001 7:0.033333335 8:0.16666667 9:0.033333335 10:0.044444446 11:0.022222223 12:0 13:0.044444446 14:0.15555556 15:0.033333335 16:0.044444446 17:3 18:0.22222222 19:-0.54000002 20:0.11111111 21:0.30000001 22:1 23:2 24:50 25:0.06666667 26:0 27:0.011111111 28:0.022222223 29:0 30:0 31:0 32:0 33:0.11111111 34:0.022222223 35:0.022222223 36:0.011111111 37:0.022222223 38:0 39:0.011111111 40:0.31111112 41:0.055555556 42:0.011111111 43:0 44:0.011111111 45:0.011111111 46:0 47:0 48:0.011111111 49:0.055555556 50:0.044444446 51:0 52:0.033333335 53:0.011111111 54:0 55:0.022222223 56:0.1 57:-10.8 #
0.00037647985461484339587967529183743 1:0.079999998 2:0.050000001 3:0.07 4:0.07 5:0.0099999998 6:0.050000001 7:0.039999999 8:0.090000004 9:0.090000004 10:0.07 11:0.12 12:0 13:0.079999998 14:0.02 15:0.059999999 16:0.090000004 17:4 18:0.33000001 19:-1.2151515 20:0.16500001 21:0.090909094 22:1 23:5 24:34 25:0.059999999 26:0.029999999 27:0.029999999 28:0.029999999 29:0.029999999 30:0 31:0.029999999 32:0.050000001 33:0.059999999 34:0.039999999 35:0.02 36:0.029999999 37:0.029999999 38:0 39:0.0099999998 40:0 41:0.11 42:0.029999999 43:0.0099999998 44:0.050000001 45:0.0099999998 46:0.0099999998 47:0.02 48:0.039999999 49:0.12 50:0.050000001 51:0.029999999 52:0.039999999 53:0 54:0 55:0 56:0.0099999998 57:-40.099998 #
0.00037647985461484339587967529183743 1:0.060344826 2:0.086206898 3:0.034482758 4:0.086206898 5:0.060344826 6:0.05172414 7:0.043103449 8:0.086206898 9:0.094827585 10:0.05172414 11:0.034482758 12:0.043103449 13:0.043103449 14:0.05172414 15:0.12068965 16:0.043103449 17:6 18:0.36206895 19:-1.0642858 20:0.12068965 21:0.19047619 22:0 23:80 24:32 25:0.094827585 26:0.043103449 27:0.02586207 28:0.017241379 29:0.02586207 30:0 31:0.0086206896 32:0.043103449 33:0.11206897 34:0.02586207 35:0 36:0.060344826 37:0.017241379 38:0 39:0.017241379 40:0.0086206896 41:0.12068965 42:0.02586207 43:0.017241379 44:0.0086206896 45:0.017241379 46:0 47:0.017241379 48:0.017241379 49:0.13793103 50:0.034482758 51:0.017241379 52:0.034482758 53:0 54:0 55:0.017241379 56:0.017241379 57:-44.700001 #
0.00037647985461484339587967529183743 1:0.02631579 2:0.02631579 3:0.070175439 4:0.052631579 5:0.0087719299 6:0.043859649 7:0.096491225 8:0.070175439 9:0.096491225 10:0.070175439 11:0.043859649 12:0.10526316 13:0.043859649 14:0.070175439 15:0.10526316 16:0.061403509 17:7 18:0.3508772 19:-1.1925 20:0.087719299 21:0.125 22:0 23:80 24:34 25:0.070175439 26:0.0087719299 27:0.0087719299 28:0.02631579 29:0.03508772 30:0 31:0 32:0.02631579 33:0.10526316 34:0.02631579 35:0.0087719299 36:0 37:0.01754386 38:0 39:0.0087719299 40:0.043859649 41:0.16666667 42:0.043859649 43:0.0087719299 44:0.0087719299 45:0 46:0 47:0.043859649 48:0.043859649 49:0.18421052 50:0.0087719299 51:0 52:0.052631579 53:0 54:0 55:0.0087719299 56:0.02631579 57:-47.700001 #
-0.00037647985461484339587967529183743 1:0.036144577 2:0.048192769 3:0.036144577 4:0.072289154 5:0.012048192 6:0.048192769 7:0.084337346 8:0.096385539 9:0.10843374 10:0.072289154 11:0.10843374 12:0.012048192 13:0.036144577 14:0.060240965 15:0.084337346 16:0.072289154 17:5 18:0.28915662 19:-1.15 20:0.28915662 21:0.125 22:1 23:8 24:35 25:0.060240965 26:0.012048192 27:0.024096385 28:0.024096385 29:0.012048192 30:0 31:0 32:0.060240965 33:0.036144577 34:0.036144577 35:0.024096385 36:0.036144577 37:0.024096385 38:0 39:0.012048192 40:0.060240965 41:0.096385539 42:0.060240965 43:0.024096385 44:0.012048192 45:0.024096385 46:0 47:0.024096385 48:0.060240965 49:0.096385539 50:0.036144577 51:0.012048192 52:0.060240965 53:0 54:0 55:0.012048192 56:0.036144577 57:-27.6 #
0.00037647985461484339587967529183743 1:0.11392405 2:0.050632913 3:0.012658228 4:0.075949363 5:0.050632913 6:0.10126583 7:0.025316456 8:0.10126583 9:0.025316456 10:0.050632913 11:0.025316456 12:0.012658228 13:0.06329114 14:0.075949363 15:0.037974682 16:0.16455697 17:8 18:0.31645569 19:-0.68400002 20:0.10548523 21:0.36000001 22:0 23:80 24:29 25:0.088607594 26:0 27:0 28:0.012658228 29:0.012658228 30:0.012658228 31:0.025316456 32:0.10126583 33:0.1392405 34:0.050632913 35:0 36:0.037974682 37:0.012658228 38:0 39:0.012658228 40:0.025316456 41:0.037974682 42:0.025316456 43:0 44:0.012658228 45:0.012658228 46:0 47:0 48:0.012658228 49:0.12658228 50:0.025316456 51:0.06329114 52:0.050632913 53:0.012658228 54:0 55:0.025316456 56:0.037974682 57:-17.1 #
0.00037647985461484339587967529183743 1:0.0625 2:0.0625 3:0.0125 4:0.087499999 5:0.050000001 6:0.1 7:0.037500001 8:0.1 9:0.037500001 10:0.0625 11:0.037500001 12:0.0125 13:0.075000003 14:0.0625 15:0.0625 16:0.125 17:14 18:0.32499999 19:-0.8923077 20:0.10833333 21:0.23076923 22:0 23:80 24:28 25:0.1125 26:0.0125 27:0 28:0 29:0.025 30:0 31:0.0125 32:0.0625 33:0.125 34:0.025 35:0 36:0.050000001 37:0.037500001 38:0 39:0.037500001 40:0.0125 41:0.1 42:0.0125 43:0 44:0.0125 45:0 46:0 47:0 48:0.025 49:0.1125 50:0.037500001 51:0.025 52:0.037500001 53:0 54:0 55:0.0125 56:0.087499999 57:-23.200001 #
0.00037647985461484339587967529183743 1:0.081967212 2:0.057377048 3:0.032786883 4:0.065573767 5:0.032786883 6:0.049180329 7:0.073770493 8:0.10655738 9:0.065573767 10:0.073770493 11:0.081967212 12:0.016393442 13:0.057377048 14:0.073770493 15:0.049180329 16:0.073770493 17:15 18:0.25409836 19:-0.86451614 20:0.084699452 21:0.12903225 22:0 23:80 24:60 25:0.065573767 26:0.024590164 27:0 28:0.024590164 29:0.0081967209 30:0 31:0.024590164 32:0.090163931 33:0.090163931 34:0.032786883 35:0.0081967209 36:0.016393442 37:0.0081967209 38:0 39:0.024590164 40:0.073770493 41:0.073770493 42:0.024590164 43:0.016393442 44:0.016393442 45:0.024590164 46:0 47:0 48:0.081967212 49:0.098360658 50:0.0081967209 51:0 52:0.032786883 53:0.024590164 54:0 55:0.016393442 56:0.073770493 57:-26.799999 #
0.00037647985461484339587967529183743 1:0.07272727 2:0.090909094 3:0.07272727 4:0.018181818 5:0.1 6:0.12727273 7:0.054545455 8:0.07272727 9:0.063636363 10:0.090909094 11:0.018181818 12:0.045454547 13:0.018181818 14:0.036363635 15:0.081818178 16:0.027272727 17:13 18:0.26363635 19:-0.56551725 20:0.087878786 21:0.10344828 22:0 23:80 24:52 25:0.063636363 26:0.027272727 27:0.0090909088 28:0.018181818 29:0.018181818 30:0 31:0.027272727 32:0.090909094 33:0.081818178 34:0.018181818 35:0.027272727 36:0.045454547 37:0.018181818 38:0 39:0.018181818 40:0.13636364 41:0.063636363 42:0.018181818 43:0.0090909088 44:0.036363635 45:0.027272727 46:0 47:0.018181818 48:0.045454547 49:0.081818178 50:0.054545455 51:0 52:0.018181818 53:0.0090909088 54:0 55:0 56:0 57:-16.4 #
-0.00037647985461484339587967529183743 1:0 2:0.023809524 3:0.047619049 4:0.13095239 5:0.047619049 6:0.035714287 7:0.095238097 8:0.071428575 9:0.10714286 10:0.083333336 11:0.071428575 12:0 13:0.047619049 14:0.095238097 15:0.047619049 16:0.083333336 17:5 18:0.30952382 19:-1.0153847 20:0.30952382 21:0.1923077 22:1 23:5 24:32 25:0.05952381 26:0.011904762 27:0.023809524 28:0 29:0.035714287 30:0 31:0.023809524 32:0.047619049 33:0.095238097 34:0 35:0.011904762 36:0.035714287 37:0.011904762 38:0 39:0.035714287 40:0.047619049 41:0.10714286 42:0.035714287 43:0 44:0.035714287 45:0.011904762 46:0 47:0 48:0.071428575 49:0.16666667 50:0.047619049 51:0 52:0.023809524 53:0 54:0 55:0 56:0.035714287 57:-26.4 #
0.00037647985461484339587967529183743 1:0.060606062 2:0.037878789 3:0.060606062 4:0.053030305 5:0 6:0.045454547 7:0.075757578 8:0.060606062 9:0.12121212 10:0.045454547 11:0.053030305 12:0.098484851 13:0.037878789 14:0.053030305 15:0.12878788 16:0.060606062 17:7 18:0.34848484 19:-1.126087 20:0.11616161 21:0.15217391 22:0 23:80 24:40 25:0.06818182 26:0.0075757578 27:0.022727273 28:0.015151516 29:0.045454547 30:0 31:0.0075757578 32:0.045454547 33:0.11363637 34:0.015151516 35:0.015151516 36:0.0075757578 37:0 38:0 39:0.015151516 40:0.015151516 41:0.12121212 42:0.030303031 43:0.015151516 44:0.060606062 45:0.0075757578 46:0 47:0.030303031 48:0.053030305 49:0.15151516 50:0.060606062 51:0.0075757578 52:0.037878789 53:0 54:0 55:0.0075757578 56:0.0075757578 57:-51.799999 #
-0.00037647985461484339587967529183743 1:0 2:0 3:0 4:0.072289154 5:0.012048192 6:0 7:0.024096385 8:0.036144577 9:0.024096385 10:0.036144577 11:0.12048193 12:0.13253012 13:0.036144577 14:0.036144577 15:0.16867469 16:0.28915662 17:5 18:0.3253012 19:-1.6259259 20:0.10843374 21:0.074074075 22:0 23:80 24:29 25:0.012048192 26:0 27:0.012048192 28:0 29:0.012048192 30:0 31:0.024096385 32:0.012048192 33:0.012048192 34:0 35:0 36:0.036144577 37:0 38:0 39:0.024096385 40:0 41:0.18072289 42:0.024096385 43:0 44:0.060240965 45:0 46:0.012048192 47:0 48:0.036144577 49:0.18072289 50:0.096385539 51:0.036144577 52:0.012048192 53:0.084337346 54:0.012048192 55:0.036144577 56:0.060240965 57:-43.900002 #
0.00037647985461484339587967529183743 1:0 2:0.05952381 3:0 4:0.047619049 5:0.047619049 6:0.34523809 7:0.011904762 8:0.15476191 9:0.035714287 10:0.011904762 11:0.011904762 12:0 13:0.011904762 14:0.15476191 15:0.035714287 16:0.05952381 17:13 18:0.13095239 19:-0.82727271 20:0.13095239 21:0.36363637 22:1 23:3 24:62 25:0.023809524 26:0 27:0 28:0.011904762 29:0.011904762 30:0 31:0 32:0.047619049 33:0.023809524 34:0.023809524 35:0.035714287 36:0.023809524 37:0.011904762 38:0 39:0.011904762 40:0.42857143 41:0.047619049 42:0 43:0 44:0 45:0 46:0.011904762 47:0 48:0 49:0.047619049 50:0.023809524 51:0 52:0.011904762 53:0.011904762 54:0.011904762 55:0.023809524 56:0.13095239 57:-9.1000004 #
0.00037647985461484339587967529183743 1:0.029999999 2:0.029999999 3:0.039999999 4:0.14 5:0.029999999 6:0.02 7:0.039999999 8:0.059999999 9:0.1 10:0.059999999 11:0.12 12:0.02 13:0.079999998 14:0.039999999 15:0.090000004 16:0.090000004 17:6 18:0.33000001 19:-1.2212121 20:0.16500001 21:0.18181819 22:1 23:4 24:34 25:0.07 26:0.0099999998 27:0.050000001 28:0.02 29:0.02 30:0 31:0.039999999 32:0.029999999 33:0.07 34:0.02 35:0 36:0.050000001 37:0.0099999998 38:0 39:0 40:0 41:0.11 42:0.039999999 43:0.0099999998 44:0.039999999 45:0.029999999 46:0 47:0.02 48:0.039999999 49:0.11 50:0.079999998 51:0.0099999998 52:0.039999999 53:0.02 54:0 55:0.0099999998 56:0.029999999 57:-40.299999 #
0.00037647985461484339587967529183743 1:0.090909094 2:0.038961038 3:0.090909094 4:0.064935066 5:0.012987013 6:0.064935066 7:0.038961038 8:0.1038961 9:0.090909094 10:0.051948052 11:0.064935066 12:0.012987013 13:0.1038961 14:0.064935066 15:0.025974026 16:0.064935066 17:7 18:0.32467532 19:-1.388 20:0.10822511 21:0.079999998 22:0 23:80 24:27 25:0.090909094 26:0.038961038 27:0.012987013 28:0.012987013 29:0.012987013 30:0 31:0.038961038 32:0.077922076 33:0.077922076 34:0.025974026 35:0 36:0.051948052 37:0.012987013 38:0 39:0 40:0.051948052 41:0.11688311 42:0.012987013 43:0.025974026 44:0.038961038 45:0 46:0 47:0 48:0.025974026 49:0.12987013 50:0.038961038 51:0.025974026 52:0.012987013 53:0.025974026 54:0 55:0.012987013 56:0 57:-34.700001 #
0.00037647985461484339587967529183743 1:0.085714288 2:0.042857144 3:0.028571429 4:0.042857144 5:0.014285714 6:0.11428571 7:0.057142857 8:0.12857144 9:0.042857144 10:0.085714288 11:0.028571429 12:0.028571429 13:0.042857144 14:0.085714288 15:0.071428575 16:0.085714288 17:3 18:0.38571429 19:-0.93703705 20:0.38571429 21:0.11111111 22:1 23:4 24:16 25:0.1 26:0.014285714 27:0.028571429 28:0.014285714 29:0 30:0 31:0.014285714 32:0.014285714 33:0.14285715 34:0.042857144 35:0.028571429 36:0.042857144 37:0.028571429 38:0 39:0.028571429 40:0 41:0.071428575 42:0.057142857 43:0.028571429 44:0.028571429 45:0 46:0 47:0 48:0 49:0.14285715 50:0.028571429 51:0.014285714 52:0.071428575 53:0.014285714 54:0 55:0.014285714 56:0 57:-25.299999 #
0.00037647985461484339587967529183743 1:0.15306123 2:0.10204082 3:0.05102041 4:0.030612245 5:0.081632651 6:0.14285715 7:0.030612245 8:0.091836736 9:0.06122449 10:0.06122449 11:0.020408163 12:0 13:0.040816326 14:0.040816326 15:0.05102041 16:0.030612245 17:6 18:0.36734694 19:-0.875 20:0.36734694 21:0.11111111 22:1 23:4 24:26 25:0.19387755 26:0.030612245 27:0.010204081 28:0.030612245 29:0.020408163 30:0 31:0.020408163 32:0.030612245 33:0.21428572 34:0.030612245 35:0.030612245 36:0.030612245 37:0.010204081 38:0 39:0 40:0.030612245 41:0.05102041 42:0.010204081 43:0 44:0.030612245 45:0.010204081 46:0 47:0.030612245 48:0.010204081 49:0.071428575 50:0.030612245 51:0.010204081 52:0.010204081 53:0.010204081 54:0 55:0 56:0.020408163 57:-31.5 #
-0.00037647985461484339587967529183743 1:0.071428575 2:0.047619049 3:0.035714287 4:0.083333336 5:0.05952381 6:0.10714286 7:0.047619049 8:0.10714286 9:0.047619049 10:0.05952381 11:0.035714287 12:0.011904762 13:0.05952381 14:0.095238097 15:0.047619049 16:0.071428575 17:6 18:0.36904761 19:-0.716129 20:0.18452381 21:0.19354838 22:1 23:2 24:22 25:0.071428575 26:0.035714287 27:0.035714287 28:0.023809524 29:0.023809524 30:0 31:0.011904762 32:0.035714287 33:0.15476191 34:0.011904762 35:0.047619049 36:0.071428575 37:0.011904762 38:0 39:0 40:0.011904762 41:0.095238097 42:0.023809524 43:0.023809524 44:0 45:0 46:0 47:0.011904762 48:0 49:0.13095239 50:0.071428575 51:0 52:0.035714287 53:0 54:0 55:0 56:0.035714287 57:-22.200001 #
0.00037647985461484339587967529183743 1:0.14666666 2:0.06666667 3:0.06666667 4:0.046666667 5:0.07333333 6:0.11333334 7:0.06666667 8:0.046666667 9:0.06666667 10:0.046666667 11:0.059999999 12:0.033333335 13:0.046666667 14:0.06666667 15:0.013333334 16:0.033333335 17:7 18:0.28666666 19:-0.73720932 20:0.095555559 21:0.093023255 22:0 23:80 24:64 25:0.093333334 26:0.033333335 27:0 28:0.02 29:0.046666667 30:0 31:0.053333335 32:0.079999998 33:0.12 34:0.02 35:0 36:0.033333335 37:0.013333334 38:0 39:0.013333334 40:0.093333334 41:0.059999999 42:0.013333334 43:0.02 44:0.033333335 45:0.013333334 46:0 47:0.013333334 48:0.053333335 49:0.086666666 50:0.033333335 51:0 52:0.02 53:0.0066666668 54:0 55:0.0066666668 56:0.0066666668 57:-31.700001 #
-0.00037647985461484339587967529183743 1:0.071428575 2:0.071428575 3:0.035714287 4:0.047619049 5:0.023809524 6:0.13095239 7:0.071428575 8:0.083333336 9:0.047619049 10:0.05952381 11:0.035714287 12:0.047619049 13:0.071428575 14:0.047619049 15:0.047619049 16:0.095238097 17:13 18:0.29761904 19:-0.69199997 20:0.14880952 21:0.12 22:1 23:3 24:34 25:0.071428575 26:0.023809524 27:0.023809524 28:0.047619049 29:0.011904762 30:0 31:0.011904762 32:0.023809524 33:0.083333336 34:0.05952381 35:0.023809524 36:0.035714287 37:0.011904762 38:0 39:0.011904762 40:0.083333336 41:0.083333336 42:0.023809524 43:0 44:0.011904762 45:0.011904762 46:0 47:0.011904762 48:0.047619049 49:0.095238097 50:0.023809524 51:0.023809524 52:0.035714287 53:0.023809524 54:0 55:0.023809524 56:0.035714287 57:-17.299999 #
0.00037647985461484339587967529183743 1:0.11578947 2:0.052631579 3:0.08421053 4:0.052631579 5:0.08421053 6:0.1368421 7:0.042105265 8:0.08421053 9:0.063157894 10:0.08421053 11:0.021052632 12:0 13:0.052631579 14:0.063157894 15:0.021052632 16:0.031578947 17:3 18:0.36842105 19:-0.94 20:0.36842105 21:0.057142857 22:1 23:6 24:25 25:0.18947369 26:0.042105265 27:0.010526316 28:0.021052632 29:0 30:0 31:0.010526316 32:0.031578947 33:0.2 34:0.031578947 35:0 36:0.042105265 37:0.021052632 38:0 39:0.010526316 40:0.031578947 41:0.052631579 42:0.021052632 43:0.031578947 44:0.021052632 45:0.010526316 46:0 47:0.010526316 48:0.021052632 49:0.073684208 50:0.010526316 51:0.031578947 52:0.021052632 53:0.010526316 54:0.010526316 55:0 56:0.010526316 57:-32.900002 #
-0.00037647985461484339587967529183743 1:0 2:0 3:0.047619049 4:0.071428575 5:0 6:0 7:0.047619049 8:0.047619049 9:0.047619049 10:0.095238097 11:0.17857143 12:0.071428575 13:0.071428575 14:0.011904762 15:0.11904762 16:0.17857143 17:6 18:0.33333334 19:-1.8285714 20:0.16666667 21:0.035714287 22:1 23:3 24:28 25:0.047619049 26:0 27:0.023809524 28:0 29:0.011904762 30:0 31:0.011904762 32:0.023809524 33:0.047619049 34:0.011904762 35:0 36:0 37:0.011904762 38:0 39:0.011904762 40:0.011904762 41:0.14285715 42:0.047619049 43:0.023809524 44:0.083333336 45:0.011904762 46:0 47:0.023809524 48:0.05952381 49:0.14285715 50:0.071428575 51:0.035714287 52:0.05952381 53:0.011904762 54:0 55:0.011904762 56:0.035714287 57:-51.200001 #
-0.00037647985461484339587967529183743 1:0.011904762 2:0.071428575 3:0.011904762 4:0.071428575 5:0.047619049 6:0.05952381 7:0.071428575 8:0.16666667 9:0.05952381 10:0.095238097 11:0.011904762 12:0.011904762 13:0.047619049 14:0.13095239 15:0.071428575 16:0.047619049 17:7 18:0.30952382 19:-0.86923075 20:0.15476191 21:0.15384616 22:1 23:4 24:32 25:0.05952381 26:0.023809524 27:0 28:0.011904762 29:0.023809524 30:0.023809524 31:0.011904762 32:0.011904762 33:0.10714286 34:0.047619049 35:0.047619049 36:0.023809524 37:0.023809524 38:0.011904762 39:0.023809524 40:0.05952381 41:0.047619049 42:0.047619049 43:0.011904762 44:0.023809524 45:0 46:0 47:0.011904762 48:0.023809524 49:0.083333336 50:0.023809524 51:0.05952381 52:0.083333336 53:0.011904762 54:0 55:0.011904762 56:0.023809524 57:-22.6 #
-0.00037647985461484339587967529183743 1:0 2:0 3:0.012048192 4:0.036144577 5:0.012048192 6:0 7:0 8:0.060240965 9:0.012048192 10:0.024096385 11:0.21686748 12:0.18072289 13:0.024096385 14:0.048192769 15:0.20481928 16:0.15662651 17:4 18:0.37349397 19:-1.6677419 20:0.37349397 21:0.032258064 22:1 23:6 24:21 25:0.024096385 26:0 27:0.012048192 28:0 29:0 30:0 31:0 32:0.012048192 33:0.024096385 34:0 35:0.024096385 36:0.012048192 37:0 38:0 39:0 40:0.012048192 41:0.21686748 42:0.048192769 43:0.024096385 44:0.060240965 45:0.036144577 46:0 47:0.024096385 48:0.012048192 49:0.19277108 50:0.072289154 51:0.036144577 52:0.060240965 53:0.012048192 54:0.024096385 55:0.024096385 56:0.012048192 57:-51.700001 #
0.00037647985461484339587967529183743 1:0.073170729 2:0.073170729 3:0.048780486 4:0.060975611 5:0.036585364 6:0.1097561 7:0.073170729 8:0.085365854 9:0.060975611 10:0.085365854 11:0.085365854 12:0 13:0.085365854 14:0.048780486 15:0.024390243 16:0.036585364 17:6 18:0.30487806 19:-0.648 20:0.10162602 21:0.28 22:0 23:80 24:32 25:0.097560972 26:0.012195121 27:0 28:0.036585364 29:0.036585364 30:0 31:0.024390243 32:0.048780486 33:0.13414635 34:0.024390243 35:0.012195121 36:0.024390243 37:0.048780486 38:0 39:0.012195121 40:0.048780486 41:0.073170729 42:0.012195121 43:0 44:0.036585364 45:0.012195121 46:0 47:0.048780486 48:0.048780486 49:0.085365854 50:0.060975611 51:0 52:0.012195121 53:0 54:0 55:0.012195121 56:0.012195121 57:-16.200001 #
-0.00037647985461484339587967529183743 1:0.036144577 2:0.024096385 3:0.060240965 4:0.096385539 5:0.024096385 6:0.072289154 7:0.060240965 8:0.10843374 9:0.024096385 10:0.096385539 11:0.012048192 12:0.048192769 13:0.13253012 14:0.072289154 15:0.048192769 16:0.072289154 17:4 18:0.31325302 19:-0.8576923 20:0.31325302 21:0.23076923 22:1 23:7 24:31 25:0.048192769 26:0.024096385 27:0 28:0.012048192 29:0.048192769 30:0 31:0.048192769 32:0.036144577 33:0.12048193 34:0.024096385 35:0.012048192 36:0.036144577 37:0.036144577 38:0 39:0.024096385 40:0.012048192 41:0.036144577 42:0.048192769 43:0 44:0.048192769 45:0.024096385 46:0 47:0.024096385 48:0 49:0.10843374 50:0.060240965 51:0.024096385 52:0.060240965 53:0.012048192 54:0 55:0.012048192 56:0.036144577 57:-22.299999 #
0.00037647985461484339587967529183743 1:0.018867925 2:0.018867925 3:0.03773585 4:0.075471699 5:0.018867925 6:0.094339624 7:0.03773585 8:0.13207547 9:0.075471699 10:0.094339624 11:0.056603774 12:0 13:0.03773585 14:0.075471699 15:0.094339624 16:0.11320755 17:3 18:0.3773585 19:-0.97000003 20:0.3773585 21:0.15000001 22:1 23:2 24:13 25:0.094339624 26:0.018867925 27:0.018867925 28:0 29:0 30:0 31:0 32:0 33:0.1509434 34:0 35:0 36:0.056603774 37:0.03773585 38:0.018867925 39:0.018867925 40:0 41:0.094339624 42:0.018867925 43:0.056603774 44:0.03773585 45:0 46:0 47:0.018867925 48:0 49:0.1509434 50:0.075471699 51:0.03773585 52:0.018867925 53:0 54:0.018867925 55:0 56:0.018867925 57:-19.4 #
-0.00037647985461484339587967529183743 1:0 2:0.023809524 3:0.05952381 4:0.071428575 5:0.023809524 6:0.035714287 7:0.023809524 8:0.14285715 9:0.047619049 10:0.10714286 11:0.035714287 12:0.035714287 13:0.083333336 14:0.071428575 15:0.10714286 16:0.11904762 17:8 18:0.38095239 19:-1.08125 20:0.19047619 21:0.125 22:1 23:2 24:20 25:0.071428575 26:0.011904762 27:0.035714287 28:0 29:0 30:0 31:0.011904762 32:0.023809524 33:0.10714286 34:0.023809524 35:0.035714287 36:0.035714287 37:0 38:0 39:0 40:0.023809524 41:0.14285715 42:0.035714287 43:0 44:0.035714287 45:0 46:0 47:0 48:0.011904762 49:0.20238096 50:0.035714287 51:0.011904762 52:0.047619049 53:0.023809524 54:0 55:0.011904762 56:0.035714287 57:-34.599998 #
-0.00037647985461484339587967529183743 1:0.05952381 2:0.023809524 3:0.047619049 4:0.047619049 5:0.023809524 6:0.047619049 7:0.071428575 8:0.071428575 9:0.083333336 10:0.11904762 11:0.13095239 12:0.011904762 13:0.011904762 14:0.023809524 15:0.10714286 16:0.10714286 17:11 18:0.29761904 19:-0.94 20:0.14880952 21:0.16 22:1 23:2 24:34 25:0.035714287 26:0.035714287 27:0.035714287 28:0.011904762 29:0.011904762 30:0 31:0.023809524 32:0.023809524 33:0.071428575 34:0.023809524 35:0 36:0.047619049 37:0.011904762 38:0 39:0.011904762 40:0.047619049 41:0.071428575 42:0.05952381 43:0.05952381 44:0.023809524 45:0.011904762 46:0 47:0 48:0.11904762 49:0.13095239 50:0.011904762 51:0 52:0.05952381 53:0 54:0 55:0.011904762 56:0.023809524 57:-23.5 #
0.00037647985461484339587967529183743 1:0.05050505 2:0.060606062 3:0.05050505 4:0.060606062 5:0.02020202 6:0.080808081 7:0.1010101 8:0.1010101 9:0.11111111 10:0.090909094 11:0.030303031 12:0.02020202 13:0.04040404 14:0.070707068 15:0.070707068 16:0.030303031 17:12 18:0.3131313 19:-1.0419354 20:0.3131313 21:0.12903225 22:1 23:3 24:37 25:0.090909094 26:0.04040404 27:0.04040404 28:0.01010101 29:0 30:0 31:0.02020202 32:0.02020202 33:0.12121212 34:0.02020202 35:0.02020202 36:0.04040404 37:0.01010101 38:0 39:0.01010101 40:0.080808081 41:0.070707068 42:0.04040404 43:0.030303031 44:0.01010101 45:0 46:0.01010101 47:0 48:0.080808081 49:0.1010101 50:0.01010101 51:0.01010101 52:0.05050505 53:0.02020202 54:0.01010101 55:0 56:0.01010101 57:-32.299999 #
0.00037647985461484339587967529183743 1:0.0990991 2:0.063063063 3:0.063063063 4:0.036036037 5:0.063063063 6:0.13513513 7:0.072072074 8:0.063063063 9:0.063063063 10:0.072072074 11:0.036036037 12:0.045045044 13:0.036036037 14:0.063063063 15:0.045045044 16:0.036036037 17:10 18:0.27927929 19:-0.59354836 20:0.09309309 21:0.16129032 22:0 23:80 24:49 25:0.072072074 26:0.0090090092 27:0 28:0.063063063 29:0.018018018 30:0 31:0.018018018 32:0.081081077 33:0.081081077 34:0.063063063 35:0.027027028 36:0.018018018 37:0.036036037 38:0 39:0.027027028 40:0.081081077 41:0.054054055 42:0.045045044 43:0.018018018 44:0.018018018 45:0.0090090092 46:0 47:0.027027028 48:0.045045044 49:0.063063063 50:0.018018018 51:0.018018018 52:0.036036037 53:0.0090090092 54:0 55:0 56:0.027027028 57:-18.4 #
-0.00037647985461484339587967529183743 1:0.011904762 2:0.023809524 3:0 4:0.035714287 5:0 6:0 7:0.047619049 8:0.047619049 9:0.023809524 10:0.047619049 11:0.15476191 12:0.15476191 13:0.035714287 14:0.011904762 15:0.19047619 16:0.20238096 17:6 18:0.34523809 19:-1.7448276 20:0.17261904 21:0.10344828 22:1 23:5 24:26 25:0 26:0.011904762 27:0.011904762 28:0 29:0.035714287 30:0 31:0.011904762 32:0 33:0.011904762 34:0.011904762 35:0 36:0.023809524 37:0.011904762 38:0 39:0.011904762 40:0.011904762 41:0.17857143 42:0.023809524 43:0.035714287 44:0.095238097 45:0 46:0 47:0.023809524 48:0.023809524 49:0.21428572 50:0.095238097 51:0.011904762 52:0.023809524 53:0.023809524 54:0 55:0.023809524 56:0.047619049 57:-50.599998 #
-0.00037647985461484339587967529183743 1:0.048192769 2:0.024096385 3:0.036144577 4:0.072289154 5:0 6:0.036144577 7:0.048192769 8:0.19277108 9:0.060240965 10:0.084337346 11:0.036144577 12:0.012048192 13:0.072289154 14:0.13253012 15:0.072289154 16:0.060240965 17:6 18:0.28915662 19:-1.05 20:0.14457831 21:0.041666668 22:1 23:2 24:35 25:0.036144577 26:0.048192769 27:0 28:0 29:0.012048192 30:0 31:0 32:0.084337346 33:0.096385539 34:0.012048192 35:0.012048192 36:0.048192769 37:0 38:0 39:0.012048192 40:0.084337346 41:0.10843374 42:0.012048192 43:0 44:0 45:0.024096385 46:0 47:0 48:0.048192769 49:0.14457831 50:0.024096385 51:0.036144577 52:0.036144577 53:0.012048192 54:0 55:0.024096385 56:0.060240965 57:-25.200001 #
0.00037647985461484339587967529183743 1:0.060975611 2:0.048780486 3:0.060975611 4:0.048780486 5:0.073170729 6:0.1097561 7:0.060975611 8:0.1097561 9:0.048780486 10:0.085365854 11:0.024390243 12:0.012195121 13:0.036585364 14:0.1097561 15:0.036585364 16:0.060975611 17:3 18:0.36585367 19:-0.85666668 20:0.36585367 21:0.06666667 22:1 23:4 24:22 25:0.1097561 26:0.048780486 27:0.024390243 28:0.012195121 29:0.012195121 30:0 31:0.012195121 32:0 33:0.085365854 34:0.036585364 35:0.048780486 36:0.097560972 37:0.012195121 38:0.012195121 39:0.024390243 40:0.036585364 41:0.097560972 42:0.012195121 43:0.012195121 44:0.012195121 45:0.012195121 46:0 47:0.012195121 48:0.012195121 49:0.097560972 50:0.048780486 51:0.036585364 52:0.024390243 53:0.012195121 54:0.012195121 55:0 56:0 57:-25.700001 #
0.00037647985461484339587967529183743 1:0.14102565 2:0.03846154 3:0.064102568 4:0.051282052 5:0.03846154 6:0.03846154 7:0.064102568 8:0.089743592 9:0.089743592 10:0.1025641 11:0.03846154 12:0 13:0.025641026 14:0.051282052 15:0.07692308 16:0.07692308 17:10 18:0.25641027 19:-0.80500001 20:0.085470088 21:0.050000001 22:0 23:80 24:38 25:0.064102568 26:0.025641026 27:0.012820513 28:0.012820513 29:0.03846154 30:0 31:0.012820513 32:0.12820514 33:0.064102568 34:0.025641026 35:0 36:0.025641026 37:0.012820513 38:0 39:0.025641026 40:0.07692308 41:0.1025641 42:0.012820513 43:0 44:0.025641026 45:0.025641026 46:0 47:0.012820513 48:0.051282052 49:0.07692308 50:0.03846154 51:0 52:0.03846154 53:0.012820513 54:0 55:0.025641026 56:0.025641026 57:-16.1 #
-0.00037647985461484339587967529183743 1:0 2:0.035714287 3:0.023809524 4:0.083333336 5:0 6:0.011904762 7:0.083333336 8:0.10714286 9:0.083333336 10:0.071428575 11:0.047619049 12:0.071428575 13:0.071428575 14:0.083333336 15:0.10714286 16:0.10714286 17:5 18:0.36904761 19:-1.2129033 20:0.12301587 21:0.12903225 22:0 23:80 24:22 25:0.071428575 26:0.011904762 27:0.011904762 28:0.023809524 29:0.023809524 30:0 31:0 32:0 33:0.11904762 34:0.011904762 35:0.011904762 36:0.023809524 37:0 38:0 39:0 40:0.035714287 41:0.15476191 42:0.011904762 43:0 44:0.023809524 45:0.011904762 46:0.011904762 47:0.023809524 48:0.023809524 49:0.19047619 50:0.047619049 51:0.023809524 52:0.023809524 53:0.011904762 54:0 55:0.035714287 56:0.035714287 57:-37.599998 #
0.00037647985461484339587967529183743 1:0.06666667 2:0.088888891 3:0.033333335 4:0.044444446 5:0.077777781 6:0.23333333 7:0.06666667 8:0.044444446 9:0.1 10:0.044444446 11:0.077777781 12:0 13:0 14:0.055555556 15:0.044444446 16:0.011111111 17:16 18:0.16666667 19:-0.62666667 20:0.083333336 21:0.2 22:1 23:7 24:60 25:0.055555556 26:0.011111111 27:0 28:0.022222223 29:0.022222223 30:0 31:0.011111111 32:0.11111111 33:0.06666667 34:0.022222223 35:0.011111111 36:0 37:0.033333335 38:0 39:0.033333335 40:0.25555557 41:0.033333335 42:0.022222223 43:0 44:0.022222223 45:0.011111111 46:0 47:0.022222223 48:0.11111111 49:0.022222223 50:0.022222223 51:0 52:0.033333335 53:0 54:0 55:0 56:0.022222223 57:-9.3999996 #
0.00037647985461484339587967529183743 1:0.12 2:0.13 3:0.02 4:0.059999999 5:0.1 6:0.090000004 7:0.059999999 8:0.090000004 9:0.050000001 10:0.059999999 11:0.02 12:0 13:0.059999999 14:0.059999999 15:0.029999999 16:0.039999999 17:5 18:0.37 19:-0.91081083 20:0.37 21:0.081081077 22:1 23:7 24:26 25:0.13 26:0.02 27:0.0099999998 28:0.029999999 29:0.039999999 30:0.02 31:0.039999999 32:0.029999999 33:0.19 34:0.039999999 35:0.02 36:0.02 37:0.0099999998 38:0.02 39:0.0099999998 40:0.029999999 41:0.07 42:0 43:0.02 44:0.029999999 45:0 46:0 47:0 48:0.0099999998 49:0.13 50:0.029999999 51:0.02 52:0.0099999998 53:0 54:0 55:0 56:0 57:-33.700001 #
0.00037647985461484339587967529183743 1:0.090909094 2:0.038961038 3:0.090909094 4:0.077922076 5:0.025974026 6:0.064935066 7:0.038961038 8:0.090909094 9:0.090909094 10:0.051948052 11:0.064935066 12:0.012987013 13:0.1038961 14:0.064935066 15:0.025974026 16:0.051948052 17:7 18:0.32467532 19:-1.38 20:0.10822511 21:0.079999998 22:0 23:80 24:27 25:0.090909094 26:0.038961038 27:0.012987013 28:0.012987013 29:0.025974026 30:0 31:0.038961038 32:0.077922076 33:0.077922076 34:0.025974026 35:0 36:0.051948052 37:0.012987013 38:0 39:0 40:0.051948052 41:0.11688311 42:0.012987013 43:0.025974026 44:0.038961038 45:0 46:0 47:0 48:0.025974026 49:0.12987013 50:0.038961038 51:0.025974026 52:0.012987013 53:0.012987013 54:0 55:0.012987013 56:0 57:-34.5 #
-0.00037647985461484339587967529183743 1:0 2:0 3:0.035714287 4:0.023809524 5:0 6:0.023809524 7:0.035714287 8:0.13095239 9:0.023809524 10:0.071428575 11:0.083333336 12:0.11904762 13:0.035714287 14:0.095238097 15:0.15476191 16:0.15476191 17:7 18:0.33333334 19:-1.5 20:0.11111111 21:0.21428572 22:0 23:80 24:28 25:0.035714287 26:0 27:0 28:0 29:0 30:0 31:0.011904762 32:0.011904762 33:0.047619049 34:0.011904762 35:0.023809524 36:0.023809524 37:0.035714287 38:0 39:0.011904762 40:0.035714287 41:0.17857143 42:0.035714287 43:0 44:0.035714287 45:0 46:0 47:0 48:0.047619049 49:0.23809524 50:0.035714287 51:0.011904762 52:0.023809524 53:0.011904762 54:0 55:0.023809524 56:0.083333336 57:-42 #
0.00037647985461484339587967529183743 1:0.14772727 2:0.079545453 3:0.045454547 4:0.10227273 5:0.022727273 6:0.045454547 7:0.03409091 8:0.079545453 9:0.079545453 10:0 11:0.011363637 12:0.022727273 13:0.125 14:0.045454547 15:0.022727273 16:0.125 17:22 18:0.17045455 19:-0.72666669 20:0.085227273 21:0.13333334 22:1 23:3 24:58 25:0.045454547 26:0.011363637 27:0.03409091 28:0.022727273 29:0.03409091 30:0 31:0.022727273 32:0.20454545 33:0.045454547 34:0.03409091 35:0 36:0.011363637 37:0 38:0 39:0 40:0.079545453 41:0.03409091 42:0 43:0 44:0.045454547 45:0 46:0 47:0 48:0.03409091 49:0.056818184 50:0.03409091 51:0 52:0 53:0.011363637 54:0 55:0.022727273 56:0.19318181 57:-10.9 #
-0.00037647985461484339587967529183743 1:0.21686748 2:0.036144577 3:0.096385539 4:0.060240965 5:0.048192769 6:0.048192769 7:0.048192769 8:0.036144577 9:0.10843374 10:0.060240965 11:0.060240965 12:0.012048192 13:0.036144577 14:0.036144577 15:0.036144577 16:0.048192769 17:23 18:0.22891566 19:-0.92105263 20:0.11445783 21:0.052631579 22:1 23:2 24:45 25:0.048192769 26:0.024096385 27:0.036144577 28:0.024096385 29:0.012048192 30:0 31:0.012048192 32:0.25301206 33:0.060240965 34:0.024096385 35:0.012048192 36:0.024096385 37:0 38:0 39:0.012048192 40:0.036144577 41:0.084337346 42:0 43:0 44:0.024096385 45:0.012048192 46:0 47:0 48:0.12048193 49:0.096385539 50:0.036144577 51:0 52:0 53:0.012048192 54:0 55:0 56:0.012048192 57:-17.5 #
0.00037647985461484339587967529183743 1:0.036363635 2:0.045454547 3:0.018181818 4:0.07272727 5:0.018181818 6:0.07272727 7:0.1 8:0.090909094 9:0.07272727 10:0.1 11:0.063636363 12:0.018181818 13:0.045454547 14:0.063636363 15:0.07272727 16:0.1 17:5 18:0.36363637 19:-0.97750002 20:0.12121212 21:0.2 22:0 23:80 24:30 25:0.063636363 26:0.018181818 27:0.018181818 28:0.027272727 29:0 30:0 31:0.0090909088 32:0.036363635 33:0.1 34:0.054545455 35:0.036363635 36:0.0090909088 37:0.018181818 38:0 39:0.045454547 40:0.0090909088 41:0.11818182 42:0.045454547 43:0.018181818 44:0.027272727 45:0.036363635 46:0 47:0 48:0.0090909088 49:0.15454546 50:0.018181818 51:0 52:0.081818178 53:0.0090909088 54:0 55:0.0090909088 56:0.0090909088 57:-39.099998 #
-0.00037647985461484339587967529183743 1:0.071428575 2:0.047619049 3:0.035714287 4:0.11904762 5:0.011904762 6:0.047619049 7:0.071428575 8:0.10714286 9:0.083333336 10:0.095238097 11:0.011904762 12:0.011904762 13:0.10714286 14:0.047619049 15:0.083333336 16:0.035714287 17:11 18:0.27380952 19:-0.97826087 20:0.13690476 21:0.2173913 22:1 23:4 24:38 25:0.083333336 26:0 27:0.035714287 28:0.011904762 29:0.047619049 30:0 31:0.023809524 32:0.05952381 33:0.10714286 34:0 35:0 36:0.035714287 37:0.011904762 38:0 39:0.023809524 40:0.05952381 41:0.05952381 42:0.035714287 43:0 44:0.023809524 45:0.011904762 46:0.011904762 47:0.023809524 48:0.035714287 49:0.05952381 50:0.05952381 51:0 52:0.035714287 53:0.011904762 54:0.011904762 55:0.023809524 56:0.071428575 57:-22.5 #
0.00037647985461484339587967529183743 1:0.11538462 2:0.13461539 3:0.01923077 4:0.057692308 5:0.13461539 6:0.26923078 7:0.01923077 8:0.057692308 9:0.01923077 10:0.01923077 11:0 12:0 13:0.057692308 14:0.057692308 15:0 16:0.01923077 17:8 18:0.38461539 19:-0.85000002 20:0.38461539 21:0.1 22:1 23:2 24:12 25:0.21153846 26:0.01923077 27:0 28:0.03846154 29:0 30:0 31:0.01923077 32:0.03846154 33:0.28846154 34:0.03846154 35:0.03846154 36:0.01923077 37:0.01923077 38:0 39:0.01923077 40:0.057692308 41:0.01923077 42:0 43:0 44:0.01923077 45:0 46:0 47:0 48:0 49:0.096153848 50:0 51:0 52:0 53:0 54:0 55:0 56:0.01923077 57:-17 #
-0.00037647985461484339587967529183743 1:0.084337346 2:0.22891566 3:0.012048192 4:0.048192769 5:0.19277108 6:0.084337346 7:0.060240965 8:0.048192769 9:0.048192769 10:0.024096385 11:0.012048192 12:0 13:0.036144577 14:0.048192769 15:0 16:0.060240965 17:5 18:0.36144578 19:-0.56666666 20:0.18072289 21:0.1 22:1 23:3 24:23 25:0.19277108 26:0.060240965 27:0 28:0.012048192 29:0.048192769 30:0.012048192 31:0.012048192 32:0.024096385 33:0.25301206 34:0 35:0.024096385 36:0.048192769 37:0.012048192 38:0.012048192 39:0 40:0.036144577 41:0.048192769 42:0 43:0 44:0 45:0 46:0 47:0.036144577 48:0 49:0.036144577 50:0.024096385 51:0.024096385 52:0.024096385 53:0 54:0 55:0 56:0.036144577 57:-17 #
0.00037647985461484339587967529183743 1:0.14728682 2:0.062015504 3:0.046511628 4:0.069767445 5:0.1007752 6:0.15503876 7:0.03875969 8:0.03875969 9:0.031007752 10:0.069767445 11:0.015503876 12:0.046511628 13:0.03875969 14:0.054263566 15:0.062015504 16:0.015503876 17:17 18:0.28682169 19:-0.94324327 20:0.095607236 21:0.10810811 22:0 23:80 24:55 25:0.11627907 26:0.015503876 27:0 28:0.015503876 29:0.031007752 30:0 31:0.023255814 32:0.11627907 33:0.15503876 34:0.007751938 35:0 36:0.023255814 37:0.031007752 38:0 39:0.03875969 40:0.07751938 41:0.054263566 42:0.031007752 43:0 44:0.015503876 45:0.023255814 46:0 47:0.015503876 48:0.023255814 49:0.07751938 50:0.031007752 51:0 52:0.031007752 53:0 54:0 55:0.007751938 56:0.023255814 57:-34.900002 #
0.00037647985461484339587967529183743 1:0.037037037 2:0.11111111 3:0.055555556 4:0.018518519 5:0.055555556 6:0.037037037 7:0.018518519 8:0.24074075 9:0.11111111 10:0 11:0.037037037 12:0 13:0.018518519 14:0.18518518 15:0.037037037 16:0.018518519 17:6 18:0.4074074 19:-0.77272725 20:0.4074074 21:0.090909094 22:1 23:2 24:10 25:0.11111111 26:0.018518519 27:0 28:0.037037037 29:0 30:0 31:0 32:0.055555556 33:0.2037037 34:0.037037037 35:0.037037037 36:0.018518519 37:0 38:0 39:0.018518519 40:0.018518519 41:0.11111111 42:0.018518519 43:0.018518519 44:0 45:0 46:0 47:0 48:0 49:0.16666667 50:0.018518519 51:0.018518519 52:0.037037037 53:0.018518519 54:0 55:0 56:0 57:-17 #
-0.00037647985461484339587967529183743 1:0.047619049 2:0 3:0.035714287 4:0.11904762 5:0.011904762 6:0 7:0.011904762 8:0.047619049 9:0.071428575 10:0.035714287 11:0.11904762 12:0.05952381 13:0.05952381 14:0.035714287 15:0.11904762 16:0.21428572 17:11 18:0.26190478 19:-1.7045455 20:0.08730159 21:0.13636364 22:0 23:80 24:40 25:0.023809524 26:0 27:0.011904762 28:0 29:0.011904762 30:0 31:0.011904762 32:0.13095239 33:0.035714287 34:0 35:0 36:0 37:0 38:0 39:0 40:0.035714287 41:0.13095239 42:0.047619049 43:0.011904762 44:0.047619049 45:0 46:0 47:0 48:0.047619049 49:0.16666667 50:0.035714287 51:0.011904762 52:0.035714287 53:0.035714287 54:0 55:0.023809524 56:0.11904762 57:-37.5 #
-0.00037647985461484339587967529183743 1:0.060240965 2:0.072289154 3:0.036144577 4:0.084337346 5:0.036144577 6:0.084337346 7:0.048192769 8:0.13253012 9:0.048192769 10:0.096385539 11:0.024096385 12:0.012048192 13:0.10843374 14:0.060240965 15:0.072289154 16:0.012048192 17:7 18:0.36144578 19:-0.69333333 20:0.18072289 21:0.06666667 22:1 23:3 24:23 25:0.12048193 26:0.048192769 27:0 28:0.024096385 29:0 30:0 31:0.012048192 32:0.048192769 33:0.19277108 34:0.012048192 35:0.012048192 36:0.048192769 37:0 38:0 39:0.012048192 40:0.024096385 41:0.096385539 42:0.012048192 43:0.012048192 44:0 45:0.024096385 46:0 47:0.024096385 48:0.012048192 49:0.096385539 50:0.024096385 51:0.024096385 52:0.036144577 53:0.024096385 54:0 55:0.012048192 56:0.024096385 57:-20.799999 #
0.00037647985461484339587967529183743 1:0.043165468 2:0.10791367 3:0.071942449 4:0.064748198 5:0.050359711 6:0.028776979 7:0.071942449 8:0.11510792 9:0.13669065 10:0.01438849 11:0.035971224 12:0.0071942448 13:0.057553958 14:0.11510792 15:0.021582734 16:0.050359711 17:7 18:0.33093524 19:-1.1 20:0.11031175 21:0.15217391 22:0 23:80 24:47 25:0.1294964 26:0.01438849 27:0.0071942448 28:0.01438849 29:0.043165468 30:0 31:0.021582734 32:0.057553958 33:0.15827338 34:0.021582734 35:0 36:0.028776979 37:0 38:0 39:0.0071942448 40:0.050359711 41:0.093525179 42:0.01438849 43:0 44:0.01438849 45:0 46:0 47:0 48:0.071942449 49:0.12230216 50:0.028776979 51:0.01438849 52:0.021582734 53:0.0071942448 54:0 55:0.021582734 56:0.021582734 57:-50.599998 #
-0.00037647985461484339587967529183743 1:0.012048192 2:0.012048192 3:0 4:0.096385539 5:0.024096385 6:0.024096385 7:0.012048192 8:0.036144577 9:0.036144577 10:0.048192769 11:0.10843374 12:0.10843374 13:0.048192769 14:0.024096385 15:0.16867469 16:0.22891566 17:6 18:0.28915662 19:-1.7166667 20:0.096385539 21:0 22:0 23:80 24:35 25:0 26:0.012048192 27:0.012048192 28:0.012048192 29:0.060240965 30:0 31:0.024096385 32:0 33:0.012048192 34:0.012048192 35:0 36:0.024096385 37:0 38:0 39:0 40:0.048192769 41:0.13253012 42:0.048192769 43:0 44:0.048192769 45:0 46:0 47:0.036144577 48:0.024096385 49:0.14457831 50:0.060240965 51:0.024096385 52:0.060240965 53:0.036144577 54:0 55:0.048192769 56:0.096385539 57:-41.200001 #
0.00037647985461484339587967529183743 1:0.06666667 2:0.1 3:0.050000001 4:0.06666667 5:0.16666667 6:0.18333334 7:0.050000001 8:0.050000001 9:0.016666668 10:0.06666667 11:0.016666668 12:0.016666668 13:0.033333335 14:0.1 15:0 16:0 17:7 18:0.33333334 19:-0.43000001 20:0.33333334 21:0.15000001 22:1 23:4 24:20 25:0.15000001 26:0.050000001 27:0 28:0.016666668 29:0.033333335 30:0 31:0 32:0.033333335 33:0.18333334 34:0.016666668 35:0.016666668 36:0.06666667 37:0.033333335 38:0 39:0.06666667 40:0.06666667 41:0.050000001 42:0 43:0.033333335 44:0 45:0 46:0.016666668 47:0 48:0.016666668 49:0.06666667 50:0.033333335 51:0 52:0.016666668 53:0 54:0 55:0 56:0 57:-8.6000004 #
0.00037647985461484339587967529183743 1:0.063157894 2:0.10526316 3:0.042105265 4:0.042105265 5:0.10526316 6:0.042105265 7:0.10526316 8:0.073684208 9:0.042105265 10:0.094736844 11:0.042105265 12:0.031578947 13:0.042105265 14:0.08421053 15:0.031578947 16:0.042105265 17:4 18:0.35789475 19:-1.0235294 20:0.35789475 21:0.05882353 22:1 23:7 24:27 25:0.12631579 26:0.031578947 27:0 28:0.021052632 29:0.031578947 30:0 31:0.021052632 32:0.021052632 33:0.14736842 34:0.031578947 35:0.042105265 36:0.042105265 37:0.031578947 38:0 39:0 40:0.031578947 41:0.08421053 42:0.031578947 43:0.021052632 44:0.021052632 45:0 46:0 47:0.042105265 48:0.010526316 49:0.10526316 50:0.031578947 51:0 52:0.042105265 53:0 54:0 55:0 56:0.010526316 57:-34.799999 #
0.00037647985461484339587967529183743 1:0.018691588 2:0.018691588 3:0.0093457941 4:0.056074765 5:0 6:0.037383176 7:0.084112152 8:0.018691588 9:0.046728972 10:0.065420561 11:0.13084112 12:0.14953271 13:0.037383176 14:0.018691588 15:0.1682243 16:0.13084112 17:10 18:0.28971961 19:-1.6483871 20:0.096573211 21:0.064516127 22:0 23:80 24:45 25:0.018691588 26:0 27:0 28:0.018691588 29:0.018691588 30:0 31:0.018691588 32:0.028037382 33:0.018691588 34:0.018691588 35:0.018691588 36:0.0093457941 37:0.0093457941 38:0 39:0.0093457941 40:0.056074765 41:0.15887851 42:0.046728972 43:0 44:0.028037382 45:0.0093457941 46:0.0093457941 47:0.018691588 48:0.11214953 49:0.1682243 50:0.037383176 51:0.028037382 52:0.046728972 53:0.028037382 54:0 55:0.018691588 56:0.028037382 57:-51.099998 #
0.00037647985461484339587967529183743 1:0.13114753 2:0.065573767 3:0.098360658 4:0.098360658 5:0.032786883 6:0.016393442 7:0.065573767 8:0.032786883 9:0.1147541 10:0.049180329 11:0.081967212 12:0 13:0.1147541 14:0 15:0.016393442 16:0.065573767 17:5 18:0.16393442 19:-0.57999998 20:0.081967212 21:0 22:1 23:4 24:41 25:0.049180329 26:0.016393442 27:0 28:0 29:0.065573767 30:0 31:0.032786883 32:0.22950819 33:0.049180329 34:0 35:0 36:0.016393442 37:0.016393442 38:0 39:0.016393442 40:0.032786883 41:0.016393442 42:0.032786883 43:0 44:0.032786883 45:0.016393442 46:0.016393442 47:0.016393442 48:0.1147541 49:0.016393442 50:0.032786883 51:0.016393442 52:0.032786883 53:0 54:0.016393442 55:0.032786883 56:0.049180329 57:-5.8000002 #
-0.00037647985461484339587967529183743 1:0.012048192 2:0 3:0.024096385 4:0.084337346 5:0.012048192 6:0.012048192 7:0.024096385 8:0.036144577 9:0.036144577 10:0.036144577 11:0.084337346 12:0.14457831 13:0.060240965 14:0.048192769 15:0.15662651 16:0.21686748 17:8 18:0.31325302 19:-1.6076924 20:0.10441767 21:0.1923077 22:0 23:80 24:31 25:0.012048192 26:0 27:0 28:0.012048192 29:0.048192769 30:0 31:0.024096385 32:0.024096385 33:0.036144577 34:0.012048192 35:0 36:0.024096385 37:0 38:0 39:0.012048192 40:0 41:0.15662651 42:0.012048192 43:0 44:0.048192769 45:0 46:0.012048192 47:0 48:0.060240965 49:0.19277108 50:0.060240965 51:0.048192769 52:0.012048192 53:0.024096385 54:0.024096385 55:0.036144577 56:0.084337346 57:-41.799999 #
0.00037647985461484339587967529183743 1:0.05882353 2:0.13235295 3:0.029411765 4:0.044117648 5:0.13235295 6:0.14705883 7:0.073529415 8:0.05882353 9:0.05882353 10:0.088235296 11:0.05882353 12:0 13:0.014705882 14:0.044117648 15:0.044117648 16:0 17:4 18:0.25 19:-0.34117648 20:0.25 21:0.11764706 22:1 23:4 24:34 25:0.073529415 26:0.029411765 27:0.029411765 28:0.073529415 29:0 30:0 31:0 32:0.05882353 33:0.073529415 34:0.073529415 35:0.044117648 36:0.044117648 37:0.029411765 38:0 39:0.044117648 40:0.10294118 41:0.014705882 42:0.014705882 43:0.044117648 44:0.014705882 45:0.029411765 46:0.014705882 47:0.014705882 48:0.05882353 49:0.014705882 50:0.029411765 51:0 52:0.014705882 53:0 54:0.014705882 55:0 56:0.014705882 57:-5.8000002 #
