SVM-light Version V6.02
0 # kernel type
3 # kernel parameter -d 
1 # kernel parameter -g 
1 # kernel parameter -s 
1 # kernel parameter -r 
empty# kernel parameter -u 
58 # highest feature index 
12756 # number of training documents 
3053 # number of support vectors plus 1 
0.8120806 # threshold b, each following line is a SV (starting with alpha*y)
-0.00041471625999604620890423567480809 1:0.024096385 2:0.072289154 3:0.072289154 4:0.036144577 5:0.060240965 6:0.084337346 7:0.084337346 8:0.084337346 9:0.096385539 10:0.12048193 11:0.072289154 12:0.012048192 13:0.024096385 14:0.036144577 15:0.072289154 16:0.036144577 17:10 18:0.26506025 19:-0.84090906 20:0.26506025 21:0.36363637 22:1 23:10 24:39 25:4 26:0.096385539 27:0.012048192 28:0.012048192 29:0 30:0.012048192 31:0 32:0.012048192 33:0.060240965 34:0.14457831 35:0.012048192 36:0 37:0.012048192 38:0.024096385 39:0 40:0.024096385 41:0.084337346 42:0.060240965 43:0.012048192 44:0 45:0.024096385 46:0.024096385 47:0 48:0.024096385 49:0.15662651 50:0.084337346 51:0.036144577 52:0 53:0.036144577 54:0 55:0 56:0 57:0.012048192 58:-18.5 #
0.00041471625999604620890423567480809 1:0.064516127 2:0.021505376 3:0.032258064 4:0.096774191 5:0.07526882 6:0.07526882 7:0.053763442 8:0.053763442 9:0.043010753 10:0.07526882 11:0.086021505 12:0.064516127 13:0.021505376 14:0.096774191 15:0.096774191 16:0.032258064 17:4 18:0.32258064 19:-1.1066667 20:0.32258064 21:0.06666667 22:1 23:6 24:33 25:1 26:0.086021505 27:0.032258064 28:0.021505376 29:0.010752688 30:0 31:0 32:0.010752688 33:0.043010753 34:0.10752688 35:0.021505376 36:0.021505376 37:0.032258064 38:0.021505376 39:0 40:0.032258064 41:0.021505376 42:0.096774191 43:0.021505376 44:0.032258064 45:0.032258064 46:0.032258064 47:0.010752688 48:0.021505376 49:0.021505376 50:0.096774191 51:0.043010753 52:0 53:0.043010753 54:0.010752688 55:0.010752688 56:0 57:0.043010753 58:-33.200001 #
-0.00041471625999604620890423567480809 1:0.012048192 2:0.024096385 3:0.036144577 4:0.084337346 5:0.012048192 6:0 7:0.036144577 8:0.048192769 9:0.072289154 10:0.036144577 11:0.15662651 12:0.084337346 13:0.060240965 14:0.036144577 15:0.13253012 16:0.15662651 17:6 18:0.37349397 19:-1.8129033 20:0.37349397 21:0.064516127 22:1 23:5 24:21 25:7 26:0.060240965 27:0 28:0.036144577 29:0.012048192 30:0.012048192 31:0 32:0.012048192 33:0.024096385 34:0.072289154 35:0.012048192 36:0 37:0.012048192 38:0 39:0 40:0 41:0 42:0.20481928 43:0.024096385 44:0.012048192 45:0.048192769 46:0.024096385 47:0 48:0.024096385 49:0.012048192 50:0.21686748 51:0.048192769 52:0 53:0.024096385 54:0 55:0 56:0.012048192 57:0.072289154 58:-56.200001 #
0.00041471625999604620890423567480809 1:0.15873016 2:0.063492067 3:0.031746034 4:0.063492067 5:0.047619049 6:0.079365082 7:0.047619049 8:0.12698413 9:0.015873017 10:0.079365082 11:0 12:0.015873017 13:0.11111111 14:0.063492067 15:0.031746034 16:0.047619049 17:6 18:0.34920636 19:-0.77272725 20:0.34920636 21:0.27272728 22:1 23:6 24:19 25:1 26:0.11111111 27:0.015873017 28:0 29:0.031746034 30:0.031746034 31:0 32:0.031746034 33:0.095238097 34:0.14285715 35:0.015873017 36:0.031746034 37:0.063492067 38:0.015873017 39:0 40:0.015873017 41:0 42:0.079365082 43:0.031746034 44:0 45:0 46:0 47:0 48:0 49:0 50:0.11111111 51:0.047619049 52:0.015873017 53:0.031746034 54:0.015873017 55:0 56:0.031746034 57:0 58:-17 #
-0.00041471625999604620890423567480809 1:0.05952381 2:0.023809524 3:0.047619049 4:0.13095239 5:0.023809524 6:0 7:0.023809524 8:0.095238097 9:0.05952381 10:0.083333336 11:0.083333336 12:0.047619049 13:0.11904762 14:0.035714287 15:0.10714286 16:0.047619049 17:8 18:0.2857143 19:-0.92500001 20:0.2857143 21:0.25 22:1 23:5 24:36 25:7 26:0.035714287 27:0.011904762 28:0.035714287 29:0.011904762 30:0.047619049 31:0 32:0.05952381 33:0.05952381 34:0.05952381 35:0.011904762 36:0 37:0.035714287 38:0.011904762 39:0 40:0 41:0.023809524 42:0.071428575 43:0.05952381 44:0.011904762 45:0.047619049 46:0.011904762 47:0 48:0.035714287 49:0.023809524 50:0.071428575 51:0.083333336 52:0 53:0.071428575 54:0.047619049 55:0 56:0.011904762 57:0.023809524 58:-22.200001 #
-0.00041471625999604620890423567480809 1:0.023809524 2:0.023809524 3:0.047619049 4:0.035714287 5:0.023809524 6:0.011904762 7:0.023809524 8:0.16666667 9:0.05952381 10:0.071428575 11:0.10714286 12:0.035714287 13:0.035714287 14:0.11904762 15:0.083333336 16:0.11904762 17:5 18:0.011904762 19:-32 20:0.0059523811 21:3 22:1 23:4 24:28 25:3 26:0.035714287 27:0.011904762 28:0 29:0.023809524 30:0.011904762 31:0 32:0.023809524 33:0.023809524 34:0.083333336 35:0.035714287 36:0.047619049 37:0.023809524 38:0.023809524 39:0 40:0 41:0.011904762 42:0.13095239 43:0.023809524 44:0.011904762 45:0.035714287 46:0.023809524 47:0 48:0.011904762 49:0.023809524 50:0.16666667 51:0.047619049 52:0 53:0.035714287 54:0.011904762 55:0.011904762 56:0.035714287 57:0.047619049 58:-32 #
-0.00041471625999604620890423567480809 1:0 2:0.011904762 3:0.023809524 4:0.035714287 5:0 6:0 7:0.035714287 8:0.035714287 9:0 10:0.05952381 11:0.095238097 12:0.17857143 13:0.071428575 14:0 15:0.17857143 16:0.26190478 17:3 18:0.36904761 19:-1.6838709 20:0.36904761 21:0.032258064 22:1 23:4 24:22 25:6 26:0.011904762 27:0 28:0.023809524 29:0 30:0.011904762 31:0 32:0 33:0.023809524 34:0.047619049 35:0 36:0 37:0.011904762 38:0 39:0 40:0 41:0.011904762 42:0.21428572 43:0.071428575 44:0.011904762 45:0.023809524 46:0.011904762 47:0 48:0 49:0 50:0.22619048 51:0.035714287 52:0.047619049 53:0.071428575 54:0.023809524 55:0.023809524 56:0.035714287 57:0.035714287 58:-52.200001 #
0.00041471625999604620890423567480809 1:0.062992126 2:0.14173229 3:0.047244094 4:0.05511811 5:0.10236221 6:0.047244094 7:0.05511811 8:0.10236221 9:0.11023622 10:0.047244094 11:0.031496063 12:0.0078740157 13:0.031496063 14:0.062992126 15:0.062992126 16:0.023622047 17:10 18:0.0078740157 19:-38.099998 20:0.0026246719 21:9 22:0 23:27 24:41 25:11 26:0.16535433 27:0.015748031 28:0 29:0.0078740157 30:0.023622047 31:0 32:0.031496063 33:0.062992126 34:0.18897638 35:0.0078740157 36:0 37:0.015748031 38:0.015748031 39:0 40:0 41:0.070866145 42:0.086614177 43:0.0078740157 44:0 45:0.023622047 46:0.0078740157 47:0 48:0.023622047 49:0.047244094 50:0.11023622 51:0.023622047 52:0 53:0.0078740157 54:0.0078740157 55:0 56:0 57:0.031496063 58:-38.099998 #
-0.00041471625999604620890423567480809 1:0.011904762 2:0 3:0.035714287 4:0.083333336 5:0.011904762 6:0 7:0.023809524 8:0.035714287 9:0.047619049 10:0.023809524 11:0.17857143 12:0.14285715 13:0.05952381 14:0.035714287 15:0.16666667 16:0.13095239 17:4 18:0.011904762 19:-44.799999 20:0.0059523811 21:1 22:1 23:6 24:30 25:26 26:0.023809524 27:0 28:0 29:0 30:0.023809524 31:0 32:0.047619049 33:0.035714287 34:0.035714287 35:0 36:0.023809524 37:0 38:0 39:0 40:0 41:0 42:0.14285715 43:0.047619049 44:0.035714287 45:0.095238097 46:0.023809524 47:0 48:0.023809524 49:0.023809524 50:0.13095239 51:0.10714286 52:0 53:0.05952381 54:0.047619049 55:0 56:0.023809524 57:0.023809524 58:-44.799999 #
0.00041471625999604620890423567480809 1:0.078431375 2:0.019607844 3:0.039215688 4:0.078431375 5:0.05882353 6:0.14705883 7:0.029411765 8:0.10784314 9:0.05882353 10:0.088235296 11:0.068627454 12:0 13:0.019607844 14:0.098039217 15:0.068627454 16:0.029411765 17:6 18:0.33333334 19:-0.85588235 20:0.33333334 21:0.14705883 22:1 23:8 24:34 25:2 26:0.078431375 27:0.039215688 28:0.0098039219 29:0.029411765 30:0.019607844 31:0 32:0.019607844 33:0.019607844 34:0.098039217 35:0.049019609 36:0.029411765 37:0.029411765 38:0.029411765 39:0 40:0.049019609 41:0.05882353 42:0.088235296 43:0.019607844 44:0.019607844 45:0.049019609 46:0.019607844 47:0 48:0.0098039219 49:0 50:0.10784314 51:0.039215688 52:0 53:0.039215688 54:0.0098039219 55:0 56:0 57:0.019607844 58:-29.1 #
0.00041471625999604620890423567480809 1:0.1122449 2:0.071428575 3:0.040816326 4:0.06122449 5:0.091836736 6:0.15306123 7:0.071428575 8:0.071428575 9:0.040816326 10:0.081632651 11:0.020408163 12:0 13:0.040816326 14:0.071428575 15:0.020408163 16:0.040816326 17:5 18:0.010204081 19:-15.8 20:0.0051020407 21:4 22:1 23:21 24:50 25:34 26:0.091836736 27:0.020408163 28:0 29:0.010204081 30:0.030612245 31:0 32:0.020408163 33:0.1122449 34:0.12244898 35:0.020408163 36:0 37:0.030612245 38:0.030612245 39:0 40:0.030612245 41:0.14285715 42:0.040816326 43:0.010204081 44:0 45:0.020408163 46:0 47:0 48:0.010204081 49:0.06122449 50:0.091836736 51:0.020408163 52:0 53:0.010204081 54:0.010204081 55:0 56:0.010204081 57:0.030612245 58:-15.8 #
-0.00041471625999604620890423567480809 1:0 2:0 3:0 4:0.060240965 5:0 6:0.012048192 7:0.024096385 8:0.024096385 9:0.024096385 10:0.036144577 11:0.12048193 12:0.14457831 13:0.036144577 14:0.024096385 15:0.16867469 16:0.31325302 17:6 18:0.33734939 19:-1.9464285 20:0.33734939 21:0.035714287 22:1 23:7 24:27 25:1 26:0.012048192 27:0 28:0 29:0 30:0.012048192 31:0 32:0.012048192 33:0.024096385 34:0.024096385 35:0 36:0 37:0.012048192 38:0 39:0 40:0 41:0.024096385 42:0.16867469 43:0.072289154 44:0 45:0.048192769 46:0.012048192 47:0 48:0 49:0.012048192 50:0.20481928 51:0.060240965 52:0.048192769 53:0.060240965 54:0.060240965 55:0 56:0.060240965 57:0.048192769 58:-54.5 #
0.00041471625999604620890423567480809 1:0.15873016 2:0.11111111 3:0.047619049 4:0.095238097 5:0.12698413 6:0.079365082 7:0.015873017 8:0.047619049 9:0.063492067 10:0.047619049 11:0.015873017 12:0 13:0.079365082 14:0.031746034 15:0.047619049 16:0.015873017 17:6 18:0.30158731 19:-0.2631579 20:0.30158731 21:0 22:1 23:9 24:25 25:8 26:0.11111111 27:0.047619049 28:0 29:0.047619049 30:0.063492067 31:0 32:0.047619049 33:0.095238097 34:0.11111111 35:0.063492067 36:0 37:0.063492067 38:0.015873017 39:0 40:0 41:0.015873017 42:0.063492067 43:0 44:0 45:0 46:0.015873017 47:0 48:0.031746034 49:0.015873017 50:0.063492067 51:0 52:0 53:0.015873017 54:0.015873017 55:0 56:0.031746034 57:0.031746034 58:-5 #
-0.00041471625999604620890423567480809 1:0.05952381 2:0.035714287 3:0.083333336 4:0.11904762 5:0.023809524 6:0 7:0.095238097 8:0.011904762 9:0.13095239 10:0.047619049 11:0.05952381 12:0.047619049 13:0.083333336 14:0.047619049 15:0.05952381 16:0.083333336 17:6 18:0.26190478 19:-0.98636365 20:0.26190478 21:0.18181819 22:1 23:7 24:40 25:1 26:0.035714287 27:0.011904762 28:0 29:0.035714287 30:0.083333336 31:0 32:0.095238097 33:0.035714287 34:0.047619049 35:0.023809524 36:0 37:0.011904762 38:0.011904762 39:0 40:0.011904762 41:0.023809524 42:0.05952381 43:0.023809524 44:0.011904762 45:0.095238097 46:0.023809524 47:0 48:0.023809524 49:0.047619049 50:0.071428575 51:0.095238097 52:0 53:0.011904762 54:0.023809524 55:0 56:0.011904762 57:0.047619049 58:-21.700001 #
-0.00041471625999604620890423567480809 1:0.023809524 2:0.047619049 3:0.05952381 4:0.05952381 5:0.035714287 6:0.083333336 7:0.047619049 8:0.083333336 9:0.047619049 10:0.095238097 11:0.095238097 12:0.011904762 13:0.083333336 14:0.023809524 15:0.047619049 16:0.14285715 17:8 18:0.011904762 19:-22.299999 20:0.0059523811 21:5 22:1 23:3 24:28 25:1 26:0.047619049 27:0.011904762 28:0.035714287 29:0.035714287 30:0 31:0 32:0.023809524 33:0.035714287 34:0.095238097 35:0.047619049 36:0.011904762 37:0.035714287 38:0.011904762 39:0 40:0.011904762 41:0.035714287 42:0.071428575 43:0.05952381 44:0.023809524 45:0.023809524 46:0.047619049 47:0 48:0.011904762 49:0.011904762 50:0.14285715 51:0.023809524 52:0.011904762 53:0.047619049 54:0 55:0 56:0.011904762 57:0.047619049 58:-22.299999 #
-0.00041471625999604620890423567480809 1:0 2:0 3:0.012048192 4:0.072289154 5:0 6:0 7:0.036144577 8:0.024096385 9:0.036144577 10:0.024096385 11:0.26506025 12:0.14457831 13:0.036144577 14:0.036144577 15:0.15662651 16:0.14457831 17:3 18:0.33734939 19:-1.9035715 20:0.33734939 21:0.035714287 22:1 23:7 24:27 25:6 26:0.012048192 27:0 28:0 29:0.012048192 30:0 31:0 32:0.036144577 33:0.012048192 34:0.012048192 35:0.012048192 36:0.012048192 37:0 38:0 39:0 40:0.024096385 41:0 42:0.21686748 43:0.048192769 44:0 45:0.036144577 46:0.060240965 47:0.012048192 48:0.024096385 49:0.072289154 50:0.21686748 51:0.036144577 52:0 53:0.036144577 54:0.048192769 55:0.012048192 56:0.012048192 57:0.012048192 58:-53.299999 #
0.00041471625999604620890423567480809 1:0.024096385 2:0.084337346 3:0 4:0.060240965 5:0 6:0.048192769 7:0.18072289 8:0.036144577 9:0.12048193 10:0.10843374 11:0.21686748 12:0 13:0.024096385 14:0.036144577 15:0.048192769 16:0 17:39 18:0.12048193 19:-0.50199997 20:0.12048193 21:0.1 22:1 23:10 24:63 25:8 26:0.048192769 27:0.012048192 28:0 29:0 30:0.012048192 31:0 32:0 33:0.096385539 34:0.048192769 35:0 36:0 37:0.012048192 38:0.024096385 39:0 40:0.024096385 41:0.15662651 42:0.024096385 43:0.036144577 44:0.012048192 45:0 46:0 47:0 48:0 49:0.37349397 50:0.024096385 51:0 52:0 53:0.036144577 54:0 55:0 56:0 57:0.036144577 58:-5.02 #
-0.00041471625999604620890423567480809 1:0.047619049 2:0.035714287 3:0.095238097 4:0.10714286 5:0.011904762 6:0 7:0.071428575 8:0.071428575 9:0.16666667 10:0.10714286 11:0.05952381 12:0 13:0.05952381 14:0 15:0.10714286 16:0.047619049 17:25 18:0.21428572 19:-0.91111112 20:0.21428572 21:0.055555556 22:1 23:8 24:48 25:1 26:0.035714287 27:0.011904762 28:0.011904762 29:0.035714287 30:0.05952381 31:0 32:0 33:0.13095239 34:0.035714287 35:0.035714287 36:0 37:0.011904762 38:0 39:0 40:0 41:0.05952381 42:0.095238097 43:0.011904762 44:0.011904762 45:0.011904762 46:0 47:0 48:0.023809524 49:0.17857143 50:0.071428575 51:0.023809524 52:0 53:0.035714287 54:0 55:0 56:0.047619049 57:0.035714287 58:-16.4 #
0.00041471625999604620890423567480809 1:0.04109589 2:0 3:0.08219178 4:0.08219178 5:0.01369863 6:0.05479452 7:0.05479452 8:0.10958904 9:0.10958904 10:0.10958904 11:0.05479452 12:0.01369863 13:0.05479452 14:0.06849315 15:0.08219178 16:0.05479452 17:4 18:0.31506848 19:-1.1391305 20:0.31506848 21:0.2173913 22:1 23:6 24:27 25:2 26:0.05479452 27:0.04109589 28:0.04109589 29:0.01369863 30:0.01369863 31:0 32:0.02739726 33:0.01369863 34:0.06849315 35:0.02739726 36:0 37:0.05479452 38:0.01369863 39:0 40:0.02739726 41:0.04109589 42:0.08219178 43:0.04109589 44:0.02739726 45:0.04109589 46:0.04109589 47:0 48:0 49:0.04109589 50:0.09589041 51:0.05479452 52:0.01369863 53:0.04109589 54:0.01369863 55:0 56:0.01369863 57:0.02739726 58:-26.200001 #
-0.00041471625999604620890423567480809 1:0 2:0 3:0.012048192 4:0.036144577 5:0.012048192 6:0 7:0 8:0.060240965 9:0.012048192 10:0.024096385 11:0.21686748 12:0.18072289 13:0.024096385 14:0.048192769 15:0.20481928 16:0.15662651 17:4 18:0.37349397 19:-1.6677419 20:0.37349397 21:0.032258064 22:1 23:6 24:21 25:4 26:0.024096385 27:0 28:0.012048192 29:0 30:0 31:0 32:0 33:0.012048192 34:0.024096385 35:0 36:0.024096385 37:0.012048192 38:0 39:0 40:0 41:0.012048192 42:0.21686748 43:0.048192769 44:0.024096385 45:0.060240965 46:0.036144577 47:0 48:0.024096385 49:0.012048192 50:0.19277108 51:0.072289154 52:0.036144577 53:0.060240965 54:0.012048192 55:0.024096385 56:0.024096385 57:0.012048192 58:-51.700001 #
0.00041471625999604620890423567480809 1:0.060975611 2:0.048780486 3:0.073170729 4:0.048780486 5:0.036585364 6:0.097560972 7:0.073170729 8:0.024390243 9:0.097560972 10:0.073170729 11:0.23170732 12:0.012195121 13:0.036585364 14:0.012195121 15:0.036585364 16:0.024390243 17:6 18:0.012195121 19:-4.8000002 20:0.0060975607 21:1 22:1 23:15 24:60 25:1 26:0.012195121 27:0 28:0 29:0.024390243 30:0.036585364 31:0 32:0.024390243 33:0.12195122 34:0.012195121 35:0.024390243 36:0 37:0 38:0.012195121 39:0 40:0 41:0.18292683 42:0.024390243 43:0.012195121 44:0 45:0.060975611 46:0.036585364 47:0 48:0.073170729 49:0.20731707 50:0.024390243 51:0.060975611 52:0 53:0.012195121 54:0 55:0 56:0 57:0.012195121 58:-4.8000002 #
-0.00041471625999604620890423567480809 1:0.13095239 2:0.05952381 3:0.023809524 4:0.095238097 5:0.023809524 6:0.05952381 7:0.047619049 8:0.11904762 9:0.071428575 10:0.047619049 11:0.011904762 12:0.011904762 13:0.095238097 14:0.071428575 15:0.05952381 16:0.05952381 17:10 18:0.27380952 19:-0.72608697 20:0.27380952 21:0.13043478 22:1 23:5 24:38 25:4 26:0.047619049 27:0.011904762 28:0.011904762 29:0.071428575 30:0.023809524 31:0.011904762 32:0.035714287 33:0.095238097 34:0.071428575 35:0.05952381 36:0.011904762 37:0.011904762 38:0.023809524 39:0.011904762 40:0.011904762 41:0.035714287 42:0.047619049 43:0.011904762 44:0 45:0.047619049 46:0.011904762 47:0 48:0 49:0.023809524 50:0.047619049 51:0.05952381 52:0.05952381 53:0.023809524 54:0.023809524 55:0 56:0.047619049 57:0.023809524 58:-16.700001 #
-0.00041471625999604620890423567480809 1:0.024096385 2:0 3:0.012048192 4:0.060240965 5:0 6:0.012048192 7:0.060240965 8:0.096385539 9:0.024096385 10:0.060240965 11:0.048192769 12:0.13253012 13:0.048192769 14:0.096385539 15:0.14457831 16:0.16867469 17:5 18:0.012048192 19:-36.200001 20:0.0040160641 21:2 22:0 23:12 24:29 25:6 26:0.012048192 27:0.024096385 28:0 29:0.012048192 30:0.012048192 31:0 32:0.024096385 33:0.012048192 34:0.036144577 35:0.012048192 36:0 37:0.048192769 38:0.012048192 39:0 40:0 41:0.060240965 42:0.15662651 43:0.036144577 44:0 45:0.036144577 46:0.012048192 47:0 48:0.012048192 49:0.012048192 50:0.18072289 51:0.048192769 52:0.036144577 53:0.036144577 54:0.048192769 55:0 56:0.048192769 57:0.048192769 58:-36.200001 #
-0.00041471625999604620890423567480809 1:0.036144577 2:0.012048192 3:0 4:0.048192769 5:0 6:0.048192769 7:0.072289154 8:0.060240965 9:0.012048192 10:0.084337346 11:0.048192769 12:0.14457831 13:0.036144577 14:0.048192769 15:0.16867469 16:0.16867469 17:3 18:0.37349397 19:-1.4290322 20:0.37349397 21:0.16129032 22:1 23:3 24:21 25:1 26:0.024096385 27:0 28:0 29:0.036144577 30:0.012048192 31:0 32:0.012048192 33:0 34:0.060240965 35:0.024096385 36:0.036144577 37:0.036144577 38:0 39:0 40:0.012048192 41:0.012048192 42:0.13253012 43:0.048192769 44:0.036144577 45:0.048192769 46:0.012048192 47:0.012048192 48:0 49:0 50:0.12048193 51:0.12048193 52:0.10843374 53:0.060240965 54:0 55:0.012048192 56:0 57:0 58:-44.299999 #
-0.00041471625999604620890423567480809 1:0.071428575 2:0.023809524 3:0.023809524 4:0.095238097 5:0 6:0.035714287 7:0.047619049 8:0.083333336 9:0.083333336 10:0.083333336 11:0.071428575 12:0.047619049 13:0.071428575 14:0.023809524 15:0.13095239 16:0.095238097 17:6 18:0.32142857 19:-1.2222222 20:0.32142857 21:0.11111111 22:1 23:8 24:30 25:5 26:0.035714287 27:0.023809524 28:0.035714287 29:0.011904762 30:0.035714287 31:0 32:0.023809524 33:0.047619049 34:0.047619049 35:0.011904762 36:0.011904762 37:0.035714287 38:0.011904762 39:0 40:0.011904762 41:0.035714287 42:0.14285715 43:0.011904762 44:0 45:0.05952381 46:0.011904762 47:0 48:0.023809524 49:0.023809524 50:0.14285715 51:0.071428575 52:0 53:0.023809524 54:0.023809524 55:0.011904762 56:0.023809524 57:0.023809524 58:-33 #
0.00041471625999604620890423567480809 1:0.10416666 2:0.10416666 3:0.052083332 4:0.010416667 5:0.072916664 6:0.19791667 7:0.11458334 8:0.041666668 9:0.072916664 10:0.09375 11:0.052083332 12:0.010416667 13:0.03125 14:0.03125 15:0 16:0 17:3 18:0.19791667 19:-0.3736842 20:0.19791667 21:0.10526316 22:1 23:25 24:58 25:0 26:0.083333336 27:0.020833334 28:0 29:0.041666668 30:0.010416667 31:0 32:0.03125 33:0.083333336 34:0.10416666 35:0.03125 36:0.010416667 37:0.020833334 38:0.020833334 39:0 40:0.010416667 41:0.22916667 42:0.03125 43:0 44:0 45:0 46:0.020833334 47:0 48:0.020833334 49:0.14583333 50:0.03125 51:0.010416667 52:0 53:0.010416667 54:0 55:0 56:0 57:0.010416667 58:-7.0999999 #
-0.00041471625999604620890423567480809 1:0.023809524 2:0.095238097 3:0.047619049 4:0.095238097 5:0.047619049 6:0.071428575 7:0.035714287 8:0.095238097 9:0.13095239 10:0.023809524 11:0.035714287 12:0.011904762 13:0.047619049 14:0.071428575 15:0.083333336 16:0.071428575 17:3 18:0.27380952 19:-0.95652175 20:0.27380952 21:0.2173913 22:1 23:9 24:38 25:3 26:0.083333336 27:0 28:0.011904762 29:0.011904762 30:0.023809524 31:0 32:0.05952381 33:0.05952381 34:0.083333336 35:0.035714287 36:0 37:0.011904762 38:0.011904762 39:0 40:0 41:0.10714286 42:0.071428575 43:0.011904762 44:0.023809524 45:0.05952381 46:0 47:0 48:0.011904762 49:0.023809524 50:0.071428575 51:0.071428575 52:0.011904762 53:0.035714287 54:0.035714287 55:0 56:0 57:0.047619049 58:-22 #
0.00041471625999604620890423567480809 1:0.0084033618 2:0.0084033618 3:0.016806724 4:0.050420169 5:0.0084033618 6:0.016806724 7:0.067226894 8:0.067226894 9:0.016806724 10:0.067226894 11:0.1092437 12:0.15966387 13:0.050420169 14:0.067226894 15:0.15966387 16:0.11764706 17:4 18:0.0084033618 19:-73.699997 20:0.0042016809 21:4 22:1 23:8 24:33 25:8 26:0.033613447 27:0.0084033618 28:0 29:0 30:0.0084033618 31:0 32:0.016806724 33:0.0084033618 34:0.067226894 35:0 36:0.016806724 37:0.0084033618 38:0.025210084 39:0 40:0.025210084 41:0.016806724 42:0.19327731 43:0.050420169 44:0.0084033618 45:0.042016808 46:0.016806724 47:0 48:0.0084033618 49:0.033613447 50:0.21008404 51:0.050420169 52:0.016806724 53:0.05882353 54:0.016806724 55:0 56:0.0084033618 57:0.033613447 58:-73.699997 #
0.00041471625999604620890423567480809 1:0.10714286 2:0.089285716 3:0.035714287 4:0.035714287 5:0.053571429 6:0.30357143 7:0.017857144 8:0.089285716 9:0.035714287 10:0.035714287 11:0.035714287 12:0 13:0.089285716 14:0.017857144 15:0.017857144 16:0.017857144 17:4 18:0.2857143 19:-0.24375001 20:0.2857143 21:0.25 22:1 23:7 24:24 25:5 26:0.125 27:0.053571429 28:0 29:0.035714287 30:0 31:0 32:0 33:0.053571429 34:0.16071428 35:0.035714287 36:0.017857144 37:0.071428575 38:0.035714287 39:0 40:0.035714287 41:0.089285716 42:0.017857144 43:0 44:0 45:0 46:0.017857144 47:0 48:0.017857144 49:0.053571429 50:0.053571429 51:0.017857144 52:0.035714287 53:0 54:0 55:0 56:0 57:0.035714287 58:-3.9000001 #
-0.00041471625999604620890423567480809 1:0.036144577 2:0.036144577 3:0.012048192 4:0.096385539 5:0.024096385 6:0.060240965 7:0.084337346 8:0.096385539 9:0.060240965 10:0.10843374 11:0.12048193 12:0.012048192 13:0.048192769 14:0.060240965 15:0.084337346 16:0.048192769 17:12 18:0.26506025 19:-1 20:0.26506025 21:0.22727273 22:1 23:9 24:39 25:2 26:0.036144577 27:0.012048192 28:0.012048192 29:0.036144577 30:0.024096385 31:0 32:0.036144577 33:0.012048192 34:0.036144577 35:0.036144577 36:0.012048192 37:0.024096385 38:0.036144577 39:0.012048192 40:0.024096385 41:0.084337346 42:0.096385539 43:0.024096385 44:0 45:0.036144577 46:0.012048192 47:0 48:0.024096385 49:0.10843374 50:0.084337346 51:0.060240965 52:0.036144577 53:0.036144577 54:0 55:0 56:0 57:0.024096385 58:-22 #
-0.00041471625999604620890423567480809 1:0.035714287 2:0.083333336 3:0.047619049 4:0.083333336 5:0.011904762 6:0.011904762 7:0.035714287 8:0.083333336 9:0.10714286 10:0.047619049 11:0.14285715 12:0.023809524 13:0.095238097 14:0.011904762 15:0.095238097 16:0.071428575 17:13 18:0.011904762 19:-30.299999 20:0.0059523811 21:3 22:1 23:2 24:30 25:10 26:0.083333336 27:0.011904762 28:0.035714287 29:0.023809524 30:0.023809524 31:0 32:0 33:0.071428575 34:0.071428575 35:0.035714287 36:0 37:0.011904762 38:0 39:0 40:0.011904762 41:0.011904762 42:0.14285715 43:0.011904762 44:0 45:0.035714287 46:0.011904762 47:0 48:0.023809524 49:0.095238097 50:0.15476191 51:0.035714287 52:0.011904762 53:0.011904762 54:0.011904762 55:0 56:0 57:0.035714287 58:-30.299999 #
-0.00041471625999604620890423567480809 1:0.012048192 2:0.012048192 3:0.048192769 4:0.12048193 5:0 6:0 7:0.024096385 8:0.084337346 9:0.072289154 10:0.060240965 11:0.060240965 12:0.084337346 13:0.10843374 14:0.036144577 15:0.14457831 16:0.12048193 17:13 18:0.012048192 19:-34.900002 20:0.0040160641 21:1 22:0 23:6 24:33 25:2 26:0.036144577 27:0.012048192 28:0.024096385 29:0 30:0.024096385 31:0 32:0.024096385 33:0.072289154 34:0.048192769 35:0 36:0 37:0.024096385 38:0.012048192 39:0 40:0 41:0.024096385 42:0.10843374 43:0.048192769 44:0 45:0.072289154 46:0 47:0 48:0 49:0.048192769 50:0.14457831 51:0.060240965 52:0.048192769 53:0.036144577 54:0.012048192 55:0 56:0.036144577 57:0.060240965 58:-34.900002 #
0.00041471625999604620890423567480809 1:0.18367347 2:0.18367347 3:0.020408163 4:0.020408163 5:0.18367347 6:0.14285715 7:0.06122449 8:0.040816326 9:0.040816326 10:0.06122449 11:0 12:0 13:0 14:0.040816326 15:0 16:0 17:12 18:0.32653061 19:-0.49375001 20:0.32653061 21:0.125 22:1 23:5 24:17 25:1 26:0.20408164 27:0.020408163 28:0 29:0.040816326 30:0.040816326 31:0 32:0.040816326 33:0.06122449 34:0.22448979 35:0.040816326 36:0 37:0.020408163 38:0 39:0 40:0.020408163 41:0.12244898 42:0.020408163 43:0 44:0 45:0 46:0.020408163 47:0 48:0 49:0.040816326 50:0.040816326 51:0 52:0 53:0 54:0 55:0 56:0 57:0 58:-7.9000001 #
-0.00041471625999604620890423567480809 1:0.011904762 2:0 3:0.011904762 4:0.071428575 5:0.011904762 6:0.023809524 7:0.047619049 8:0.047619049 9:0.023809524 10:0.095238097 11:0.19047619 12:0.071428575 13:0.05952381 14:0.011904762 15:0.13095239 16:0.17857143 17:11 18:0.011904762 19:-52 20:0.0059523811 21:4 22:1 23:2 24:26 25:2 26:0.035714287 27:0 28:0.023809524 29:0 30:0 31:0 32:0.011904762 33:0.023809524 34:0.047619049 35:0 36:0.011904762 37:0.011904762 38:0 39:0 40:0 41:0.05952381 42:0.16666667 43:0.071428575 44:0 45:0.047619049 46:0.023809524 47:0 48:0.011904762 49:0.05952381 50:0.21428572 51:0.023809524 52:0.035714287 53:0.047619049 54:0.011904762 55:0.011904762 56:0.011904762 57:0.011904762 58:-52 #
-0.00041471625999604620890423567480809 1:0.10843374 2:0.14457831 3:0.012048192 4:0.036144577 5:0.10843374 6:0.19277108 7:0.048192769 8:0.096385539 9:0.012048192 10:0.048192769 11:0 12:0.012048192 13:0.072289154 14:0.060240965 15:0.012048192 16:0.024096385 17:3 18:0.38554215 19:-0.55624998 20:0.38554215 21:0.21875 22:1 23:10 24:19 25:8 26:0.15662651 27:0.024096385 28:0 29:0.024096385 30:0.036144577 31:0 32:0.024096385 33:0.024096385 34:0.26506025 35:0.036144577 36:0.024096385 37:0.036144577 38:0.012048192 39:0 40:0.024096385 41:0.048192769 42:0.036144577 43:0.012048192 44:0 45:0 46:0.012048192 47:0 48:0 49:0.012048192 50:0.14457831 51:0.012048192 52:0 53:0.012048192 54:0 55:0 56:0 57:0 58:-17.799999 #
-0.00041471625999604620890423567480809 1:0.024096385 2:0 3:0.084337346 4:0.10843374 5:0.036144577 6:0.012048192 7:0.060240965 8:0.048192769 9:0.060240965 10:0.10843374 11:0.072289154 12:0.024096385 13:0.096385539 14:0.048192769 15:0.036144577 16:0.16867469 17:6 18:0.012048192 19:-34.700001 20:0.0060240962 21:4 22:1 23:5 24:25 25:1 26:0.060240965 27:0.012048192 28:0.036144577 29:0 30:0.024096385 31:0 32:0.024096385 33:0.060240965 34:0.084337346 35:0.012048192 36:0.012048192 37:0.036144577 38:0 39:0 40:0 41:0.012048192 42:0.13253012 43:0.036144577 44:0.012048192 45:0.012048192 46:0.012048192 47:0.012048192 48:0.012048192 49:0.024096385 50:0.18072289 51:0.036144577 52:0.012048192 53:0.048192769 54:0.012048192 55:0.012048192 56:0.012048192 57:0.036144577 58:-34.700001 #
0.00041471625999604620890423567480809 1:0.01980198 2:0.0099009899 3:0.03960396 4:0.03960396 5:0.01980198 6:0.01980198 7:0.049504951 8:0 9:0.0099009899 10:0.03960396 11:0.12871288 12:0.20792079 13:0.049504951 14:0.029702971 15:0.16831683 16:0.15841584 17:8 18:0.0099009899 19:-69.099998 20:0.004950495 21:1 22:1 23:4 24:33 25:0 26:0.01980198 27:0 28:0.029702971 29:0.0099009899 30:0 31:0 32:0.0099009899 33:0.029702971 34:0.01980198 35:0.0099009899 36:0 37:0.0099009899 38:0.0099009899 39:0 40:0.0099009899 41:0.029702971 42:0.1980198 43:0.059405942 44:0 45:0.03960396 46:0.01980198 47:0 48:0.01980198 49:0.049504951 50:0.1980198 51:0.049504951 52:0.01980198 53:0.059405942 54:0.03960396 55:0 56:0.029702971 57:0.0099009899 58:-69.099998 #
-0.00041471625999604620890423567480809 1:0 2:0 3:0 4:0.072289154 5:0 6:0 7:0.036144577 8:0.048192769 9:0.060240965 10:0.060240965 11:0.14457831 12:0.15662651 13:0.012048192 14:0.024096385 15:0.25301206 16:0.12048193 17:4 18:0.012048192 19:-52.700001 20:0.0060240962 21:1 22:1 23:4 24:21 25:3 26:0.024096385 27:0.012048192 28:0.012048192 29:0 30:0.012048192 31:0 32:0.012048192 33:0 34:0.060240965 35:0 36:0 37:0.012048192 38:0.012048192 39:0 40:0 41:0 42:0.18072289 43:0.060240965 44:0.048192769 45:0.048192769 46:0.012048192 47:0.012048192 48:0.024096385 49:0.036144577 50:0.20481928 51:0.060240965 52:0.024096385 53:0.072289154 54:0.012048192 55:0 56:0.012048192 57:0.012048192 58:-52.700001 #
0.00041471625999604620890423567480809 1:0.060975611 2:0.13414635 3:0.036585364 4:0.036585364 5:0.1097561 6:0.14634146 7:0.073170729 8:0.085365854 9:0.073170729 10:0.060975611 11:0.036585364 12:0 13:0.036585364 14:0.060975611 15:0.024390243 16:0.012195121 17:9 18:0.17073171 19:-0.4642857 20:0.17073171 21:0.14285715 22:1 23:14 24:54 25:6 26:0.060975611 27:0.012195121 28:0 29:0.012195121 30:0.012195121 31:0 32:0 33:0.17073171 34:0.073170729 35:0.024390243 36:0.012195121 37:0.012195121 38:0.024390243 39:0 40:0.024390243 41:0.23170732 42:0.024390243 43:0.036585364 44:0.012195121 45:0 46:0.012195121 47:0 48:0.024390243 49:0.060975611 50:0.036585364 51:0 52:0 53:0.048780486 54:0 55:0 56:0 57:0.048780486 58:-6.5 #
-0.00041471625999604620890423567480809 1:0 2:0 3:0.047619049 4:0.071428575 5:0 6:0 7:0.047619049 8:0.047619049 9:0.047619049 10:0.095238097 11:0.17857143 12:0.071428575 13:0.071428575 14:0.011904762 15:0.11904762 16:0.17857143 17:6 18:0.011904762 19:-51.200001 20:0.0059523811 21:1 22:1 23:3 24:28 25:1 26:0.047619049 27:0 28:0.023809524 29:0 30:0.011904762 31:0 32:0.011904762 33:0.023809524 34:0.047619049 35:0.011904762 36:0 37:0 38:0.011904762 39:0 40:0.011904762 41:0.011904762 42:0.14285715 43:0.047619049 44:0.023809524 45:0.083333336 46:0.011904762 47:0 48:0.023809524 49:0.05952381 50:0.14285715 51:0.071428575 52:0.035714287 53:0.05952381 54:0.011904762 55:0 56:0.011904762 57:0.035714287 58:-51.200001 #
0.00041471625999604620890423567480809 1:0.13636364 2:0.07272727 3:0.054545455 4:0.054545455 5:0.090909094 6:0.090909094 7:0.081818178 8:0.054545455 9:0.045454547 10:0.090909094 11:0.018181818 12:0.036363635 13:0.036363635 14:0.07272727 15:0.036363635 16:0.018181818 17:6 18:0.27272728 19:-0.64333332 20:0.27272728 21:0.13333334 22:1 23:22 24:50 25:22 26:0.090909094 27:0.036363635 28:0.018181818 29:0.0090909088 30:0.027272727 31:0 32:0.018181818 33:0.10909091 34:0.11818182 35:0.018181818 36:0.018181818 37:0.036363635 38:0.036363635 39:0 40:0.027272727 41:0.063636363 42:0.027272727 43:0.018181818 44:0.0090909088 45:0.045454547 46:0.0090909088 47:0.0090909088 48:0.018181818 49:0.054545455 50:0.081818178 51:0.027272727 52:0 53:0.0090909088 54:0 55:0.018181818 56:0.018181818 57:0.0090909088 58:-19.299999 #
-0.00041471625999604620890423567480809 1:0.048192769 2:0.024096385 3:0.048192769 4:0.096385539 5:0.048192769 6:0.048192769 7:0.012048192 8:0.10843374 9:0.048192769 10:0.036144577 11:0.096385539 12:0.012048192 13:0.060240965 14:0.10843374 15:0.048192769 16:0.14457831 17:7 18:0.26506025 19:-0.91818184 20:0.26506025 21:0.18181819 22:1 23:8 24:39 25:0 26:0.036144577 27:0.012048192 28:0 29:0.024096385 30:0.036144577 31:0 32:0.036144577 33:0.060240965 34:0.084337346 35:0.036144577 36:0 37:0.024096385 38:0.012048192 39:0 40:0.012048192 41:0.048192769 42:0.072289154 43:0.012048192 44:0.012048192 45:0.036144577 46:0 47:0 48:0.012048192 49:0.048192769 50:0.12048193 51:0.048192769 52:0.012048192 53:0.024096385 54:0.036144577 55:0 56:0.024096385 57:0.096385539 58:-20.200001 #
0.00041471625999604620890423567480809 1:0.10909091 2:0.036363635 3:0.090909094 4:0.036363635 5:0.07272727 6:0.10909091 7:0.036363635 8:0.081818178 9:0.081818178 10:0.081818178 11:0.054545455 12:0.0090909088 13:0.0090909088 14:0.07272727 15:0.045454547 16:0.063636363 17:6 18:0.0090909088 19:-62.400002 20:0.0045454544 21:3 22:1 23:2 24:22 25:0 26:0.19090909 27:0.0090909088 28:0 29:0.018181818 30:0.0090909088 31:0 32:0.018181818 33:0.027272727 34:0.22727273 35:0.018181818 36:0.0090909088 37:0.0090909088 38:0 39:0 40:0 41:0.036363635 42:0.11818182 43:0.0090909088 44:0.0090909088 45:0.018181818 46:0.018181818 47:0 48:0.0090909088 49:0.045454547 50:0.15454546 51:0.018181818 52:0 53:0 54:0.0090909088 55:0 56:0 57:0 58:-62.400002 #
0.00041471625999604620890423567480809 1:0.22857143 2:0.071428575 3:0.1 4:0.042857144 5:0.028571429 6:0.014285714 7:0 8:0.085714288 9:0.085714288 10:0.042857144 11:0.1 12:0 13:0.085714288 14:0.014285714 15:0.028571429 16:0.057142857 17:5 18:0.17142858 19:-0.69999999 20:0.17142858 21:0.083333336 22:1 23:23 24:46 25:2 26:0.014285714 27:0.014285714 28:0.014285714 29:0.028571429 30:0.057142857 31:0 32:0.042857144 33:0.25714287 34:0.014285714 35:0.028571429 36:0 37:0.028571429 38:0.014285714 39:0 40:0 41:0.042857144 42:0.042857144 43:0.042857144 44:0 45:0.014285714 46:0.014285714 47:0 48:0.014285714 49:0.1 50:0.042857144 51:0.028571429 52:0.014285714 53:0.042857144 54:0 55:0 56:0.028571429 57:0.028571429 58:-8.3999996 #
-0.00041471625999604620890423567480809 1:0.012048192 2:0.048192769 3:0.060240965 4:0.072289154 5:0.048192769 6:0.072289154 7:0.072289154 8:0.10843374 9:0.060240965 10:0.096385539 11:0.012048192 12:0.024096385 13:0.072289154 14:0.084337346 15:0.060240965 16:0.084337346 17:5 18:0.31325302 19:-0.75769234 20:0.31325302 21:0.30769232 22:1 23:9 24:31 25:7 26:0.060240965 27:0.036144577 28:0.024096385 29:0.024096385 30:0.012048192 31:0 32:0.012048192 33:0.024096385 34:0.084337346 35:0.012048192 36:0.036144577 37:0.072289154 38:0.024096385 39:0 40:0.024096385 41:0.048192769 42:0.096385539 43:0.048192769 44:0.024096385 45:0 46:0.012048192 47:0 48:0 49:0.012048192 50:0.084337346 51:0.048192769 52:0 53:0.048192769 54:0.024096385 55:0.012048192 56:0.036144577 57:0.036144577 58:-19.700001 #
0.00041471625999604620890423567480809 1:0.098360658 2:0.081967212 3:0.032786883 4:0.065573767 5:0.098360658 6:0.14754099 7:0.065573767 8:0.098360658 9:0.032786883 10:0.065573767 11:0 12:0.016393442 13:0.049180329 14:0.098360658 15:0.032786883 16:0 17:11 18:0.32786885 19:-0.95499998 20:0.32786885 21:0.15000001 22:1 23:4 24:21 25:0 26:0.13114753 27:0.032786883 28:0 29:0.049180329 30:0.032786883 31:0 32:0.016393442 33:0.016393442 34:0.14754099 35:0.032786883 36:0.049180329 37:0.032786883 38:0.016393442 39:0 40:0.016393442 41:0.098360658 42:0.049180329 43:0.016393442 44:0.016393442 45:0.032786883 46:0 47:0 48:0 49:0 50:0.065573767 51:0.032786883 52:0 53:0.016393442 54:0 55:0 56:0.032786883 57:0.032786883 58:-19.1 #
0.00041471625999604620890423567480809 1:0.11111111 2:0.0092592593 3:0.055555556 4:0.083333336 5:0.0092592593 6:0.0092592593 7:0.14814815 8:0 9:0.12037037 10:0.074074075 11:0.24074075 12:0.0092592593 13:0.018518519 14:0.074074075 15:0 16:0.027777778 17:9 18:0.0092592593 19:-9.8999996 20:0.0030864198 21:0 22:0 23:3 24:78 25:1 26:0.018518519 27:0.027777778 28:0 29:0.0092592593 30:0.046296295 31:0 32:0.0092592593 33:0.14814815 34:0.027777778 35:0 36:0.027777778 37:0.027777778 38:0 39:0 40:0 41:0.083333336 42:0.037037037 43:0.018518519 44:0 45:0.018518519 46:0.0092592593 47:0.0092592593 48:0.046296295 49:0.2962963 50:0.046296295 51:0.018518519 52:0 53:0.0092592593 54:0 55:0.0092592593 56:0 57:0.037037037 58:-9.8999996 #
-0.00041471625999604620890423567480809 1:0.023809524 2:0.047619049 3:0.05952381 4:0.047619049 5:0.011904762 6:0.083333336 7:0.10714286 8:0.05952381 9:0.071428575 10:0.05952381 11:0.071428575 12:0.047619049 13:0.083333336 14:0.071428575 15:0.011904762 16:0.13095239 17:4 18:0.27380952 19:-1.0086956 20:0.27380952 21:0.13043478 22:1 23:12 24:38 25:5 26:0.023809524 27:0 28:0.011904762 29:0.071428575 30:0.023809524 31:0 32:0.023809524 33:0.023809524 34:0.05952381 35:0.071428575 36:0.011904762 37:0 38:0.023809524 39:0 40:0 41:0.095238097 42:0.10714286 43:0.011904762 44:0.011904762 45:0.011904762 46:0 47:0.011904762 48:0.011904762 49:0.083333336 50:0.16666667 51:0 52:0 53:0 54:0.023809524 55:0.011904762 56:0.035714287 57:0.047619049 58:-23.200001 #
0.00041471625999604620890423567480809 1:0 2:0.031914894 3:0.010638298 4:0.063829787 5:0 6:0.031914894 7:0.010638298 8:0.12765957 9:0.08510638 10:0.031914894 11:0.11702128 12:0.08510638 13:0.021276595 14:0.074468084 15:0.19148937 16:0.10638298 17:3 18:0.010638298 19:-58.400002 20:0.0053191488 21:6 22:1 23:4 24:18 25:5 26:0.05319149 27:0 28:0.021276595 29:0.021276595 30:0 31:0 32:0 33:0.010638298 34:0.095744684 35:0.010638298 36:0 37:0.021276595 38:0.031914894 39:0 40:0.010638298 41:0 42:0.17021276 43:0.05319149 44:0.021276595 45:0.04255319 46:0 47:0 48:0.021276595 49:0.010638298 50:0.21276596 51:0.063829787 52:0.04255319 53:0.04255319 54:0.010638298 55:0 56:0.010638298 57:0 58:-58.400002 #
-0.00041471625999604620890423567480809 1:0.011904762 2:0.023809524 3:0 4:0.035714287 5:0 6:0 7:0.047619049 8:0.047619049 9:0.023809524 10:0.047619049 11:0.15476191 12:0.15476191 13:0.035714287 14:0.011904762 15:0.19047619 16:0.20238096 17:6 18:0.011904762 19:-50.599998 20:0.0059523811 21:3 22:1 23:5 24:26 25:2 26:0 27:0.011904762 28:0.011904762 29:0 30:0.035714287 31:0 32:0.011904762 33:0 34:0.011904762 35:0.011904762 36:0 37:0.023809524 38:0.011904762 39:0 40:0.011904762 41:0.011904762 42:0.17857143 43:0.023809524 44:0.035714287 45:0.095238097 46:0 47:0 48:0.023809524 49:0.023809524 50:0.21428572 51:0.095238097 52:0.011904762 53:0.023809524 54:0.023809524 55:0 56:0.023809524 57:0.047619049 58:-50.599998 #
-0.00041471625999604620890423567480809 1:0.012048192 2:0.024096385 3:0.024096385 4:0.072289154 5:0.036144577 6:0.12048193 7:0.024096385 8:0.10843374 9:0.048192769 10:0.12048193 11:0.096385539 12:0.012048192 13:0.036144577 14:0.024096385 15:0.13253012 16:0.096385539 17:3 18:0.30120483 19:-0.95999998 20:0.30120483 21:0.23999999 22:1 23:9 24:33 25:9 26:0.060240965 27:0.012048192 28:0 29:0.012048192 30:0.012048192 31:0 32:0 33:0.036144577 34:0.096385539 35:0 36:0.012048192 37:0.048192769 38:0.036144577 39:0 40:0.024096385 41:0.072289154 42:0.10843374 43:0.036144577 44:0.024096385 45:0 46:0 47:0 48:0.036144577 49:0.060240965 50:0.12048193 51:0.048192769 52:0.012048192 53:0.048192769 54:0 55:0 56:0 57:0.060240965 58:-24 #
0.00041471625999604620890423567480809 1:0.0625 2:0.10416666 3:0.020833334 4:0.052083332 5:0.052083332 6:0.09375 7:0.09375 8:0.09375 9:0.052083332 10:0.083333336 11:0.041666668 12:0.03125 13:0.072916664 14:0.052083332 15:0.052083332 16:0.03125 17:12 18:0.30208334 19:-0.96896553 20:0.30208334 21:0.24137931 22:1 23:5 24:38 25:4 26:0.09375 27:0 28:0.010416667 29:0.03125 30:0 31:0 32:0 33:0.09375 34:0.11458334 35:0.03125 36:0.041666668 37:0.020833334 38:0.041666668 39:0 40:0.03125 41:0.052083332 42:0.052083332 43:0.03125 44:0.020833334 45:0.041666668 46:0.010416667 47:0.010416667 48:0.020833334 49:0.020833334 50:0.11458334 51:0.041666668 52:0 53:0.010416667 54:0 55:0.010416667 56:0 57:0.03125 58:-28.1 #
-0.00041471625999604620890423567480809 1:0.011904762 2:0 3:0.011904762 4:0.05952381 5:0.023809524 6:0.011904762 7:0.035714287 8:0 9:0.023809524 10:0.047619049 11:0.11904762 12:0.15476191 13:0.023809524 14:0.011904762 15:0.17857143 16:0.27380952 17:4 18:0.32142857 19:-1.8777778 20:0.32142857 21:0.14814815 22:1 23:8 24:30 25:1 26:0 27:0.011904762 28:0.023809524 29:0.011904762 30:0.023809524 31:0 32:0.011904762 33:0 34:0.011904762 35:0.011904762 36:0 37:0.023809524 38:0 39:0 40:0 41:0.023809524 42:0.16666667 43:0.011904762 44:0.011904762 45:0.095238097 46:0.011904762 47:0 48:0.035714287 49:0.011904762 50:0.13095239 51:0.13095239 52:0.047619049 53:0.035714287 54:0.035714287 55:0 56:0.035714287 57:0.05952381 58:-50.700001 #
0.00041471625999604620890423567480809 1:0.14666666 2:0.06666667 3:0.06666667 4:0.046666667 5:0.07333333 6:0.11333334 7:0.06666667 8:0.046666667 9:0.06666667 10:0.046666667 11:0.059999999 12:0.033333335 13:0.046666667 14:0.06666667 15:0.013333334 16:0.033333335 17:7 18:0.0066666668 19:-31.700001 20:0.0022222223 21:4 22:0 23:21 24:64 25:50 26:0.093333334 27:0.033333335 28:0 29:0.02 30:0.046666667 31:0 32:0.053333335 33:0.079999998 34:0.12 35:0.02 36:0 37:0.033333335 38:0.013333334 39:0 40:0.013333334 41:0.093333334 42:0.059999999 43:0.013333334 44:0.02 45:0.033333335 46:0.013333334 47:0 48:0.013333334 49:0.053333335 50:0.086666666 51:0.033333335 52:0 53:0.02 54:0.0066666668 55:0 56:0.0066666668 57:0.0066666668 58:-31.700001 #
-0.00041471625999604620890423567480809 1:0.048192769 2:0.060240965 3:0.036144577 4:0.14457831 5:0.048192769 6:0.012048192 7:0.036144577 8:0.072289154 9:0.096385539 10:0.036144577 11:0.036144577 12:0.036144577 13:0.096385539 14:0.048192769 15:0.096385539 16:0.084337346 17:3 18:0.27710843 19:-0.98260868 20:0.27710843 21:0.043478262 22:1 23:6 24:37 25:4 26:0.036144577 27:0.024096385 28:0.060240965 29:0.036144577 30:0.048192769 31:0 32:0 33:0.084337346 34:0.060240965 35:0.048192769 36:0 37:0.012048192 38:0 39:0 40:0 41:0.036144577 42:0.060240965 43:0.036144577 44:0 45:0.048192769 46:0 47:0.012048192 48:0.012048192 49:0.036144577 50:0.072289154 51:0.036144577 52:0.036144577 53:0.048192769 54:0.024096385 55:0.024096385 56:0.072289154 57:0.012048192 58:-22.6 #
0.00041471625999604620890423567480809 1:0.037037037 2:0.11111111 3:0.055555556 4:0.018518519 5:0.055555556 6:0.037037037 7:0.018518519 8:0.24074075 9:0.11111111 10:0 11:0.037037037 12:0 13:0.018518519 14:0.18518518 15:0.037037037 16:0.018518519 17:6 18:0.4074074 19:-0.77272725 20:0.4074074 21:0.090909094 22:1 23:2 24:10 25:0 26:0.11111111 27:0.018518519 28:0 29:0.037037037 30:0 31:0 32:0 33:0.055555556 34:0.2037037 35:0.037037037 36:0.037037037 37:0.018518519 38:0 39:0 40:0.018518519 41:0.018518519 42:0.11111111 43:0.018518519 44:0.018518519 45:0 46:0 47:0 48:0 49:0 50:0.16666667 51:0.018518519 52:0.018518519 53:0.037037037 54:0.018518519 55:0 56:0 57:0 58:-17 #
-0.00041471625999604620890423567480809 1:0.10843374 2:0.096385539 3:0.036144577 4:0.084337346 5:0.060240965 6:0.060240965 7:0.096385539 8:0.060240965 9:0.072289154 10:0.084337346 11:0.012048192 12:0 13:0.084337346 14:0.036144577 15:0.036144577 16:0.060240965 17:23 18:0.22891566 19:-0.80526316 20:0.22891566 21:0.21052632 22:1 23:9 24:45 25:12 26:0.072289154 27:0 28:0 29:0.012048192 30:0.024096385 31:0 32:0 33:0.21686748 34:0.084337346 35:0.024096385 36:0 37:0.024096385 38:0.024096385 39:0 40:0.024096385 41:0.096385539 42:0.084337346 43:0 44:0 45:0 46:0 47:0 48:0.012048192 49:0.072289154 50:0.12048193 51:0.024096385 52:0 53:0 54:0 55:0 56:0 57:0.060240965 58:-15.3 #
0.00041471625999604620890423567480809 1:0 2:0.017094018 3:0.017094018 4:0.085470088 5:0 6:0.017094018 7:0.085470088 8:0.13675214 9:0.085470088 10:0.15384616 11:0.068376072 12:0.008547009 13:0.034188036 14:0.05982906 15:0.13675214 16:0.085470088 17:4 18:0.008547009 19:-69.400002 20:0.0042735045 21:9 22:1 23:9 24:31 25:5 26:0.068376072 27:0.008547009 28:0.008547009 29:0.017094018 30:0.008547009 31:0 32:0 33:0.008547009 34:0.094017096 35:0.017094018 36:0.034188036 37:0.008547009 38:0.034188036 39:0 40:0.025641026 41:0.025641026 42:0.13675214 43:0.042735044 44:0 45:0.05982906 46:0.017094018 47:0 48:0.034188036 49:0.017094018 50:0.17948718 51:0.051282052 52:0.017094018 53:0.042735044 54:0 55:0 56:0 57:0.025641026 58:-69.400002 #
-0.00041471625999604620890423567480809 1:0 2:0 3:0.012048192 4:0.072289154 5:0 6:0.012048192 7:0.036144577 8:0.012048192 9:0.012048192 10:0.036144577 11:0.19277108 12:0.15662651 13:0.072289154 14:0.012048192 15:0.15662651 16:0.20481928 17:4 18:0.012048192 19:-49.599998 20:0.0060240962 21:3 22:1 23:4 24:27 25:16 26:0.024096385 27:0 28:0.024096385 29:0 30:0.012048192 31:0 32:0.024096385 33:0 34:0.024096385 35:0 36:0 37:0.012048192 38:0.012048192 39:0 40:0 41:0.012048192 42:0.18072289 43:0.048192769 44:0.024096385 45:0.072289154 46:0.024096385 47:0 48:0.024096385 49:0.024096385 50:0.15662651 51:0.096385539 52:0.012048192 53:0.060240965 54:0.036144577 55:0 56:0.036144577 57:0.036144577 58:-49.599998 #
0.00041471625999604620890423567480809 1:0.049382716 2:0.074074075 3:0.061728396 4:0.049382716 5:0.086419754 6:0.049382716 7:0.11111111 8:0.061728396 9:0.086419754 10:0.098765433 11:0.14814815 12:0 13:0 14:0.098765433 15:0.012345679 16:0 17:10 18:0.086419754 19:-0.72857141 20:0.086419754 21:0.2857143 22:1 23:4 24:67 25:0 26:0.024691358 27:0 28:0 29:0.012345679 30:0 31:0 32:0.012345679 33:0.17283951 34:0.024691358 35:0.012345679 36:0 37:0.012345679 38:0.024691358 39:0 40:0.024691358 41:0.20987654 42:0.012345679 43:0.012345679 44:0 45:0.012345679 46:0 47:0 48:0 49:0.2962963 50:0.012345679 51:0.012345679 52:0 53:0.012345679 54:0.012345679 55:0 56:0.012345679 57:0.049382716 58:-5.0999999 #
-0.00041471625999604620890423567480809 1:0.047619049 2:0.047619049 3:0.083333336 4:0.05952381 5:0.035714287 6:0.071428575 7:0.083333336 8:0.11904762 9:0.023809524 10:0.14285715 11:0.047619049 12:0.011904762 13:0.13095239 14:0.047619049 15:0.011904762 16:0.023809524 17:4 18:0.32142857 19:-0.69259262 20:0.32142857 21:0.14814815 22:1 23:7 24:30 25:9 26:0.11904762 27:0.011904762 28:0 29:0.023809524 30:0.023809524 31:0 32:0.035714287 33:0.023809524 34:0.14285715 35:0.05952381 36:0.011904762 37:0 38:0.035714287 39:0 40:0.023809524 41:0.035714287 42:0.071428575 43:0.011904762 44:0.023809524 45:0.023809524 46:0.023809524 47:0 48:0.011904762 49:0.047619049 50:0.071428575 51:0.023809524 52:0 53:0.05952381 54:0 55:0.011904762 56:0.023809524 57:0.023809524 58:-18.700001 #
0.00041471625999604620890423567480809 1:0.031578947 2:0.031578947 3:0.042105265 4:0.042105265 5:0.073684208 6:0.08421053 7:0.052631579 8:0.10526316 9:0.010526316 10:0.10526316 11:0.063157894 12:0.042105265 13:0.021052632 14:0.094736844 15:0.073684208 16:0.11578947 17:3 18:0.010526316 19:-49.099998 20:0.0052631581 21:6 22:1 23:4 24:17 25:37 26:0.11578947 27:0.021052632 28:0 29:0 30:0 31:0 32:0 33:0 34:0.16842106 35:0 36:0.042105265 37:0.042105265 38:0.021052632 39:0 40:0.031578947 41:0.010526316 42:0.15789473 43:0.021052632 44:0 45:0.021052632 46:0 47:0 48:0 49:0.021052632 50:0.16842106 51:0.063157894 52:0.021052632 53:0.042105265 54:0.010526316 55:0 56:0 57:0 58:-49.099998 #
-0.00041471625999604620890423567480809 1:0 2:0.023809524 3:0.011904762 4:0.05952381 5:0.011904762 6:0 7:0.035714287 8:0.071428575 9:0.035714287 10:0.011904762 11:0.071428575 12:0.17857143 13:0.047619049 14:0.083333336 15:0.19047619 16:0.15476191 17:6 18:0.011904762 19:-46.900002 20:0.0059523811 21:2 22:1 23:6 24:26 25:20 26:0.011904762 27:0.011904762 28:0.011904762 29:0 30:0 31:0 32:0.023809524 33:0.035714287 34:0.047619049 35:0 36:0 37:0.011904762 38:0.035714287 39:0 40:0.011904762 41:0.011904762 42:0.17857143 43:0.035714287 44:0 45:0.071428575 46:0 47:0 48:0 49:0.011904762 50:0.22619048 51:0.05952381 52:0.047619049 53:0.023809524 54:0.023809524 55:0.011904762 56:0.023809524 57:0.047619049 58:-46.900002 #
0.00041471625999604620890423567480809 1:0.19512194 2:0.13414635 3:0.073170729 4:0.048780486 5:0.13414635 6:0.13414635 7:0.048780486 8:0.024390243 9:0.060975611 10:0.060975611 11:0 12:0 13:0.048780486 14:0.024390243 15:0 16:0 17:26 18:0.24390244 19:-0.41999999 20:0.24390244 21:0.2 22:1 23:7 24:42 25:0 26:0.085365854 27:0.048780486 28:0.024390243 29:0.036585364 30:0.012195121 31:0 32:0.012195121 33:0.21951219 34:0.085365854 35:0.036585364 36:0.012195121 37:0.073170729 38:0.024390243 39:0 40:0.036585364 41:0.073170729 42:0.036585364 43:0.012195121 44:0.024390243 45:0 46:0 47:0 48:0 49:0.048780486 50:0.060975611 51:0 52:0 53:0 54:0 55:0 56:0 57:0.012195121 58:-8.3999996 #
-0.00041471625999604620890423567480809 1:0.12048193 2:0.060240965 3:0.048192769 4:0.048192769 5:0.048192769 6:0.10843374 7:0.060240965 8:0.096385539 9:0.024096385 10:0.096385539 11:0.012048192 12:0.012048192 13:0.084337346 14:0.060240965 15:0.024096385 16:0.084337346 17:23 18:0.21686748 19:-0.85000002 20:0.21686748 21:0.16666667 22:1 23:4 24:47 25:0 26:0.048192769 27:0.024096385 28:0.012048192 29:0.012048192 30:0.024096385 31:0 32:0.024096385 33:0.13253012 34:0.10843374 35:0.012048192 36:0 37:0.024096385 38:0.012048192 39:0 40:0.012048192 41:0.14457831 42:0.036144577 43:0.036144577 44:0 45:0 46:0 47:0 48:0.012048192 49:0.060240965 50:0.096385539 51:0 52:0.012048192 53:0.036144577 54:0.012048192 55:0 56:0 57:0.084337346 58:-15.3 #
-0.00041471625999604620890423567480809 1:0 2:0 3:0.011904762 4:0.05952381 5:0 6:0.023809524 7:0.023809524 8:0.05952381 9:0.011904762 10:0.05952381 11:0.16666667 12:0.16666667 13:0.047619049 14:0.035714287 15:0.20238096 16:0.11904762 17:7 18:0.32142857 19:-1.8666667 20:0.32142857 21:0.11111111 22:1 23:6 24:30 25:4 26:0.011904762 27:0.011904762 28:0.011904762 29:0 30:0 31:0 32:0 33:0.023809524 34:0.05952381 35:0 36:0 37:0.011904762 38:0.011904762 39:0 40:0 41:0.023809524 42:0.19047619 43:0.023809524 44:0.023809524 45:0.035714287 46:0.011904762 47:0 48:0.023809524 49:0.095238097 50:0.21428572 51:0.035714287 52:0.023809524 53:0.023809524 54:0.011904762 55:0.023809524 56:0.011904762 57:0.05952381 58:-50.400002 #
0.00041471625999604620890423567480809 1:0.06818182 2:0.090909094 3:0.045454547 4:0.045454547 5:0.090909094 6:0.022727273 7:0.045454547 8:0.090909094 9:0.090909094 10:0.022727273 11:0.06818182 12:0.045454547 13:0.022727273 14:0.090909094 15:0.06818182 16:0.06818182 17:6 18:0.31818181 19:-0.72142857 20:0.31818181 21:0.14285715 22:1 23:8 24:16 25:0 26:0.045454547 27:0.06818182 28:0 29:0 30:0 31:0 32:0.06818182 33:0.06818182 34:0.13636364 35:0 36:0.022727273 37:0.022727273 38:0 39:0 40:0 41:0.045454547 42:0.06818182 43:0 44:0.022727273 45:0.06818182 46:0 47:0 48:0 49:0.06818182 50:0.13636364 51:0.022727273 52:0 53:0 54:0.06818182 55:0.022727273 56:0 57:0 58:-10.1 #
-0.00041471625999604620890423567480809 1:0.05952381 2:0.047619049 3:0.083333336 4:0.083333336 5:0.023809524 6:0.071428575 7:0.05952381 8:0.071428575 9:0.10714286 10:0.095238097 11:0.071428575 12:0.011904762 13:0.083333336 14:0.011904762 15:0.071428575 16:0.035714287 17:24 18:0.25 19:-0.80952382 20:0.25 21:0.19047619 22:1 23:4 24:42 25:4 26:0.083333336 27:0 28:0.035714287 29:0.011904762 30:0.011904762 31:0 32:0 33:0.13095239 34:0.071428575 35:0.047619049 36:0 37:0.023809524 38:0.011904762 39:0 40:0.011904762 41:0.047619049 42:0.071428575 43:0.023809524 44:0.023809524 45:0.011904762 46:0 47:0 48:0.023809524 49:0.13095239 50:0.083333336 51:0.023809524 52:0 53:0.047619049 54:0 55:0 56:0 57:0.047619049 58:-17 #
0.00041471625999604620890423567480809 1:0.063636363 2:0.054545455 3:0.054545455 4:0.036363635 5:0.0090909088 6:0.018181818 7:0.054545455 8:0.1 9:0.1 10:0.081818178 11:0.16363636 12:0 13:0.027272727 14:0.036363635 15:0.07272727 16:0.11818182 17:5 18:0.0090909088 19:-67.400002 20:0.0045454544 21:4 22:1 23:7 24:34 25:5 26:0.090909094 27:0.0090909088 28:0 29:0.0090909088 30:0.027272727 31:0 32:0.018181818 33:0.045454547 34:0.1 35:0.018181818 36:0 37:0.018181818 38:0.0090909088 39:0 40:0 41:0.036363635 42:0.18181819 43:0 44:0 45:0.027272727 46:0.018181818 47:0 48:0.036363635 49:0.081818178 50:0.2090909 51:0.027272727 52:0 53:0 54:0 55:0 56:0 57:0.018181818 58:-67.400002 #
-0.00041471625999604620890423567480809 1:0.012048192 2:0.012048192 3:0.012048192 4:0.084337346 5:0 6:0 7:0.024096385 8:0.036144577 9:0.036144577 10:0.048192769 11:0.16867469 12:0.096385539 13:0.060240965 14:0 15:0.15662651 16:0.24096386 17:4 18:0.012048192 19:-50.5 20:0.0040160641 21:2 22:0 23:18 24:27 25:6 26:0.012048192 27:0 28:0 29:0.012048192 30:0.036144577 31:0 32:0.048192769 33:0 34:0.024096385 35:0.012048192 36:0 37:0.012048192 38:0.012048192 39:0 40:0 41:0 42:0.22891566 43:0.012048192 44:0 45:0.048192769 46:0 47:0 48:0.012048192 49:0.048192769 50:0.19277108 51:0.084337346 52:0.048192769 53:0.036144577 54:0.012048192 55:0 56:0 57:0.084337346 58:-50.5 #
0.00041471625999604620890423567480809 1:0.35365853 2:0.048780486 3:0.15853658 4:0.024390243 5:0.024390243 6:0.012195121 7:0.036585364 8:0.036585364 9:0.17073171 10:0.024390243 11:0.012195121 12:0 13:0.036585364 14:0.012195121 15:0.012195121 16:0.024390243 17:7 18:0.097560972 19:-0.51249999 20:0.097560972 21:0.375 22:1 23:1 24:66 25:1 26:0.012195121 27:0.012195121 28:0 29:0.012195121 30:0.012195121 31:0 32:0.012195121 33:0.52439022 34:0.048780486 35:0 36:0 37:0.012195121 38:0 39:0 40:0 41:0.036585364 42:0.024390243 43:0.012195121 44:0.012195121 45:0 46:0 47:0 48:0.012195121 49:0.14634146 50:0.036585364 51:0.012195121 52:0 53:0.012195121 54:0 55:0 56:0 57:0.024390243 58:-4.0999999 #
-0.00041471625999604620890423567480809 1:0.071428575 2:0.05952381 3:0.023809524 4:0.10714286 5:0.011904762 6:0.083333336 7:0.047619049 8:0.095238097 9:0.071428575 10:0.035714287 11:0.035714287 12:0.011904762 13:0.10714286 14:0.05952381 15:0.047619049 16:0.11904762 17:5 18:0.30952382 19:-0.7153846 20:0.30952382 21:0.15384616 22:1 23:10 24:32 25:4 26:0.10714286 27:0 28:0.023809524 29:0.011904762 30:0.011904762 31:0 32:0.035714287 33:0.071428575 34:0.11904762 35:0.047619049 36:0 37:0.023809524 38:0 39:0 40:0 41:0.035714287 42:0.05952381 43:0.035714287 44:0 45:0.023809524 46:0.011904762 47:0 48:0.011904762 49:0.011904762 50:0.095238097 51:0.035714287 52:0.011904762 53:0.05952381 54:0.047619049 55:0 56:0.035714287 57:0.047619049 58:-18.6 #
0.00041471625999604620890423567480809 1:0.031578947 2:0.031578947 3:0.042105265 4:0.042105265 5:0.073684208 6:0.08421053 7:0.052631579 8:0.10526316 9:0.010526316 10:0.10526316 11:0.063157894 12:0.042105265 13:0.021052632 14:0.094736844 15:0.073684208 16:0.11578947 17:3 18:0.010526316 19:-49.099998 20:0.0052631581 21:6 22:1 23:4 24:17 25:37 26:0.11578947 27:0.021052632 28:0 29:0 30:0 31:0 32:0 33:0 34:0.16842106 35:0 36:0.042105265 37:0.042105265 38:0.021052632 39:0 40:0.031578947 41:0.010526316 42:0.15789473 43:0.021052632 44:0 45:0.021052632 46:0 47:0 48:0 49:0.021052632 50:0.16842106 51:0.063157894 52:0.021052632 53:0.042105265 54:0.010526316 55:0 56:0 57:0 58:-49.099998 #
-0.00041471625999604620890423567480809 1:0.024096385 2:0 3:0.024096385 4:0.060240965 5:0 6:0 7:0.036144577 8:0.012048192 9:0.048192769 10:0.036144577 11:0.16867469 12:0.22891566 13:0.024096385 14:0.012048192 15:0.26506025 16:0.048192769 17:6 18:0.012048192 19:-45.799999 20:0.0060240962 21:1 22:1 23:5 24:25 25:20 26:0.012048192 27:0 28:0.024096385 29:0 30:0.024096385 31:0 32:0.012048192 33:0.024096385 34:0.012048192 35:0 36:0.012048192 37:0.012048192 38:0 39:0 40:0.012048192 41:0 42:0.22891566 43:0.012048192 44:0.024096385 45:0.072289154 46:0.048192769 47:0 48:0.036144577 49:0.060240965 50:0.18072289 51:0.12048193 52:0 53:0.036144577 54:0 55:0 56:0 57:0.012048192 58:-45.799999 #
0.00041471625999604620890423567480809 1:0.05882353 2:0.13235295 3:0.029411765 4:0.044117648 5:0.13235295 6:0.14705883 7:0.073529415 8:0.05882353 9:0.05882353 10:0.088235296 11:0.05882353 12:0 13:0.014705882 14:0.044117648 15:0.044117648 16:0 17:4 18:0.25 19:-0.34117648 20:0.25 21:0.11764706 22:1 23:4 24:34 25:0 26:0.073529415 27:0.029411765 28:0.029411765 29:0.073529415 30:0 31:0 32:0 33:0.05882353 34:0.073529415 35:0.073529415 36:0.044117648 37:0.044117648 38:0.029411765 39:0 40:0.044117648 41:0.10294118 42:0.014705882 43:0.014705882 44:0.044117648 45:0.014705882 46:0.029411765 47:0.014705882 48:0.014705882 49:0.05882353 50:0.014705882 51:0.029411765 52:0 53:0.014705882 54:0 55:0.014705882 56:0 57:0.014705882 58:-5.8000002 #
-0.00041471625999604620890423567480809 1:0.012048192 2:0.084337346 3:0.072289154 4:0.084337346 5:0.024096385 6:0.012048192 7:0.036144577 8:0.10843374 9:0.096385539 10:0.048192769 11:0.096385539 12:0.012048192 13:0.12048193 14:0.036144577 15:0.060240965 16:0.084337346 17:3 18:0.30120483 19:-0.87199998 20:0.30120483 21:0.12 22:1 23:6 24:33 25:1 26:0.048192769 27:0.024096385 28:0.024096385 29:0.024096385 30:0.036144577 31:0 32:0.060240965 33:0.036144577 34:0.072289154 35:0.024096385 36:0.012048192 37:0.036144577 38:0 39:0 40:0 41:0.036144577 42:0.084337346 43:0.036144577 44:0.012048192 45:0.036144577 46:0.024096385 47:0.012048192 48:0.024096385 49:0.024096385 50:0.084337346 51:0.060240965 52:0.024096385 53:0.048192769 54:0.024096385 55:0.012048192 56:0.012048192 57:0.024096385 58:-21.799999 #
-0.00041471625999604620890423567480809 1:0 2:0 3:0.035714287 4:0.035714287 5:0.011904762 6:0 7:0.035714287 8:0.035714287 9:0 10:0.047619049 11:0.14285715 12:0.20238096 13:0.05952381 14:0.035714287 15:0.19047619 16:0.15476191 17:4 18:0.35714287 19:-1.65 20:0.35714287 21:0.06666667 22:1 23:8 24:24 25:12 26:0.011904762 27:0.023809524 28:0.011904762 29:0 30:0.011904762 31:0 32:0 33:0.011904762 34:0.047619049 35:0 36:0.011904762 37:0.011904762 38:0.011904762 39:0 40:0 41:0 42:0.20238096 43:0.047619049 44:0.011904762 45:0.047619049 46:0.011904762 47:0 48:0.023809524 49:0.047619049 50:0.20238096 51:0.047619049 52:0.047619049 53:0.05952381 54:0.011904762 55:0.011904762 56:0.023809524 57:0.023809524 58:-49.5 #
0.00041471625999604620890423567480809 1:0.047619049 2:0.015873017 3:0.11111111 4:0.031746034 5:0.015873017 6:0.095238097 7:0.079365082 8:0.095238097 9:0.079365082 10:0.14285715 11:0.079365082 12:0 13:0.047619049 14:0.047619049 15:0.031746034 16:0.063492067 17:5 18:0.015873017 19:-11.7 20:0.0079365084 21:5 22:1 23:19 24:37 25:1 26:0.031746034 27:0.015873017 28:0 29:0.031746034 30:0.031746034 31:0 32:0.015873017 33:0.063492067 34:0.031746034 35:0.031746034 36:0 37:0.015873017 38:0.063492067 39:0 40:0 41:0.14285715 42:0.079365082 43:0.015873017 44:0 45:0.015873017 46:0 47:0 48:0.031746034 49:0.15873016 50:0.079365082 51:0.031746034 52:0 53:0.015873017 54:0 55:0 56:0.031746034 57:0.031746034 58:-11.7 #
-0.00041471625999604620890423567480809 1:0.060240965 2:0.048192769 3:0.012048192 4:0.048192769 5:0.036144577 6:0.12048193 7:0.036144577 8:0.12048193 9:0.048192769 10:0.084337346 11:0.12048193 12:0 13:0.024096385 14:0.060240965 15:0.096385539 16:0.072289154 17:4 18:0.31325302 19:-0.80000001 20:0.31325302 21:0.1923077 22:1 23:9 24:31 25:13 26:0.048192769 27:0.024096385 28:0 29:0.012048192 30:0.024096385 31:0 32:0.024096385 33:0.036144577 34:0.072289154 35:0.024096385 36:0.024096385 37:0.048192769 38:0.036144577 39:0 40:0.036144577 41:0.072289154 42:0.10843374 43:0.024096385 44:0.012048192 45:0.036144577 46:0.012048192 47:0 48:0.024096385 49:0.036144577 50:0.13253012 51:0.048192769 52:0 53:0.036144577 54:0.012048192 55:0 56:0.012048192 57:0 58:-20.799999 #
0.00041471625999604620890423567480809 1:0.055555556 2:0.06666667 3:0.033333335 4:0.1 5:0.06666667 6:0.16666667 7:0.055555556 8:0.077777781 9:0.06666667 10:0.06666667 11:0.033333335 12:0 13:0.06666667 14:0.077777781 15:0.033333335 16:0.022222223 17:4 18:0.30000001 19:-0.69629627 20:0.30000001 21:0.14814815 22:1 23:7 24:36 25:5 26:0.077777781 27:0.022222223 28:0.011111111 29:0.055555556 30:0.044444446 31:0 32:0.033333335 33:0.011111111 34:0.088888891 35:0.055555556 36:0.011111111 37:0.044444446 38:0.044444446 39:0 40:0.033333335 41:0.088888891 42:0.06666667 43:0.011111111 44:0.022222223 45:0.022222223 46:0 47:0.011111111 48:0.011111111 49:0.011111111 50:0.055555556 51:0.055555556 52:0.033333335 53:0.022222223 54:0 55:0.011111111 56:0.011111111 57:0.011111111 58:-18.799999 #
0.00041471625999604620890423567480809 1:0.072164945 2:0.082474224 3:0.030927835 4:0.010309278 5:0.082474224 6:0.34020618 7:0.051546391 8:0.072164945 9:0.030927835 10:0.041237112 11:0.010309278 12:0.010309278 13:0.020618556 14:0.072164945 15:0 16:0.06185567 17:22 18:0.010309278 19:-7.6999998 20:0.0034364262 21:2 22:0 23:6 24:55 25:1 26:0.06185567 27:0.030927835 28:0 29:0.020618556 30:0.010309278 31:0 32:0 33:0.072164945 34:0.092783503 35:0.020618556 36:0.010309278 37:0.020618556 38:0.041237112 39:0 40:0.051546391 41:0.29896906 42:0.030927835 43:0.020618556 44:0 45:0.020618556 46:0 47:0 48:0.010309278 49:0.010309278 50:0.06185567 51:0.010309278 52:0.010309278 53:0.020618556 54:0.010309278 55:0 56:0 57:0.041237112 58:-7.6999998 #
-0.00041471625999604620890423567480809 1:0 2:0.22619048 3:0 4:0.023809524 5:0.23809524 6:0.035714287 7:0 8:0.21428572 9:0 10:0 11:0 12:0 13:0.011904762 14:0.23809524 15:0 16:0 17:4 18:0.41666666 19:-0.69142854 20:0.41666666 21:0.028571429 22:1 23:2 24:14 25:0 26:0.20238096 27:0 28:0 29:0.011904762 30:0 31:0 32:0 33:0.035714287 34:0.36904761 35:0.011904762 36:0.023809524 37:0.023809524 38:0.023809524 39:0 40:0 41:0.035714287 42:0 43:0 44:0 45:0 46:0 47:0 48:0 49:0 50:0.16666667 51:0.035714287 52:0 53:0 54:0 55:0 56:0.011904762 57:0.023809524 58:-24.200001 #
-0.00041471625999604620890423567480809 1:0 2:0.035714287 3:0.023809524 4:0.05952381 5:0.011904762 6:0.071428575 7:0.047619049 8:0.15476191 9:0.071428575 10:0.05952381 11:0.035714287 12:0.011904762 13:0.047619049 14:0.11904762 15:0.071428575 16:0.16666667 17:4 18:0.011904762 19:-30.700001 20:0.0059523811 21:13 22:1 23:6 24:22 25:13 26:0.05952381 27:0 28:0.011904762 29:0.023809524 30:0.023809524 31:0 32:0 33:0 34:0.16666667 35:0.011904762 36:0.023809524 37:0.035714287 38:0 39:0 40:0.011904762 41:0.035714287 42:0.095238097 43:0.035714287 44:0 45:0.023809524 46:0 47:0 48:0.011904762 49:0.011904762 50:0.17857143 51:0.05952381 52:0.023809524 53:0.035714287 54:0.023809524 55:0 56:0.023809524 57:0.047619049 58:-30.700001 #
0.00041471625999604620890423567480809 1:0.14545454 2:0.054545455 3:0.054545455 4:0.07272727 5:0.090909094 6:0.12727273 7:0.054545455 8:0.054545455 9:0.090909094 10:0.054545455 11:0.054545455 12:0 13:0.018181818 14:0.090909094 15:0.018181818 16:0 17:16 18:0.27272728 19:-0.69333333 20:0.27272728 21:0.13333334 22:1 23:7 24:25 25:1 26:0.16363636 27:0 28:0 29:0.036363635 30:0.036363635 31:0 32:0.018181818 33:0.07272727 34:0.16363636 35:0.036363635 36:0 37:0.018181818 38:0 39:0 40:0 41:0.10909091 42:0.036363635 43:0 44:0 45:0.018181818 46:0.018181818 47:0 48:0.018181818 49:0.090909094 50:0.036363635 51:0.036363635 52:0 53:0 54:0 55:0 56:0.018181818 57:0.036363635 58:-10.4 #
-0.00041471625999604620890423567480809 1:0.035714287 2:0.05952381 3:0.023809524 4:0.071428575 5:0.035714287 6:0.16666667 7:0.095238097 8:0.071428575 9:0.05952381 10:0.071428575 11:0.035714287 12:0.035714287 13:0.047619049 14:0.071428575 15:0.05952381 16:0.047619049 17:4 18:0.2857143 19:-0.92083335 20:0.2857143 21:0.25 22:1 23:11 24:36 25:4 26:0.083333336 27:0.011904762 28:0 29:0.011904762 30:0 31:0 32:0.011904762 33:0.05952381 34:0.083333336 35:0.047619049 36:0.011904762 37:0.035714287 38:0.047619049 39:0 40:0.047619049 41:0.095238097 42:0.083333336 43:0 44:0.011904762 45:0.023809524 46:0.023809524 47:0 48:0 49:0.05952381 50:0.10714286 51:0.047619049 52:0 53:0.023809524 54:0.011904762 55:0 56:0.011904762 57:0.023809524 58:-22.1 #
0.00041471625999604620890423567480809 1:0.10204082 2:0.040816326 3:0.034013607 4:0.047619049 5:0.020408163 6:0.095238097 7:0.081632651 8:0.054421768 9:0.054421768 10:0.10884354 11:0.06122449 12:0.06122449 13:0.054421768 14:0.0068027209 15:0.10884354 16:0.06122449 17:5 18:0.0068027209 19:-49 20:0.0034013605 21:7 22:1 23:9 24:51 25:59 26:0.095238097 27:0.013605442 28:0 29:0.027210884 30:0.027210884 31:0 32:0.020408163 33:0.040816326 34:0.095238097 35:0.027210884 36:0.013605442 37:0.0068027209 38:0.027210884 39:0.0068027209 40:0.040816326 41:0.034013607 42:0.10204082 43:0.034013607 44:0.020408163 45:0.047619049 46:0.027210884 47:0.0068027209 48:0.027210884 49:0.020408163 50:0.095238097 51:0.047619049 52:0.013605442 53:0.040816326 54:0.0068027209 55:0 56:0.0068027209 57:0.013605442 58:-49 #
-0.00041471625999604620890423567480809 1:0.023809524 2:0.011904762 3:0.011904762 4:0.023809524 5:0 6:0.011904762 7:0.071428575 8:0.047619049 9:0.011904762 10:0.095238097 11:0.11904762 12:0.15476191 13:0.035714287 14:0.011904762 15:0.16666667 16:0.19047619 17:7 18:0.011904762 19:-45.599998 20:0.0059523811 21:4 22:1 23:3 24:24 25:17 26:0.035714287 27:0 28:0 29:0 30:0.011904762 31:0 32:0.011904762 33:0.011904762 34:0.071428575 35:0 36:0.011904762 37:0.023809524 38:0 39:0 40:0 41:0.023809524 42:0.15476191 43:0.047619049 44:0.023809524 45:0.047619049 46:0.023809524 47:0.011904762 48:0.011904762 49:0.047619049 50:0.22619048 51:0.05952381 52:0.035714287 53:0.035714287 54:0.011904762 55:0 56:0.023809524 57:0.011904762 58:-45.599998 #
0.00041471625999604620890423567480809 1:0.14814815 2:0.2037037 3:0.018518519 4:0.055555556 5:0.2037037 6:0.11111111 7:0.037037037 8:0.037037037 9:0.037037037 10:0.018518519 11:0 12:0 13:0.037037037 14:0.055555556 15:0 16:0.018518519 17:3 18:0.37037036 19:-0.69499999 20:0.37037036 21:0.050000001 22:1 23:8 24:14 25:0 26:0.24074075 27:0.037037037 28:0 29:0.018518519 30:0.037037037 31:0 32:0.055555556 33:0.037037037 34:0.25925925 35:0.037037037 36:0 37:0.037037037 38:0.018518519 39:0 40:0 41:0.037037037 42:0.037037037 43:0 44:0 45:0 46:0 47:0 48:0 49:0.018518519 50:0.055555556 51:0 52:0 53:0.018518519 54:0 55:0 56:0.018518519 57:0 58:-13.9 #
-0.00041471625999604620890423567480809 1:0.071428575 2:0.05952381 3:0.071428575 4:0.05952381 5:0.023809524 6:0.023809524 7:0.05952381 8:0.11904762 9:0.10714286 10:0.071428575 11:0.095238097 12:0.011904762 13:0.05952381 14:0.071428575 15:0.047619049 16:0.035714287 17:5 18:0.2857143 19:-0.95833331 20:0.2857143 21:0.125 22:1 23:5 24:36 25:2 26:0.071428575 27:0.011904762 28:0.023809524 29:0.023809524 30:0.035714287 31:0 32:0.047619049 33:0.047619049 34:0.10714286 35:0.023809524 36:0.011904762 37:0.011904762 38:0.011904762 39:0 40:0 41:0.05952381 42:0.083333336 43:0.011904762 44:0 45:0.035714287 46:0.011904762 47:0 48:0.023809524 49:0.10714286 50:0.095238097 51:0.047619049 52:0 53:0.035714287 54:0 55:0 56:0 57:0.035714287 58:-23 #
0.00041471625999604620890423567480809 1:0.018181818 2:0.036363635 3:0.1 4:0.081818178 5:0.018181818 6:0.018181818 7:0.063636363 8:0.10909091 9:0.14545454 10:0.081818178 11:0.063636363 12:0.0090909088 13:0.054545455 14:0.081818178 15:0.07272727 16:0.036363635 17:13 18:0.0090909088 19:-63 20:0.0045454544 21:5 22:1 23:6 24:36 25:0 26:0.12727273 27:0.0090909088 28:0 29:0 30:0.018181818 31:0 32:0.027272727 33:0.054545455 34:0.14545454 35:0 36:0.018181818 37:0.0090909088 38:0.0090909088 39:0 40:0.0090909088 41:0.018181818 42:0.11818182 43:0.036363635 44:0 45:0.027272727 46:0.018181818 47:0 48:0.018181818 49:0.081818178 50:0.13636364 51:0.018181818 52:0 53:0.036363635 54:0 55:0 56:0 57:0.045454547 58:-63 #
-0.00041471625999604620890423567480809 1:0 2:0 3:0.035714287 4:0.05952381 5:0 6:0 7:0 8:0.011904762 9:0.011904762 10:0 11:0.083333336 12:0.25 13:0.083333336 14:0.011904762 15:0.23809524 16:0.20238096 17:5 18:0.011904762 19:-49.900002 20:0.0059523811 21:1 22:1 23:4 24:30 25:1 26:0 27:0 28:0.05952381 29:0 30:0.035714287 31:0 32:0 33:0 34:0 35:0 36:0 37:0.011904762 38:0 39:0 40:0 41:0 42:0.11904762 43:0.047619049 44:0 45:0.10714286 46:0 47:0.023809524 48:0.011904762 49:0.035714287 50:0.10714286 51:0.13095239 52:0.071428575 53:0.05952381 54:0.047619049 55:0.011904762 56:0.071428575 57:0.023809524 58:-49.900002 #
0.00041471625999604620890423567480809 1:0.25555557 2:0.088888891 3:0.088888891 4:0.044444446 5:0.044444446 6:0.055555556 7:0.022222223 8:0.044444446 9:0.15555556 10:0.011111111 11:0.055555556 12:0.011111111 13:0.022222223 14:0.011111111 15:0.06666667 16:0.011111111 17:6 18:0.011111111 19:-5.1999998 20:0.0037037036 21:2 22:0 23:15 24:54 25:5 26:0.055555556 27:0.033333335 28:0 29:0.022222223 30:0.055555556 31:0 32:0.022222223 33:0.27777779 34:0.06666667 35:0.022222223 36:0 37:0.033333335 38:0.022222223 39:0 40:0.011111111 41:0.011111111 42:0.044444446 43:0.022222223 44:0 45:0.011111111 46:0.022222223 47:0 48:0.06666667 49:0.06666667 50:0.033333335 51:0.022222223 52:0 53:0.033333335 54:0 55:0 56:0 57:0.022222223 58:-5.1999998 #
0.00041471625999604620890423567480809 1:0.035294119 2:0.035294119 3:0.047058824 4:0.070588239 5:0.070588239 6:0.05882353 7:0.035294119 8:0.094117649 9:0.035294119 10:0.05882353 11:0.10588235 12:0.035294119 13:0.05882353 14:0.10588235 15:0.035294119 16:0.10588235 17:5 18:0.011764706 19:-50.299999 20:0.0058823531 21:7 22:1 23:4 24:17 25:30 26:0.11764706 27:0.011764706 28:0 29:0.011764706 30:0.023529412 31:0 32:0 33:0.023529412 34:0.16470589 35:0.023529412 36:0.023529412 37:0.011764706 38:0 39:0 40:0.023529412 41:0.011764706 42:0.16470589 43:0 44:0 45:0.023529412 46:0.011764706 47:0 48:0.011764706 49:0.011764706 50:0.1882353 51:0.035294119 52:0 53:0.035294119 54:0.011764706 55:0 56:0.011764706 57:0.023529412 58:-50.299999 #
-0.00041471625999604620890423567480809 1:0 2:0.024096385 3:0.036144577 4:0.048192769 5:0 6:0.024096385 7:0.036144577 8:0.012048192 9:0.084337346 10:0 11:0.036144577 12:0.21686748 13:0.024096385 14:0.036144577 15:0.22891566 16:0.18072289 17:6 18:0.012048192 19:-46.200001 20:0.0060240962 21:3 22:1 23:2 24:27 25:0 26:0.012048192 27:0 28:0.036144577 29:0 30:0.012048192 31:0 32:0.012048192 33:0.036144577 34:0.048192769 35:0.012048192 36:0 37:0 38:0.012048192 39:0 40:0 41:0 42:0.12048193 43:0.048192769 44:0.012048192 45:0.10843374 46:0 47:0 48:0 49:0.048192769 50:0.18072289 51:0.096385539 52:0.072289154 53:0.048192769 54:0.012048192 55:0 56:0.024096385 57:0.024096385 58:-46.200001 #
0.00041471625999604620890423567480809 1:0.013888889 2:0.125 3:0.097222224 4:0.069444448 5:0.125 6:0.013888889 7:0.055555556 8:0.097222224 9:0.027777778 10:0.125 11:0.055555556 12:0 13:0.125 14:0.041666668 15:0 16:0.013888889 17:4 18:0.29166666 19:-1.0761905 20:0.29166666 21:0.047619049 22:1 23:25 24:30 25:2 26:0.097222224 27:0.027777778 28:0 29:0.041666668 30:0.013888889 31:0 32:0 33:0.11111111 34:0.1388889 35:0.027777778 36:0.013888889 37:0.013888889 38:0 39:0 40:0.013888889 41:0.083333336 42:0.097222224 43:0 44:0 45:0 46:0.013888889 47:0 48:0.013888889 49:0.083333336 50:0.11111111 51:0 52:0 53:0 54:0.013888889 55:0 56:0.013888889 57:0.041666668 58:-22.6 #
-0.00041471625999604620890423567480809 1:0.036144577 2:0.024096385 3:0.060240965 4:0.16867469 5:0.048192769 6:0.024096385 7:0.036144577 8:0.060240965 9:0.13253012 10:0.084337346 11:0.036144577 12:0 13:0.072289154 14:0.036144577 15:0.10843374 16:0.060240965 17:4 18:0.26506025 19:-1.1181818 20:0.26506025 21:0.22727273 22:1 23:5 24:39 25:1 26:0.048192769 27:0.036144577 28:0.012048192 29:0.012048192 30:0.048192769 31:0 32:0.060240965 33:0.072289154 34:0.048192769 35:0.012048192 36:0.012048192 37:0.048192769 38:0 39:0 40:0 41:0.048192769 42:0.060240965 43:0.036144577 44:0.024096385 45:0.060240965 46:0 47:0 48:0 49:0.060240965 50:0.084337346 51:0.060240965 52:0.024096385 53:0.024096385 54:0.024096385 55:0 56:0.012048192 57:0.048192769 58:-24.6 #
0.00041471625999604620890423567480809 1:0.036363635 2:0.018181818 3:0.054545455 4:0.090909094 5:0.045454547 6:0.027272727 7:0.063636363 8:0.063636363 9:0.045454547 10:0.1 11:0.090909094 12:0.036363635 13:0.07272727 14:0.045454547 15:0.07272727 16:0.12727273 17:3 18:0.0090909088 19:-64.800003 20:0.0045454544 21:2 22:1 23:3 24:26 25:2 26:0.1 27:0.027272727 28:0.027272727 29:0.0090909088 30:0.0090909088 31:0 32:0.0090909088 33:0.018181818 34:0.11818182 35:0.0090909088 36:0.0090909088 37:0.036363635 38:0.018181818 39:0 40:0 41:0 42:0.12727273 43:0.027272727 44:0.027272727 45:0.045454547 46:0.0090909088 47:0.018181818 48:0.0090909088 49:0.0090909088 50:0.14545454 51:0.054545455 52:0.054545455 53:0.027272727 54:0 55:0.018181818 56:0.018181818 57:0 58:-64.800003 #
-0.00041471625999604620890423567480809 1:0 2:0.011904762 3:0.023809524 4:0.023809524 5:0 6:0 7:0.035714287 8:0.071428575 9:0.05952381 10:0.071428575 11:0.15476191 12:0.14285715 13:0.011904762 14:0.023809524 15:0.20238096 16:0.15476191 17:4 18:0.011904762 19:-49.599998 20:0.0059523811 21:4 22:1 23:6 24:28 25:1 26:0 27:0 28:0 29:0.023809524 30:0.023809524 31:0 32:0.011904762 33:0 34:0.023809524 35:0.023809524 36:0 37:0 38:0.023809524 39:0 40:0.035714287 41:0 42:0.17857143 43:0.023809524 44:0.023809524 45:0.05952381 46:0.023809524 47:0.011904762 48:0.023809524 49:0.071428575 50:0.20238096 51:0.05952381 52:0.035714287 53:0.035714287 54:0 55:0.011904762 56:0 57:0.047619049 58:-49.599998 #
0.00041471625999604620890423567480809 1:0.011111111 2:0.088888891 3:0 4:0.044444446 5:0.077777781 6:0.30000001 7:0.033333335 8:0.12222222 9:0.044444446 10:0.033333335 11:0.022222223 12:0 13:0.011111111 14:0.11111111 15:0.033333335 16:0.055555556 17:13 18:0.12222222 19:-0.82727271 20:0.12222222 21:0.36363637 22:1 23:3 24:68 25:1 26:0.022222223 27:0 28:0 29:0.011111111 30:0.011111111 31:0 32:0 33:0.1 34:0.022222223 35:0.022222223 36:0.033333335 37:0.022222223 38:0.011111111 39:0 40:0.011111111 41:0.41111112 42:0.044444446 43:0 44:0 45:0 46:0 47:0.011111111 48:0 49:0.033333335 50:0.044444446 51:0.022222223 52:0 53:0.011111111 54:0.011111111 55:0.011111111 56:0.022222223 57:0.088888891 58:-9.1000004 #
-0.00041471625999604620890423567480809 1:0.05952381 2:0.011904762 3:0.035714287 4:0.083333336 5:0 6:0.083333336 7:0.05952381 8:0.083333336 9:0.071428575 10:0.05952381 11:0.095238097 12:0.035714287 13:0.05952381 14:0.05952381 15:0.071428575 16:0.11904762 17:12 18:0.011904762 19:-29.299999 20:0.0039682542 21:3 22:0 23:6 24:34 25:1 26:0.083333336 27:0 28:0 29:0.023809524 30:0.011904762 31:0 32:0 33:0.071428575 34:0.095238097 35:0.023809524 36:0.011904762 37:0.011904762 38:0.023809524 39:0 40:0.011904762 41:0.035714287 42:0.13095239 43:0.035714287 44:0 45:0 46:0.011904762 47:0 48:0.023809524 49:0.05952381 50:0.14285715 51:0.011904762 52:0 53:0.023809524 54:0.011904762 55:0 56:0.011904762 57:0.10714286 58:-29.299999 #
0.00041471625999604620890423567480809 1:0.035714287 2:0.044642858 3:0.071428575 4:0.044642858 5:0.044642858 6:0.0625 7:0.053571429 8:0.11607143 9:0.089285716 10:0.080357142 11:0.053571429 12:0.017857144 13:0.026785715 14:0.089285716 15:0.0625 16:0.098214284 17:3 18:0.0089285718 19:-65.699997 20:0.0044642859 21:9 22:1 23:5 24:26 25:4 26:0.14285715 27:0.0089285718 28:0.0089285718 29:0.017857144 30:0 31:0 32:0 33:0.0089285718 34:0.15178572 35:0.026785715 36:0 37:0.026785715 38:0.017857144 39:0 40:0 41:0.053571429 42:0.14285715 43:0.026785715 44:0.0089285718 45:0.0089285718 46:0.0089285718 47:0 48:0.035714287 49:0.0089285718 50:0.16964285 51:0.017857144 52:0.017857144 53:0.026785715 54:0.017857144 55:0 56:0 57:0.026785715 58:-65.699997 #
-0.00041471625999604620890423567480809 1:0.023809524 2:0 3:0.023809524 4:0.095238097 5:0 6:0 7:0.011904762 8:0.047619049 9:0.071428575 10:0.047619049 11:0.05952381 12:0.14285715 13:0.05952381 14:0 15:0.22619048 16:0.17857143 17:7 18:0.011904762 19:-49.599998 20:0.0039682542 21:1 22:0 23:3 24:28 25:10 26:0.035714287 27:0 28:0 29:0 30:0.023809524 31:0 32:0 33:0.083333336 34:0.035714287 35:0 36:0 37:0 38:0 39:0 40:0.011904762 41:0 42:0.15476191 43:0.083333336 44:0 45:0.035714287 46:0 47:0.011904762 48:0 49:0.035714287 50:0.19047619 51:0.023809524 52:0.083333336 53:0.083333336 54:0.011904762 55:0 56:0.035714287 57:0.035714287 58:-49.599998 #
0.00041471625999604620890423567480809 1:0.06666667 2:0.1 3:0.050000001 4:0.06666667 5:0.16666667 6:0.18333334 7:0.050000001 8:0.050000001 9:0.016666668 10:0.06666667 11:0.016666668 12:0.016666668 13:0.033333335 14:0.1 15:0 16:0 17:7 18:0.33333334 19:-0.43000001 20:0.33333334 21:0.15000001 22:1 23:4 24:20 25:1 26:0.15000001 27:0.050000001 28:0 29:0.016666668 30:0.033333335 31:0 32:0 33:0.033333335 34:0.18333334 35:0.016666668 36:0.016666668 37:0.06666667 38:0.033333335 39:0 40:0.06666667 41:0.06666667 42:0.050000001 43:0 44:0.033333335 45:0 46:0 47:0.016666668 48:0 49:0.016666668 50:0.06666667 51:0.033333335 52:0 53:0.016666668 54:0 55:0 56:0 57:0 58:-8.6000004 #
0.00041471625999604620890423567480809 1:0.050632913 2:0.094936706 3:0.044303797 4:0.037974682 5:0.037974682 6:0.06329114 7:0.050632913 8:0.10126583 9:0.056962024 10:0.050632913 11:0.069620252 12:0.056962024 13:0.082278483 14:0.050632913 15:0.069620252 16:0.075949363 17:10 18:0.0063291141 19:-55.799999 20:0.003164557 21:6 22:1 23:16 24:62 25:48 26:0.06329114 27:0.0063291141 28:0.025316456 29:0.03164557 30:0.025316456 31:0 32:0.012658228 33:0.06329114 34:0.082278483 35:0.044303797 36:0.018987341 37:0.012658228 38:0.025316456 39:0 40:0.012658228 41:0.056962024 42:0.10126583 43:0.03164557 44:0.018987341 45:0.03164557 46:0 47:0 48:0.018987341 49:0.03164557 50:0.12025317 51:0.037974682 52:0 53:0.044303797 54:0.0063291141 55:0 56:0.012658228 57:0.050632913 58:-55.799999 #
-0.00041471625999604620890423567480809 1:0 2:0.011904762 3:0.011904762 4:0.083333336 5:0.011904762 6:0 7:0.05952381 8:0.047619049 9:0.035714287 10:0.083333336 11:0.10714286 12:0.10714286 13:0.05952381 14:0.023809524 15:0.15476191 16:0.19047619 17:8 18:0.011904762 19:-48.200001 20:0.0059523811 21:2 22:1 23:4 24:36 25:1 26:0.023809524 27:0 28:0 29:0 30:0.011904762 31:0 32:0 33:0.071428575 34:0.035714287 35:0 36:0.011904762 37:0 38:0.035714287 39:0 40:0.011904762 41:0.023809524 42:0.15476191 43:0.023809524 44:0 45:0.071428575 46:0 47:0 48:0.035714287 49:0.047619049 50:0.15476191 51:0.05952381 52:0.023809524 53:0.023809524 54:0.011904762 55:0.011904762 56:0.023809524 57:0.10714286 58:-48.200001 #
0.00041471625999604620890423567480809 1:0.30357143 2:0.071428575 3:0 4:0.035714287 5:0.053571429 6:0.26785713 7:0.035714287 8:0.035714287 9:0.035714287 10:0 11:0.017857144 12:0 13:0.017857144 14:0.053571429 15:0 16:0.053571429 17:6 18:0.39285713 19:-0.63636363 20:0.39285713 21:0 22:1 23:3 24:12 25:2 26:0.25 27:0.017857144 28:0.017857144 29:0.053571429 30:0.017857144 31:0 32:0.017857144 33:0.035714287 34:0.26785713 35:0.053571429 36:0 37:0.017857144 38:0.017857144 39:0 40:0 41:0.035714287 42:0.035714287 43:0 44:0 45:0.017857144 46:0 47:0 48:0 49:0 50:0.053571429 51:0.017857144 52:0.017857144 53:0 54:0 55:0 56:0.017857144 57:0 58:-14 #
-0.00041471625999604620890423567480809 1:0.035714287 2:0.047619049 3:0.05952381 4:0.071428575 5:0.011904762 6:0.10714286 7:0.071428575 8:0.10714286 9:0.095238097 10:0.095238097 11:0.023809524 12:0 13:0.071428575 14:0.047619049 15:0.05952381 16:0.083333336 17:6 18:0.2857143 19:-0.93333334 20:0.2857143 21:0.33333334 22:1 23:10 24:36 25:1 26:0.047619049 27:0.023809524 28:0.023809524 29:0.011904762 30:0.035714287 31:0 32:0.035714287 33:0.023809524 34:0.095238097 35:0.011904762 36:0 37:0.047619049 38:0.023809524 39:0 40:0.035714287 41:0.083333336 42:0.071428575 43:0.035714287 44:0 45:0.011904762 46:0.011904762 47:0.011904762 48:0.011904762 49:0.05952381 50:0.11904762 51:0.035714287 52:0 53:0.035714287 54:0.023809524 55:0.011904762 56:0.023809524 57:0.011904762 58:-22.4 #
0.00041471625999604620890423567480809 1:0 2:0.018867925 3:0.028301887 4:0.018867925 5:0.018867925 6:0.03773585 7:0.047169812 8:0.047169812 9:0.0094339624 10:0.056603774 11:0.1509434 12:0.18867925 13:0.03773585 14:0.03773585 15:0.16981132 16:0.12264151 17:9 18:0.0094339624 19:-60.799999 20:0.0047169812 21:3 22:1 23:7 24:34 25:3 26:0.028301887 27:0.0094339624 28:0.0094339624 29:0 30:0 31:0 32:0.0094339624 33:0.0094339624 34:0.047169812 35:0.0094339624 36:0.018867925 37:0 38:0.018867925 39:0 40:0.0094339624 41:0.047169812 42:0.18867925 43:0.047169812 44:0.018867925 45:0.047169812 46:0.028301887 47:0 48:0.018867925 49:0.047169812 50:0.21698113 51:0.028301887 52:0 53:0.047169812 54:0.0094339624 55:0.0094339624 56:0.018867925 57:0.03773585 58:-60.799999 #
-0.00041471625999604620890423567480809 1:0 2:0 3:0.023809524 4:0.083333336 5:0 6:0.023809524 7:0.023809524 8:0.011904762 9:0.047619049 10:0.035714287 11:0.16666667 12:0.17857143 13:0.05952381 14:0 15:0.21428572 16:0.11904762 17:5 18:0.011904762 19:-48.400002 20:0.0059523811 21:3 22:1 23:6 24:26 25:5 26:0 27:0.011904762 28:0.011904762 29:0.011904762 30:0.023809524 31:0 32:0.011904762 33:0.035714287 34:0.011904762 35:0.023809524 36:0 37:0 38:0.011904762 39:0 40:0.011904762 41:0 42:0.23809524 43:0.011904762 44:0.011904762 45:0.05952381 46:0.023809524 47:0 48:0.047619049 49:0.035714287 50:0.20238096 51:0.05952381 52:0 53:0.047619049 54:0.023809524 55:0 56:0.023809524 57:0.023809524 58:-48.400002 #
0.00041471625999604620890423567480809 1:0.11818182 2:0.10909091 3:0.027272727 4:0.018181818 5:0.045454547 6:0.14545454 7:0.090909094 8:0.1 9:0.054545455 10:0.081818178 11:0.027272727 12:0.0090909088 13:0.045454547 14:0.054545455 15:0.027272727 16:0.036363635 17:4 18:0.29090908 19:-0.46875 20:0.29090908 21:0.15625 22:1 23:17 24:46 25:15 26:0.11818182 27:0.027272727 28:0 29:0.018181818 30:0.0090909088 31:0 32:0.027272727 33:0.063636363 34:0.11818182 35:0.018181818 36:0.036363635 37:0.054545455 38:0.063636363 39:0.0090909088 40:0.018181818 41:0.063636363 42:0.027272727 43:0.018181818 44:0.018181818 45:0.045454547 46:0.0090909088 47:0 48:0.027272727 49:0.027272727 50:0.036363635 51:0.07272727 52:0 53:0.018181818 54:0.0090909088 55:0 56:0.0090909088 57:0.018181818 58:-15 #
0.00041471625999604620890423567480809 1:0.0625 2:0.071428575 3:0.053571429 4:0.071428575 5:0.026785715 6:0.0625 7:0.089285716 8:0.071428575 9:0.098214284 10:0.071428575 11:0.080357142 12:0.026785715 13:0.071428575 14:0.035714287 15:0.0625 16:0.035714287 17:7 18:0.0089285718 19:-62.200001 20:0.0044642859 21:6 22:1 23:2 24:26 25:0 26:0.15178572 27:0.026785715 28:0.017857144 29:0.017857144 30:0.0089285718 31:0 32:0.017857144 33:0.017857144 34:0.16071428 35:0.026785715 36:0.0089285718 37:0.026785715 38:0 39:0 40:0 41:0.017857144 42:0.11607143 43:0.017857144 44:0.044642858 45:0.035714287 46:0.017857144 47:0 48:0.0089285718 49:0.035714287 50:0.125 51:0.035714287 52:0 53:0.026785715 54:0 55:0 56:0 57:0.017857144 58:-62.200001 #
-0.00041471625999604620890423567480809 1:0.012048192 2:0 3:0.012048192 4:0.060240965 5:0 6:0 7:0 8:0.024096385 9:0 10:0.024096385 11:0.060240965 12:0.21686748 13:0.072289154 14:0 15:0.22891566 16:0.27710843 17:6 18:0.31325302 19:-1.9192308 20:0.31325302 21:0 22:1 23:5 24:31 25:2 26:0 27:0 28:0 29:0 30:0.036144577 31:0 32:0 33:0.036144577 34:0.024096385 35:0 36:0 37:0 38:0 39:0 40:0 41:0 42:0.14457831 43:0.036144577 44:0 45:0.10843374 46:0 47:0 48:0.012048192 49:0 50:0.16867469 51:0.10843374 52:0.036144577 53:0.036144577 54:0.072289154 55:0 56:0.096385539 57:0.060240965 58:-49.900002 #
0.00041471625999604620890423567480809 1:0.021276595 2:0 3:0.021276595 4:0.021276595 5:0 6:0.021276595 7:0.04255319 8:0.021276595 9:0.021276595 10:0.04255319 11:0.063829787 12:0.19148937 13:0.021276595 14:0.021276595 15:0.17021276 16:0.29787233 17:6 18:0.021276595 19:-26.9 20:0.010638298 21:2 22:1 23:2 24:13 25:9 26:0 27:0.021276595 28:0 29:0 30:0.021276595 31:0 32:0.021276595 33:0 34:0.063829787 35:0 36:0 37:0.021276595 38:0 39:0 40:0 41:0 42:0.19148937 43:0.021276595 44:0 45:0.04255319 46:0 47:0 48:0 49:0.04255319 50:0.29787233 51:0.021276595 52:0 53:0.021276595 54:0.04255319 55:0 56:0.04255319 57:0.08510638 58:-26.9 #
-0.00041471625999604620890423567480809 1:0 2:0.012048192 3:0.048192769 4:0.048192769 5:0 6:0.012048192 7:0.060240965 8:0.048192769 9:0.012048192 10:0.048192769 11:0.096385539 12:0.19277108 13:0.096385539 14:0.048192769 15:0.13253012 16:0.13253012 17:4 18:0.012048192 19:-33.299999 20:0.0060240962 21:4 22:1 23:7 24:27 25:0 26:0.024096385 27:0 28:0.036144577 29:0.012048192 30:0 31:0 32:0.024096385 33:0.012048192 34:0.060240965 35:0.012048192 36:0 37:0.012048192 38:0.012048192 39:0 40:0.012048192 41:0.012048192 42:0.13253012 43:0.084337346 44:0.012048192 45:0.024096385 46:0.048192769 47:0 48:0.012048192 49:0.024096385 50:0.14457831 51:0.048192769 52:0.036144577 53:0.096385539 54:0 55:0 56:0.012048192 57:0.072289154 58:-33.299999 #
-0.00041471625999604620890423567480809 1:0.011904762 2:0 3:0.023809524 4:0.05952381 5:0.011904762 6:0 7:0.035714287 8:0.083333336 9:0.011904762 10:0.083333336 11:0.071428575 12:0.15476191 13:0.05952381 14:0.035714287 15:0.19047619 16:0.15476191 17:6 18:0.011904762 19:-46.299999 20:0.0059523811 21:4 22:1 23:4 24:22 25:14 26:0.023809524 27:0 28:0 29:0.011904762 30:0.023809524 31:0 32:0.011904762 33:0.023809524 34:0.05952381 35:0.011904762 36:0 37:0.035714287 38:0 39:0 40:0 41:0.011904762 42:0.21428572 43:0.011904762 44:0.011904762 45:0.035714287 46:0 47:0 48:0.011904762 49:0.035714287 50:0.25 51:0.071428575 52:0.023809524 53:0.011904762 54:0.035714287 55:0 56:0.023809524 57:0.023809524 58:-46.299999 #
0.00041471625999604620890423567480809 1:0.23333333 2:0.1 3:0.077777781 4:0.06666667 5:0.06666667 6:0.06666667 7:0.033333335 8:0.044444446 9:0.13333334 10:0.033333335 11:0.011111111 12:0 13:0.055555556 14:0.011111111 15:0.044444446 16:0.011111111 17:5 18:0.011111111 19:-5 20:0.0037037036 21:2 22:0 23:6 24:60 25:0 26:0.055555556 27:0.022222223 28:0 29:0.022222223 30:0.06666667 31:0 32:0.022222223 33:0.2888889 34:0.06666667 35:0.022222223 36:0 37:0.022222223 38:0.011111111 39:0 40:0.011111111 41:0.077777781 42:0.011111111 43:0.033333335 44:0 45:0.011111111 46:0.011111111 47:0 48:0.044444446 49:0.055555556 50:0.022222223 51:0.011111111 52:0 53:0.033333335 54:0 55:0 56:0.011111111 57:0.044444446 58:-5 #
-0.00041471625999604620890423567480809 1:0.048192769 2:0.048192769 3:0.036144577 4:0.10843374 5:0.036144577 6:0.036144577 7:0.060240965 8:0.084337346 9:0.084337346 10:0.084337346 11:0.10843374 12:0 13:0.084337346 14:0.048192769 15:0.060240965 16:0.060240965 17:4 18:0.012048192 19:-30.9 20:0.0040160641 21:2 22:0 23:12 24:25 25:5 26:0.096385539 27:0 28:0.036144577 29:0.024096385 30:0.036144577 31:0 32:0 33:0.048192769 34:0.13253012 35:0.024096385 36:0 37:0 38:0.036144577 39:0 40:0.012048192 41:0.012048192 42:0.12048193 43:0.036144577 44:0 45:0.036144577 46:0.012048192 47:0 48:0.036144577 49:0.024096385 50:0.12048193 51:0.048192769 52:0 53:0.036144577 54:0 55:0.012048192 56:0.024096385 57:0.012048192 58:-30.9 #
-0.00041471625999604620890423567480809 1:0 2:0.011904762 3:0.011904762 4:0.035714287 5:0 6:0 7:0.023809524 8:0.05952381 9:0.035714287 10:0.047619049 11:0.15476191 12:0.16666667 13:0.023809524 14:0.023809524 15:0.20238096 16:0.19047619 17:6 18:0.29761904 19:-1.7640001 20:0.29761904 21:0.039999999 22:1 23:4 24:34 25:3 26:0 27:0 28:0.011904762 29:0 30:0 31:0 32:0 33:0.047619049 34:0 35:0 36:0.023809524 37:0.023809524 38:0 39:0 40:0 41:0.035714287 42:0.16666667 43:0.035714287 44:0.035714287 45:0.071428575 46:0.011904762 47:0 48:0.035714287 49:0.035714287 50:0.16666667 51:0.095238097 52:0.023809524 53:0.035714287 54:0.011904762 55:0 56:0 57:0.10714286 58:-44.099998 #
0.00041471625999604620890423567480809 1:0.11111111 2:0.11111111 3:0.037037037 4:0.074074075 5:0.12962963 6:0.11111111 7:0 8:0.09259259 9:0.09259259 10:0.018518519 11:0.018518519 12:0 13:0 14:0.09259259 15:0.055555556 16:0.037037037 17:12 18:0.35185185 19:-0.80000001 20:0.35185185 21:0.15789473 22:1 23:4 24:16 25:0 26:0.16666667 27:0 28:0 29:0.018518519 30:0.037037037 31:0 32:0.018518519 33:0.09259259 34:0.25925925 35:0.018518519 36:0 37:0 38:0 39:0 40:0.018518519 41:0.037037037 42:0.018518519 43:0.037037037 44:0 45:0 46:0.018518519 47:0 48:0.018518519 49:0.018518519 50:0.11111111 51:0 52:0 53:0.037037037 54:0 55:0 56:0 57:0.037037037 58:-15.2 #
-0.00041471625999604620890423567480809 1:0.060240965 2:0.048192769 3:0.036144577 4:0.072289154 5:0.060240965 6:0.13253012 7:0.048192769 8:0.084337346 9:0.024096385 10:0.084337346 11:0.048192769 12:0 13:0.072289154 14:0.060240965 15:0.024096385 16:0.13253012 17:5 18:0.012048192 19:-19.799999 20:0.0040160641 21:10 22:0 23:3 24:23 25:12 26:0.13253012 27:0.012048192 28:0.012048192 29:0 30:0.024096385 31:0 32:0.012048192 33:0.024096385 34:0.19277108 35:0.012048192 36:0 37:0.036144577 38:0.012048192 39:0.012048192 40:0 41:0.060240965 42:0.036144577 43:0.024096385 44:0.012048192 45:0.024096385 46:0 47:0 48:0.024096385 49:0.024096385 50:0.16867469 51:0.024096385 52:0.024096385 53:0.012048192 54:0.012048192 55:0.012048192 56:0.012048192 57:0.024096385 58:-19.799999 #
0.00041471625999604620890423567480809 1:0.050000001 2:0.06666667 3:0.10833333 4:0.041666668 5:0.083333336 6:0.058333334 7:0.016666668 8:0.125 9:0.083333336 10:0.033333335 11:0.033333335 12:0.025 13:0.041666668 14:0.13333334 15:0.016666668 16:0.075000003 17:5 18:0.0083333338 19:-53.099998 20:0.0027777778 21:5 22:0 23:18 24:42 25:9 26:0.125 27:0 28:0 29:0.016666668 30:0.025 31:0 32:0 33:0.091666669 34:0.13333334 35:0.041666668 36:0 37:0.0083333338 38:0 39:0 40:0.025 41:0.075000003 42:0.11666667 43:0 44:0 45:0.025 46:0.0083333338 47:0 48:0.0083333338 49:0.016666668 50:0.14166667 51:0.025 52:0 53:0.016666668 54:0.033333335 55:0 56:0.033333335 57:0.016666668 58:-53.099998 #
-0.00041471625999604620890423567480809 1:0 2:0.012048192 3:0.024096385 4:0.036144577 5:0.012048192 6:0 7:0 8:0.048192769 9:0.012048192 10:0.048192769 11:0.24096386 12:0.16867469 13:0.048192769 14:0 15:0.20481928 16:0.13253012 17:8 18:0.012048192 19:-48.099998 20:0.0040160641 21:2 22:0 23:15 24:27 25:6 26:0 27:0.012048192 28:0.012048192 29:0 30:0.012048192 31:0 32:0 33:0.036144577 34:0.012048192 35:0 36:0.012048192 37:0.012048192 38:0 39:0 40:0 41:0.024096385 42:0.20481928 43:0.036144577 44:0.012048192 45:0.060240965 46:0.036144577 47:0 48:0.036144577 49:0.072289154 50:0.21686748 51:0.072289154 52:0.012048192 53:0.036144577 54:0.012048192 55:0 56:0.024096385 57:0.012048192 58:-48.099998 #
0.00041471625999604620890423567480809 1:0.064516127 2:0.080645159 3:0.080645159 4:0.064516127 5:0.12903225 6:0.080645159 7:0.032258064 8:0.096774191 9:0.064516127 10:0.080645159 11:0.032258064 12:0 13:0.032258064 14:0.096774191 15:0.032258064 16:0.016129032 17:4 18:0.3548387 19:-0.55454546 20:0.3548387 21:0.13636364 22:1 23:6 24:18 25:4 26:0.12903225 27:0.080645159 28:0.016129032 29:0.016129032 30:0.016129032 31:0 32:0.016129032 33:0.016129032 34:0.14516129 35:0.032258064 36:0.032258064 37:0.080645159 38:0.016129032 39:0 40:0.016129032 41:0.016129032 42:0.064516127 43:0.016129032 44:0 45:0.016129032 46:0.032258064 47:0 48:0.016129032 49:0.032258064 50:0.080645159 51:0.016129032 52:0.016129032 53:0.032258064 54:0 55:0 56:0.016129032 57:0 58:-12.2 #
-0.00041471625999604620890423567480809 1:0.084337346 2:0.10843374 3:0.036144577 4:0.060240965 5:0.096385539 6:0.084337346 7:0.072289154 8:0.072289154 9:0.084337346 10:0.084337346 11:0.012048192 12:0.012048192 13:0.024096385 14:0.048192769 15:0.072289154 16:0.036144577 17:4 18:0.31325302 19:-0.70769233 20:0.31325302 21:0 22:1 23:7 24:31 25:4 26:0.10843374 27:0.036144577 28:0 29:0.012048192 30:0.036144577 31:0 32:0.024096385 33:0.060240965 34:0.14457831 35:0.012048192 36:0.012048192 37:0.048192769 38:0.048192769 39:0 40:0.036144577 41:0.024096385 42:0.048192769 43:0.036144577 44:0.012048192 45:0.024096385 46:0 47:0 48:0.012048192 49:0.060240965 50:0.10843374 51:0.024096385 52:0 53:0.024096385 54:0 55:0 56:0.012048192 57:0.012048192 58:-18.4 #
-0.00041471625999604620890423567480809 1:0.011904762 2:0 3:0.011904762 4:0.035714287 5:0 6:0.035714287 7:0.05952381 8:0.047619049 9:0 10:0.023809524 11:0.14285715 12:0.17857143 13:0.047619049 14:0.083333336 15:0.11904762 16:0.19047619 17:7 18:0.011904762 19:-45.299999 20:0.0039682542 21:6 22:0 23:6 24:22 25:7 26:0.023809524 27:0 28:0 29:0 30:0.023809524 31:0 32:0.011904762 33:0 34:0.05952381 35:0.011904762 36:0 37:0.011904762 38:0.023809524 39:0 40:0.023809524 41:0.011904762 42:0.19047619 43:0.035714287 44:0.023809524 45:0.047619049 46:0 47:0 48:0 49:0.035714287 50:0.25 51:0.047619049 52:0.011904762 53:0.035714287 54:0.011904762 55:0 56:0.023809524 57:0.05952381 58:-45.299999 #
0.00041471625999604620890423567480809 1:0 2:0.05952381 3:0 4:0.047619049 5:0.047619049 6:0.34523809 7:0.011904762 8:0.15476191 9:0.035714287 10:0.011904762 11:0.011904762 12:0 13:0.011904762 14:0.15476191 15:0.035714287 16:0.05952381 17:13 18:0.13095239 19:-0.82727271 20:0.13095239 21:0.36363637 22:1 23:3 24:62 25:1 26:0.023809524 27:0 28:0 29:0.011904762 30:0.011904762 31:0 32:0 33:0.047619049 34:0.023809524 35:0.023809524 36:0.035714287 37:0.023809524 38:0.011904762 39:0 40:0.011904762 41:0.42857143 42:0.047619049 43:0 44:0 45:0 46:0 47:0.011904762 48:0 49:0 50:0.047619049 51:0.023809524 52:0 53:0.011904762 54:0.011904762 55:0.011904762 56:0.023809524 57:0.13095239 58:-9.1000004 #
0.00041471625999604620890423567480809 1:0.09565217 2:0.078260869 3:0.026086956 4:0.026086956 5:0.026086956 6:0.12173913 7:0.060869563 8:0.060869563 9:0.043478262 10:0.026086956 11:0.09565217 12:0.069565214 13:0.060869563 14:0.043478262 15:0.043478262 16:0.11304348 17:8 18:0.0086956518 19:-55 20:0.0043478259 21:11 22:1 23:6 24:23 25:33 26:0.13913043 27:0.0086956518 28:0.017391304 29:0.0086956518 30:0.017391304 31:0 32:0.017391304 33:0.017391304 34:0.17391305 35:0.017391304 36:0.017391304 37:0.034782607 38:0 39:0 40:0.0086956518 41:0.017391304 42:0.13043478 43:0.017391304 44:0 45:0.0086956518 46:0.017391304 47:0.0086956518 48:0.0086956518 49:0.034782607 50:0.18260869 51:0.026086956 52:0.017391304 53:0.017391304 54:0 55:0.0086956518 56:0 57:0.0086956518 58:-55 #
-0.00041471625999604620890423567480809 1:0.060240965 2:0.024096385 3:0.060240965 4:0.096385539 5:0.048192769 6:0.13253012 7:0.060240965 8:0.096385539 9:0.060240965 10:0.10843374 11:0.024096385 12:0 13:0.060240965 14:0.072289154 15:0.048192769 16:0.036144577 17:4 18:0.27710843 19:-0.93043476 20:0.27710843 21:0.30434781 22:1 23:13 24:37 25:6 26:0.10843374 27:0.024096385 28:0 29:0 30:0.012048192 31:0 32:0 33:0.084337346 34:0.10843374 35:0.024096385 36:0 37:0.036144577 38:0.048192769 39:0 40:0.036144577 41:0.084337346 42:0.084337346 43:0.024096385 44:0 45:0 46:0 47:0 48:0 49:0.084337346 50:0.10843374 51:0 52:0.012048192 53:0.036144577 54:0 55:0 56:0.024096385 57:0.036144577 58:-21.4 #
0.00041471625999604620890423567480809 1:0.07272727 2:0.1 3:0.045454547 4:0.036363635 5:0.081818178 6:0.07272727 7:0.07272727 8:0.11818182 9:0.054545455 10:0.090909094 11:0.036363635 12:0.0090909088 13:0.045454547 14:0.07272727 15:0.045454547 16:0.036363635 17:4 18:0.35454544 19:-0.80256408 20:0.35454544 21:0.23076923 22:1 23:5 24:32 25:6 26:0.1 27:0.027272727 28:0.027272727 29:0.054545455 30:0 31:0 32:0.018181818 33:0.027272727 34:0.14545454 35:0.036363635 36:0.036363635 37:0.036363635 38:0.036363635 39:0 40:0.018181818 41:0.027272727 42:0.090909094 43:0.018181818 44:0.027272727 45:0.018181818 46:0.0090909088 47:0 48:0.0090909088 49:0.018181818 50:0.090909094 51:0.054545455 52:0 53:0.018181818 54:0.0090909088 55:0.0090909088 56:0 57:0.018181818 58:-31.299999 #
-0.00041471625999604620890423567480809 1:0.011904762 2:0.011904762 3:0.023809524 4:0.047619049 5:0 6:0 7:0.023809524 8:0.035714287 9:0.047619049 10:0.047619049 11:0.21428572 12:0.15476191 13:0.035714287 14:0 15:0.21428572 16:0.11904762 17:4 18:0.36904761 19:-1.4967742 20:0.36904761 21:0.032258064 22:1 23:6 24:22 25:4 26:0.011904762 27:0 28:0.047619049 29:0 30:0.011904762 31:0 32:0.011904762 33:0.011904762 34:0.023809524 35:0 36:0.011904762 37:0 38:0 39:0 40:0 41:0.023809524 42:0.20238096 43:0.035714287 44:0.083333336 45:0.083333336 46:0.011904762 47:0.011904762 48:0.023809524 49:0.011904762 50:0.16666667 51:0.095238097 52:0 53:0.047619049 54:0.011904762 55:0.035714287 56:0 57:0 58:-46.400002 #
-0.00041471625999604620890423567480809 1:0 2:0 3:0 4:0.072289154 5:0.012048192 6:0.012048192 7:0.072289154 8:0.024096385 9:0.048192769 10:0.036144577 11:0.12048193 12:0.15662651 13:0.012048192 14:0.072289154 15:0.18072289 16:0.16867469 17:6 18:0.3493976 19:-1.6551725 20:0.3493976 21:0.13793103 22:1 23:5 24:25 25:8 26:0.012048192 27:0.012048192 28:0.036144577 29:0.012048192 30:0 31:0 32:0 33:0 34:0.036144577 35:0.012048192 36:0 37:0.036144577 38:0 39:0 40:0 41:0.036144577 42:0.19277108 43:0.012048192 44:0.012048192 45:0.048192769 46:0.036144577 47:0.012048192 48:0.036144577 49:0.012048192 50:0.19277108 51:0.084337346 52:0.048192769 53:0.024096385 54:0 55:0.012048192 56:0.012048192 57:0.048192769 58:-48 #
0.00041471625999604620890423567480809 1:0.036363635 2:0.036363635 3:0.063636363 4:0.11818182 5:0 6:0.018181818 7:0.054545455 8:0.081818178 9:0.16363636 10:0.07272727 11:0.081818178 12:0.0090909088 13:0.054545455 14:0.027272727 15:0.11818182 16:0.054545455 17:7 18:0.0090909088 19:-35.900002 20:0.0030303029 21:3 22:0 23:27 24:50 25:29 26:0.07272727 27:0 28:0.0090909088 29:0.018181818 30:0.036363635 31:0 32:0.018181818 33:0.1 34:0.090909094 35:0.0090909088 36:0 37:0 38:0.018181818 39:0 40:0.018181818 41:0.018181818 42:0.081818178 43:0.045454547 44:0 45:0.045454547 46:0.018181818 47:0 48:0.027272727 49:0.1 50:0.1 51:0.045454547 52:0.0090909088 53:0.036363635 54:0.0090909088 55:0 56:0.018181818 57:0.036363635 58:-35.900002 #
0.00041471625999604620890423567480809 1:0.059701491 2:0.029850746 3:0.10447761 4:0.014925373 5:0.044776119 6:0.089552239 7:0.029850746 8:0.13432837 9:0.10447761 10:0.089552239 11:0.044776119 12:0.014925373 13:0.014925373 14:0.089552239 15:0.074626863 16:0.044776119 17:5 18:0.34328359 19:-1.0086956 20:0.34328359 21:0.26086956 22:1 23:6 24:21 25:0 26:0.11940298 27:0.014925373 28:0 29:0.014925373 30:0.014925373 31:0 32:0.014925373 33:0.029850746 34:0.13432837 35:0.044776119 36:0 37:0.014925373 38:0.044776119 39:0 40:0.029850746 41:0.029850746 42:0.089552239 43:0.029850746 44:0.029850746 45:0.029850746 46:0.014925373 47:0 48:0.044776119 49:0.014925373 50:0.10447761 51:0.029850746 52:0 53:0.059701491 54:0 55:0 56:0 57:0.014925373 58:-23.200001 #
0.00041471625999604620890423567480809 1:0.0989011 2:0.14285715 3:0.043956045 4:0.043956045 5:0.14285715 6:0.16483517 7:0.054945055 8:0.043956045 9:0.065934069 10:0.021978023 11:0 12:0.032967035 13:0.021978023 14:0.07692308 15:0.021978023 16:0.010989011 17:12 18:0.30769232 19:-0.875 20:0.30769232 21:0.071428575 22:1 23:5 24:35 25:0 26:0.14285715 27:0.032967035 28:0.021978023 29:0.032967035 30:0.032967035 31:0 32:0.010989011 33:0.054945055 34:0.17582418 35:0.032967035 36:0 37:0.032967035 38:0.032967035 39:0 40:0.032967035 41:0.08791209 42:0.032967035 43:0.021978023 44:0.021978023 45:0 46:0 47:0.010989011 48:0 49:0.032967035 50:0.065934069 51:0 52:0 53:0.021978023 54:0 55:0.010989011 56:0.021978023 57:0.010989011 58:-24.5 #
0.00041471625999604620890423567480809 1:0.06666667 2:0.088888891 3:0.033333335 4:0.044444446 5:0.077777781 6:0.23333333 7:0.06666667 8:0.044444446 9:0.1 10:0.044444446 11:0.077777781 12:0 13:0 14:0.055555556 15:0.044444446 16:0.011111111 17:16 18:0.011111111 19:-9.3999996 20:0.0055555557 21:3 22:1 23:7 24:60 25:1 26:0.055555556 27:0.011111111 28:0 29:0.022222223 30:0.022222223 31:0 32:0.011111111 33:0.11111111 34:0.06666667 35:0.022222223 36:0.011111111 37:0 38:0.033333335 39:0 40:0.033333335 41:0.25555557 42:0.033333335 43:0.022222223 44:0 45:0.022222223 46:0.011111111 47:0 48:0.022222223 49:0.11111111 50:0.022222223 51:0.022222223 52:0 53:0.033333335 54:0 55:0 56:0 57:0.022222223 58:-9.3999996 #
-0.00041471625999604620890423567480809 1:0 2:0.023809524 3:0.023809524 4:0.011904762 5:0.011904762 6:0 7:0.023809524 8:0.071428575 9:0.011904762 10:0.071428575 11:0.10714286 12:0.16666667 13:0.035714287 14:0.023809524 15:0.19047619 16:0.21428572 17:3 18:0.011904762 19:-46.599998 20:0.0059523811 21:3 22:1 23:5 24:26 25:3 26:0.011904762 27:0 28:0.023809524 29:0 30:0.011904762 31:0 32:0.011904762 33:0 34:0.035714287 35:0.011904762 36:0 37:0.023809524 38:0 39:0.011904762 40:0 41:0.023809524 42:0.16666667 43:0.05952381 44:0 45:0.035714287 46:0.011904762 47:0 48:0.035714287 49:0.035714287 50:0.19047619 51:0.05952381 52:0.071428575 53:0.071428575 54:0.035714287 55:0.011904762 56:0.011904762 57:0.011904762 58:-46.599998 #
0.00041471625999604620890423567480809 1:0.039999999 2:0.039999999 3:0.039999999 4:0.026666667 5:0.026666667 6:0.16 7:0.093333334 8:0.093333334 9:0.079999998 10:0.079999998 11:0.10666667 12:0.013333334 13:0 14:0.093333334 15:0.053333335 16:0.039999999 17:18 18:0.23999999 19:-0.80000001 20:0.23999999 21:0.11111111 22:1 23:17 24:39 25:13 26:0.093333334 27:0 28:0 29:0 30:0.013333334 31:0 32:0 33:0.039999999 34:0.12 35:0 36:0 37:0 38:0.013333334 39:0 40:0.026666667 41:0.21333334 42:0.053333335 43:0.053333335 44:0 45:0 46:0.026666667 47:0 48:0.013333334 49:0.13333334 50:0.079999998 51:0 52:0 53:0.053333335 54:0 55:0 56:0.013333334 57:0.026666667 58:-14.4 #
-0.00041471625999604620890423567480809 1:0.084337346 2:0.012048192 3:0.072289154 4:0.12048193 5:0.012048192 6:0.012048192 7:0.084337346 8:0.048192769 9:0.084337346 10:0.084337346 11:0.084337346 12:0.048192769 13:0.10843374 14:0.048192769 15:0.060240965 16:0.024096385 17:21 18:0.21686748 19:-0.8888889 20:0.21686748 21:0.27777779 22:1 23:9 24:47 25:7 26:0.036144577 27:0.012048192 28:0.036144577 29:0.012048192 30:0.012048192 31:0 32:0.024096385 33:0.15662651 34:0.048192769 35:0.012048192 36:0.012048192 37:0 38:0.012048192 39:0 40:0.012048192 41:0.060240965 42:0.084337346 43:0.012048192 44:0 45:0.060240965 46:0.036144577 47:0 48:0.012048192 49:0.084337346 50:0.048192769 51:0.072289154 52:0 53:0.036144577 54:0 55:0 56:0 57:0.084337346 58:-16 #
